264 100
[2023/03/23 0.10521 -0.094441 0.11025 0.07094 -0.079014 -0.015789 0.00047157 0.028823 0.027765 0.016516 0.11639 0.057952 0.15293 0.15955 -0.12966 0.11535 0.15255 0.080837 0.084991 -0.05903 -0.014184 0.039708 -0.12828 -0.10731 -0.037731 0.087048 0.088118 0.025365 0.079086 0.089644 0.020895 -0.15433 -0.16042 -0.081158 -0.16467 -0.10282 -0.051171 0.075997 -0.031609 0.030166 0.2 0.12286 -0.066107 -0.0067029 -0.12644 -0.12217 0.25738 0.066511 0.19307 -0.049802 0.017763 0.11829 -0.05214 -0.17362 -0.058233 -0.064432 0.081144 0.095976 0.058221 -0.21092 -0.088578 0.094897 0.041104 -0.21374 -0.049983 -0.15551 -0.062132 -0.17628 -0.11432 -0.04467 0.069462 0.041585 0.13677 0.088043 0.0051924 -0.052984 -0.10046 -0.1574 -0.064874 -0.055289 -0.10883 0.15747 -0.062607 -0.12597 0.0048755 -0.34414 -0.0062981 -0.01055 -0.11479 -0.073703 -0.09523 -0.024284 0.086962 0.24143 0.044909 -0.12047 -0.07833 -0.11038 -0.018014 -0.065814 
</s> 0 0 0 0 0 0 0 0 0 0 0 0 0 0 0 0 0 0 0 0 0 0 0 0 0 0 0 0 0 0 0 0 0 0 0 0 0 0 0 0 0 0 0 0 0 0 0 0 0 0 0 0 0 0 0 0 0 0 0 0 0 0 0 0 0 0 0 0 0 0 0 0 0 0 0 0 0 0 0 0 0 0 0 0 0 0 0 0 0 0 0 0 0 0 0 0 0 0 0 0 
or 0.099694 -0.089651 0.10402 0.066554 -0.074143 -0.01497 0.0007644 0.027108 0.025858 0.01597 0.11053 0.054839 0.1443 0.15112 -0.12281 0.1084 0.14414 0.076825 0.079827 -0.05509 -0.012939 0.036801 -0.12048 -0.10141 -0.035986 0.082287 0.083175 0.023966 0.075019 0.084564 0.01962 -0.14583 -0.15148 -0.076831 -0.15596 -0.097135 -0.048323 0.071675 -0.02959 0.028661 0.18838 0.1162 -0.062083 -0.0068276 -0.11905 -0.11542 0.24313 0.062724 0.18272 -0.047646 0.017085 0.11249 -0.049835 -0.16389 -0.055006 -0.061154 0.076773 0.091034 0.055008 -0.19965 -0.084329 0.089122 0.03892 -0.20186 -0.04665 -0.14747 -0.058273 -0.16665 -0.10759 -0.041802 0.066166 0.039785 0.1301 0.083247 0.0047784 -0.05015 -0.09467 -0.14923 -0.061025 -0.05257 -0.10358 0.14798 -0.058894 -0.11903 0.0041444 -0.32517 -0.0056561 -0.010298 -0.10904 -0.06968 -0.090623 -0.023116 0.082319 0.2281 0.042245 -0.11415 -0.074143 -0.10416 -0.017383 -0.061556 
modem|raw_mtu=1500 0.099119 -0.088761 0.1033 0.065701 -0.073181 -0.014752 0.0014215 0.026551 0.026038 0.015859 0.10955 0.053609 0.14296 0.1505 -0.12195 0.10816 0.14305 0.07685 0.079329 -0.055 -0.012617 0.035944 -0.12005 -0.1011 -0.035074 0.081759 0.082808 0.023957 0.074119 0.084121 0.01983 -0.14457 -0.15039 -0.07593 -0.15473 -0.096504 -0.047856 0.071094 -0.029642 0.028262 0.18781 0.11559 -0.061666 -0.0071291 -0.11845 -0.11461 0.24189 0.062287 0.18188 -0.047103 0.01665 0.11178 -0.049616 -0.16262 -0.05486 -0.061071 0.075899 0.091024 0.054949 -0.19879 -0.084446 0.088462 0.039418 -0.2005 -0.046658 -0.14613 -0.058087 -0.16523 -0.10675 -0.04126 0.066143 0.039117 0.1291 0.083053 0.0051187 -0.050189 -0.094383 -0.14816 -0.060595 -0.052312 -0.10296 0.14687 -0.058912 -0.1189 0.0038751 -0.32277 -0.0055623 -0.010062 -0.10863 -0.069229 -0.089962 -0.023332 0.081718 0.22699 0.041665 -0.11338 -0.073355 -0.10369 -0.017694 -0.060541 
OS 0.060415 -0.058802 0.066913 0.038989 -0.045391 -0.0089717 0.0017418 0.019022 0.017204 0.011676 0.07224 0.036365 0.093852 0.09847 -0.078491 0.069553 0.091885 0.049402 0.051548 -0.035897 -0.0077743 0.023889 -0.077831 -0.063747 -0.025003 0.052093 0.053125 0.015989 0.047807 0.051848 0.014055 -0.093883 -0.096468 -0.049999 -0.10141 -0.062409 -0.030981 0.043991 -0.017922 0.019427 0.12239 0.076501 -0.039928 -0.0059985 -0.074599 -0.07467 0.15561 0.039055 0.11693 -0.029876 0.0091308 0.070437 -0.033336 -0.10353 -0.037096 -0.039366 0.050865 0.056884 0.034142 -0.12839 -0.055405 0.056002 0.02205 -0.12661 -0.032009 -0.09545 -0.038335 -0.10487 -0.069483 -0.028789 0.039909 0.024391 0.082187 0.053164 0.0042243 -0.03051 -0.057548 -0.096002 -0.040708 -0.032664 -0.065454 0.092243 -0.037377 -0.077425 0.0025805 -0.20785 -0.0025852 -0.006558 -0.067166 -0.04462 -0.059964 -0.012575 0.052735 0.14718 0.02981 -0.075724 -0.049554 -0.065597 -0.013515 -0.041409 
X|dist=0|params=generic 0.06342 -0.056894 0.066686 0.042592 -0.047189 -0.0098502 0.00047777 0.017034 0.016445 0.0096557 0.069934 0.034355 0.09127 0.095942 -0.078085 0.068509 0.091125 0.048669 0.050766 -0.035358 -0.0083825 0.024038 -0.076349 -0.064547 -0.022763 0.051776 0.053193 0.014806 0.047681 0.053195 0.012656 -0.092757 -0.096061 -0.049107 -0.099511 -0.06215 -0.030041 0.04488 -0.018546 0.018831 0.11946 0.073804 -0.039489 -0.0044589 -0.075285 -0.073357 0.1541 0.039494 0.11623 -0.029602 0.010616 0.071829 -0.031779 -0.1045 -0.033899 -0.038685 0.048971 0.058089 0.034842 -0.12667 -0.053107 0.056344 0.025002 -0.12769 -0.02954 -0.093049 -0.037433 -0.10552 -0.067905 -0.026649 0.042378 0.02554 0.082 0.05296 0.0032214 -0.030899 -0.060094 -0.094328 -0.038971 -0.03321 -0.065906 0.09365 -0.037185 -0.075056 0.0025298 -0.20643 -0.0033992 -0.0064204 -0.068854 -0.044104 -0.057806 -0.014334 0.052059 0.14422 0.026696 -0.072938 -0.047118 -0.06664 -0.011121 -0.039336 
fuzzy|raw_sig=4:64+0:0:1460:65535,6:mss,nop,ws,nop,nop,ts,sok,eol+1:df,ecn:0 0.093226 -0.083804 0.097139 0.062172 -0.069516 -0.014174 0.0012985 0.02527 0.024701 0.014896 0.10328 0.051248 0.13425 0.14125 -0.11458 0.10136 0.13454 0.071694 0.074922 -0.051716 -0.011614 0.034387 -0.11251 -0.094714 -0.033406 0.076874 0.077734 0.022422 0.069715 0.079029 0.018609 -0.13605 -0.14136 -0.071777 -0.14542 -0.090764 -0.044669 0.066814 -0.028035 0.026752 0.17601 0.10854 -0.057844 -0.0065123 -0.11104 -0.10774 0.22725 0.058282 0.17071 -0.044087 0.015394 0.10497 -0.046851 -0.15332 -0.051039 -0.057021 0.071707 0.0855 0.050963 -0.18652 -0.079075 0.083316 0.036598 -0.18863 -0.043833 -0.13816 -0.054573 -0.1554 -0.10044 -0.039378 0.061371 0.037086 0.12134 0.077767 0.0041995 -0.04663 -0.08827 -0.13947 -0.0572 -0.04883 -0.09656 0.13805 -0.055009 -0.11126 0.0041187 -0.30332 -0.0053345 -0.0097776 -0.10182 -0.065041 -0.084579 -0.021594 0.076701 0.21286 0.039276 -0.1067 -0.069417 -0.097329 -0.016765 -0.057382 
SIT|raw_mtu=1480 0.082611 -0.073812 0.085909 0.055015 -0.06128 -0.012353 0.0017994 0.022653 0.021488 0.013083 0.09153 0.044775 0.11913 0.12533 -0.10128 0.089849 0.11935 0.064026 0.065882 -0.045623 -0.010236 0.03008 -0.0999 -0.084253 -0.029689 0.068083 0.068599 0.019866 0.061393 0.070476 0.016198 -0.12074 -0.12539 -0.063193 -0.12924 -0.080066 -0.040007 0.059099 -0.024279 0.023531 0.15658 0.096194 -0.051798 -0.0057225 -0.098572 -0.095435 0.20168 0.051498 0.1513 -0.039535 0.01404 0.093363 -0.041441 -0.13528 -0.045295 -0.051296 0.062958 0.075974 0.045508 -0.16501 -0.070753 0.074102 0.032952 -0.16696 -0.038512 -0.12188 -0.048292 -0.13788 -0.089348 -0.034668 0.054749 0.03265 0.10726 0.068938 0.0041973 -0.041283 -0.078486 -0.12329 -0.05078 -0.042941 -0.085487 0.12203 -0.048785 -0.09892 0.0032617 -0.26909 -0.0045945 -0.007944 -0.09014 -0.057253 -0.074968 -0.018671 0.067796 0.18898 0.035143 -0.094031 -0.061014 -0.086581 -0.014722 -0.05071 
days 0.22278 -0.19957 0.22893 0.14726 -0.16503 -0.033035 0.0019227 0.058438 0.056109 0.034977 0.24464 0.12152 0.31929 0.33477 -0.27356 0.24168 0.31918 0.17025 0.17705 -0.12106 -0.029781 0.082544 -0.26651 -0.22354 -0.079877 0.18282 0.18414 0.05193 0.16561 0.18645 0.043889 -0.3232 -0.33575 -0.16869 -0.34592 -0.21349 -0.10714 0.15751 -0.066248 0.062081 0.41637 0.25687 -0.13684 -0.014845 -0.26365 -0.25597 0.53897 0.1395 0.40475 -0.10548 0.038668 0.25165 -0.11002 -0.36394 -0.12104 -0.13682 0.16998 0.20095 0.12132 -0.44275 -0.18652 0.19803 0.085916 -0.44732 -0.10209 -0.3276 -0.12803 -0.36885 -0.23948 -0.091482 0.14554 0.089726 0.28879 0.18416 0.0092686 -0.11221 -0.21058 -0.3299 -0.13508 -0.11625 -0.22921 0.32674 -0.13095 -0.26216 0.010922 -0.72002 -0.013697 -0.023155 -0.24201 -0.15493 -0.20032 -0.052122 0.18137 0.50641 0.093169 -0.25228 -0.16567 -0.2303 -0.038415 -0.13541 
hrs 0.19093 -0.16817 0.19589 0.12669 -0.14384 -0.029613 0.0015417 0.05043 0.047339 0.029343 0.2105 0.10212 0.27218 0.28723 -0.23136 0.20525 0.27246 0.14542 0.1507 -0.10694 -0.02528 0.071232 -0.2271 -0.19252 -0.068687 0.15808 0.15824 0.044115 0.14153 0.1611 0.037516 -0.27761 -0.28735 -0.1452 -0.29553 -0.18481 -0.090136 0.13387 -0.056475 0.053749 0.35537 0.21949 -0.11861 -0.013822 -0.22547 -0.21901 0.4617 0.11723 0.34491 -0.092717 0.032279 0.21544 -0.09615 -0.3114 -0.10387 -0.11834 0.1457 0.17484 0.10571 -0.37699 -0.1595 0.171 0.075252 -0.38334 -0.088495 -0.27871 -0.1118 -0.31437 -0.20415 -0.079629 0.1277 0.074986 0.24746 0.15896 0.0076384 -0.094895 -0.18076 -0.28054 -0.11631 -0.099101 -0.19604 0.28119 -0.11031 -0.22598 0.0069229 -0.61785 -0.011087 -0.019391 -0.20488 -0.13306 -0.17316 -0.04481 0.15588 0.43143 0.078891 -0.21601 -0.14098 -0.19855 -0.03487 -0.11731 
min 0.18123 -0.16239 0.19 0.12158 -0.13618 -0.027941 0.0024279 0.04974 0.046788 0.030396 0.20142 0.098744 0.25906 0.27327 -0.22174 0.1962 0.25887 0.13717 0.14511 -0.10181 -0.021067 0.067487 -0.2177 -0.18265 -0.06359 0.14813 0.15082 0.044759 0.13445 0.1517 0.034631 -0.26223 -0.27091 -0.13898 -0.28038 -0.17632 -0.08459 0.12799 -0.053461 0.052181 0.34066 0.20865 -0.11117 -0.011814 -0.21365 -0.20906 0.43866 0.11221 0.32899 -0.086421 0.031379 0.20316 -0.090636 -0.29665 -0.099083 -0.11062 0.13837 0.16586 0.10002 -0.35985 -0.15059 0.16098 0.070002 -0.36495 -0.083729 -0.26846 -0.10476 -0.30251 -0.19574 -0.077111 0.11967 0.070701 0.23414 0.15005 0.0095363 -0.090193 -0.16865 -0.27044 -0.10872 -0.094688 -0.18772 0.26826 -0.10502 -0.21543 0.010029 -0.58676 -0.0095906 -0.019598 -0.19793 -0.12699 -0.16411 -0.041476 0.14873 0.41046 0.075625 -0.20652 -0.13432 -0.18886 -0.031434 -0.11136 
(modulo 0.1623 -0.14645 0.16864 0.10851 -0.12147 -0.024889 0.0021339 0.043922 0.042481 0.025869 0.18048 0.089737 0.23475 0.24604 -0.19873 0.17555 0.23344 0.12472 0.13024 -0.089289 -0.021485 0.059713 -0.19633 -0.16433 -0.057525 0.13435 0.13622 0.038671 0.12095 0.1373 0.031609 -0.23625 -0.24555 -0.12512 -0.25238 -0.15735 -0.07812 0.11702 -0.049663 0.045402 0.30512 0.18891 -0.10107 -0.011344 -0.19281 -0.18731 0.39457 0.10176 0.2952 -0.077474 0.026592 0.18346 -0.081867 -0.26683 -0.089389 -0.099077 0.12534 0.14915 0.09004 -0.32457 -0.13753 0.14439 0.063883 -0.32763 -0.07645 -0.24092 -0.094275 -0.27114 -0.17543 -0.067718 0.10774 0.064469 0.21099 0.13597 0.007458 -0.082929 -0.15286 -0.24255 -0.098601 -0.085551 -0.16932 0.24068 -0.095799 -0.19316 0.0077085 -0.5288 -0.010088 -0.016421 -0.17848 -0.11307 -0.14758 -0.037024 0.13307 0.3711 0.067973 -0.18573 -0.12079 -0.16901 -0.02929 -0.10005 
Hz 0.15224 -0.13824 0.15938 0.10111 -0.11331 -0.023537 0.0026887 0.042636 0.040441 0.024804 0.16912 0.084539 0.21834 0.23127 -0.18813 0.16687 0.22142 0.11844 0.12189 -0.084462 -0.018708 0.055315 -0.18499 -0.15465 -0.053743 0.12501 0.1285 0.037791 0.11521 0.12957 0.030513 -0.22122 -0.23054 -0.11751 -0.23785 -0.14911 -0.0726 0.10993 -0.046749 0.042873 0.28809 0.17747 -0.094893 -0.010472 -0.1825 -0.17655 0.37135 0.095798 0.27908 -0.072737 0.026963 0.17318 -0.077755 -0.24984 -0.082346 -0.094326 0.11664 0.14079 0.085146 -0.30602 -0.12969 0.13706 0.059203 -0.30955 -0.072477 -0.22619 -0.087788 -0.25565 -0.16483 -0.062862 0.10193 0.061578 0.19974 0.1276 0.0062454 -0.077261 -0.14429 -0.22841 -0.093209 -0.079165 -0.15909 0.2264 -0.088977 -0.18071 0.0067291 -0.49633 -0.0085443 -0.016212 -0.16738 -0.10763 -0.13764 -0.036212 0.12461 0.34752 0.063445 -0.17425 -0.11243 -0.15933 -0.028262 -0.092391 
49 0.17365 -0.15347 0.1814 0.11509 -0.13092 -0.024691 0.004807 0.046689 0.04232 0.029998 0.18952 0.094394 0.24857 0.26372 -0.21233 0.18863 0.25198 0.13365 0.14022 -0.094762 -0.023532 0.061594 -0.2068 -0.17577 -0.059038 0.14208 0.14645 0.04122 0.12868 0.14614 0.032495 -0.24978 -0.26146 -0.13506 -0.26989 -0.16918 -0.084871 0.12148 -0.053286 0.048791 0.32292 0.19932 -0.10748 -0.013743 -0.20747 -0.19845 0.42144 0.10942 0.31495 -0.081858 0.031651 0.19775 -0.08701 -0.28559 -0.094162 -0.10318 0.13452 0.15765 0.095344 -0.34709 -0.14867 0.15582 0.069017 -0.34861 -0.081326 -0.25796 -0.098528 -0.2876 -0.18574 -0.072028 0.1126 0.066075 0.22645 0.14478 0.0070837 -0.087258 -0.16328 -0.25933 -0.10785 -0.092324 -0.18012 0.25603 -0.10335 -0.2076 0.007658 -0.56443 -0.0083194 -0.016348 -0.18655 -0.12298 -0.15565 -0.041936 0.14123 0.3956 0.070827 -0.19826 -0.13004 -0.18245 -0.03025 -0.10527 
days)|raw_freq=1000.00 0.15283 -0.13711 0.15854 0.10167 -0.11344 -0.022684 0.0020057 0.040947 0.0391 0.024703 0.16845 0.083188 0.21904 0.2304 -0.18711 0.16554 0.21968 0.11695 0.12216 -0.084395 -0.019263 0.05661 -0.18337 -0.15455 -0.054585 0.12529 0.12698 0.036264 0.11375 0.12902 0.029939 -0.22166 -0.23093 -0.11684 -0.2375 -0.14718 -0.072789 0.10862 -0.046161 0.042932 0.28651 0.17694 -0.094561 -0.010179 -0.18099 -0.17601 0.3709 0.095856 0.27794 -0.073079 0.025818 0.17266 -0.076244 -0.24983 -0.083339 -0.0931 0.11714 0.13958 0.083645 -0.30451 -0.12892 0.13641 0.059758 -0.30755 -0.071255 -0.22535 -0.088289 -0.25359 -0.16416 -0.064036 0.1013 0.060335 0.19827 0.12676 0.0070745 -0.07712 -0.14463 -0.22686 -0.093666 -0.080314 -0.15796 0.22503 -0.089642 -0.1813 0.0073114 -0.49542 -0.0087317 -0.015115 -0.16651 -0.10607 -0.13754 -0.035889 0.12491 0.34744 0.063319 -0.17446 -0.11355 -0.15877 -0.027245 -0.093285 
11:49:44] 0.12609 -0.1136 0.13032 0.083269 -0.093735 -0.01839 0.0010084 0.035101 0.033789 0.020799 0.13912 0.068441 0.18087 0.18962 -0.15367 0.13761 0.18115 0.095881 0.1002 -0.068994 -0.016122 0.046366 -0.15105 -0.12782 -0.045274 0.10311 0.10436 0.030422 0.093724 0.10524 0.023957 -0.18368 -0.19029 -0.097109 -0.19665 -0.12126 -0.060405 0.090904 -0.037489 0.036102 0.23674 0.14665 -0.07768 -0.009444 -0.15012 -0.14531 0.30596 0.078872 0.22909 -0.060486 0.022017 0.14247 -0.062381 -0.20653 -0.068284 -0.076003 0.096548 0.11459 0.068395 -0.25082 -0.10637 0.1125 0.049246 -0.25326 -0.059662 -0.18583 -0.073154 -0.21054 -0.13471 -0.052618 0.083203 0.050555 0.16384 0.10516 0.0062866 -0.063211 -0.12001 -0.18826 -0.076919 -0.066351 -0.13044 0.18611 -0.074205 -0.15015 0.0057027 -0.40936 -0.0064891 -0.012984 -0.13589 -0.087487 -0.11319 -0.029368 0.10321 0.28702 0.052538 -0.14412 -0.092652 -0.13104 -0.022212 -0.077335 
11:47:26] 0.11754 -0.10715 0.12182 0.078243 -0.08814 -0.017068 0.0012705 0.033028 0.030444 0.019417 0.13105 0.064106 0.17004 0.17859 -0.14456 0.12844 0.17027 0.091303 0.094196 -0.065531 -0.014728 0.042879 -0.14221 -0.11963 -0.042997 0.097186 0.099341 0.028486 0.088598 0.099301 0.022557 -0.17233 -0.17847 -0.091726 -0.18514 -0.11442 -0.05604 0.085337 -0.034934 0.034072 0.22185 0.13766 -0.073472 -0.0080301 -0.14115 -0.1369 0.28771 0.07418 0.2154 -0.056317 0.01998 0.13353 -0.058411 -0.19345 -0.064658 -0.071473 0.090353 0.10823 0.063326 -0.23619 -0.099422 0.10531 0.046557 -0.23845 -0.055394 -0.17426 -0.068998 -0.19619 -0.12628 -0.050165 0.07778 0.047249 0.15372 0.098646 0.0057368 -0.058779 -0.11252 -0.17674 -0.073176 -0.062399 -0.12226 0.17485 -0.070234 -0.14115 0.0049436 -0.38367 -0.0068478 -0.011931 -0.12894 -0.081397 -0.10588 -0.027426 0.096148 0.2692 0.049846 -0.13561 -0.086616 -0.12282 -0.020641 -0.072293 
11:23:10] 0.10631 -0.095907 0.1104 0.070985 -0.078809 -0.015602 0.00069811 0.029903 0.027995 0.017154 0.11799 0.057691 0.15209 0.16001 -0.13102 0.11466 0.15301 0.081143 0.085052 -0.059146 -0.013119 0.038689 -0.12769 -0.10824 -0.038625 0.087827 0.088393 0.025217 0.079104 0.089736 0.021048 -0.15449 -0.16078 -0.081638 -0.16577 -0.10354 -0.050203 0.07689 -0.03144 0.030454 0.19978 0.1238 -0.066122 -0.00775 -0.12655 -0.12256 0.2587 0.066529 0.19373 -0.050275 0.018034 0.12006 -0.052313 -0.17468 -0.058148 -0.063722 0.081401 0.097167 0.057496 -0.21195 -0.090124 0.095308 0.041505 -0.21439 -0.049972 -0.15642 -0.061959 -0.17663 -0.11353 -0.044706 0.070979 0.042133 0.13763 0.088199 0.0051404 -0.052654 -0.10105 -0.15849 -0.065181 -0.055287 -0.10985 0.15682 -0.062094 -0.12709 0.0046015 -0.34489 -0.0065615 -0.010777 -0.11512 -0.073232 -0.095193 -0.024212 0.086739 0.24177 0.043832 -0.12098 -0.078115 -0.11071 -0.018554 -0.06567 
10:51:11] 0.058814 -0.052721 0.061229 0.039115 -0.043601 -0.0087099 0.00043266 0.016583 0.015054 0.0098097 0.065274 0.03159 0.085248 0.089436 -0.072736 0.064176 0.08491 0.045502 0.047161 -0.032579 -0.0072224 0.021882 -0.071122 -0.059738 -0.021317 0.048576 0.049438 0.015029 0.043641 0.050452 0.011166 -0.086486 -0.089221 -0.045762 -0.092646 -0.057041 -0.028167 0.042727 -0.018125 0.017347 0.11077 0.068973 -0.037219 -0.0039835 -0.07064 -0.067979 0.14407 0.036998 0.10765 -0.028176 0.0095312 0.066187 -0.029278 -0.097247 -0.032175 -0.03552 0.045149 0.054256 0.032862 -0.11827 -0.049766 0.052489 0.02368 -0.11888 -0.027912 -0.087116 -0.034063 -0.098122 -0.0631 -0.02552 0.037904 0.023361 0.076856 0.048989 0.0025129 -0.029205 -0.055899 -0.087678 -0.035963 -0.031086 -0.061529 0.086821 -0.034448 -0.070075 0.0026358 -0.19211 -0.0036247 -0.0057213 -0.064797 -0.040182 -0.05324 -0.013804 0.048512 0.13469 0.02498 -0.06783 -0.043995 -0.061549 -0.010127 -0.036736 
11:18:33] 0.11885 -0.10723 0.12309 0.079282 -0.087741 -0.017755 0.0012227 0.032886 0.03 0.019107 0.13172 0.065075 0.17108 0.17946 -0.14596 0.12909 0.1717 0.091474 0.094937 -0.065206 -0.015049 0.043622 -0.14344 -0.12065 -0.043233 0.097231 0.098714 0.028574 0.088867 0.10057 0.02262 -0.17263 -0.18036 -0.091286 -0.18602 -0.11492 -0.056479 0.085083 -0.035371 0.034611 0.22354 0.13804 -0.073885 -0.0090042 -0.14169 -0.13661 0.28927 0.073942 0.21748 -0.056817 0.020391 0.13422 -0.059801 -0.19512 -0.065224 -0.072635 0.091454 0.10915 0.064961 -0.23772 -0.10066 0.10581 0.046527 -0.23987 -0.055512 -0.17539 -0.069079 -0.19768 -0.12647 -0.050497 0.078954 0.047285 0.15405 0.099153 0.0054477 -0.059707 -0.11251 -0.17787 -0.073053 -0.063211 -0.1229 0.17585 -0.069986 -0.14288 0.0052346 -0.3868 -0.0062448 -0.011876 -0.12956 -0.081934 -0.1067 -0.02748 0.097437 0.27092 0.049675 -0.13606 -0.087935 -0.12399 -0.020007 -0.072923 
mod=host 0.06596 -0.059764 0.068652 0.043847 -0.049461 -0.0092384 0.00055223 0.017553 0.017404 0.010475 0.072979 0.036492 0.094417 0.10011 -0.081424 0.072162 0.096156 0.050302 0.052355 -0.036556 -0.0081889 0.024284 -0.080563 -0.067159 -0.023627 0.054785 0.055721 0.016011 0.049259 0.055196 0.012565 -0.096131 -0.10035 -0.050923 -0.10316 -0.064509 -0.031643 0.047281 -0.019315 0.019415 0.12463 0.076428 -0.041158 -0.0043697 -0.078608 -0.077109 0.16023 0.041346 0.1199 -0.030946 0.010855 0.074536 -0.033067 -0.10869 -0.036818 -0.039933 0.050852 0.059967 0.036559 -0.13292 -0.056129 0.059825 0.026058 -0.13319 -0.030685 -0.097891 -0.038136 -0.10944 -0.071162 -0.027186 0.044079 0.026544 0.08589 0.054805 0.0030677 -0.033625 -0.063313 -0.098356 -0.04111 -0.034638 -0.068949 0.097831 -0.038725 -0.078878 0.0026868 -0.21489 -0.0039329 -0.0074487 -0.072563 -0.045806 -0.060486 -0.016032 0.054867 0.15095 0.027463 -0.075423 -0.049247 -0.069107 -0.011309 -0.040332 
11:45:08] 0.11971 -0.10798 0.12374 0.079112 -0.08944 -0.017761 0.0016647 0.032826 0.031134 0.019779 0.13296 0.065266 0.17163 0.1809 -0.14701 0.13021 0.17244 0.091845 0.095473 -0.065814 -0.014879 0.043438 -0.14406 -0.12175 -0.043405 0.098246 0.10011 0.029047 0.089094 0.1012 0.02338 -0.17462 -0.18159 -0.092406 -0.18699 -0.11606 -0.057049 0.08586 -0.035822 0.033738 0.22568 0.13985 -0.074463 -0.0094168 -0.143 -0.13849 0.29091 0.074209 0.21824 -0.056636 0.020732 0.13558 -0.059548 -0.19684 -0.065373 -0.073154 0.092209 0.10975 0.065154 -0.2395 -0.10062 0.10672 0.047019 -0.24181 -0.056668 -0.1767 -0.069649 -0.19901 -0.12806 -0.050334 0.078252 0.048118 0.15618 0.099888 0.0054106 -0.059834 -0.11372 -0.17929 -0.073866 -0.063174 -0.12452 0.17648 -0.070362 -0.14336 0.0050769 -0.3892 -0.0063502 -0.012607 -0.13012 -0.083138 -0.10848 -0.027217 0.097838 0.27349 0.049902 -0.13734 -0.088624 -0.12483 -0.020865 -0.073237 
11:44:01] 0.12355 -0.11105 0.12706 0.082062 -0.091909 -0.018088 0.0017583 0.033878 0.0326 0.020499 0.13659 0.066337 0.17662 0.18628 -0.15122 0.13439 0.17843 0.094195 0.098251 -0.068858 -0.015387 0.045153 -0.14838 -0.12606 -0.044412 0.10157 0.10311 0.029729 0.092115 0.1038 0.023253 -0.17948 -0.18559 -0.094583 -0.19263 -0.11952 -0.058626 0.088267 -0.036562 0.03551 0.23149 0.14334 -0.07703 -0.0097718 -0.14765 -0.14218 0.29953 0.076757 0.22468 -0.059479 0.02109 0.13971 -0.061124 -0.20193 -0.068055 -0.074815 0.095304 0.11245 0.066767 -0.24664 -0.10443 0.11063 0.04824 -0.2486 -0.058552 -0.18253 -0.071544 -0.20482 -0.1319 -0.051439 0.081505 0.049871 0.16023 0.10251 0.0062525 -0.061365 -0.11671 -0.18459 -0.076173 -0.06472 -0.12782 0.18185 -0.072575 -0.1474 0.0052841 -0.40101 -0.0064793 -0.013092 -0.13392 -0.085105 -0.11111 -0.02836 0.10019 0.28122 0.051235 -0.14135 -0.091226 -0.12835 -0.021311 -0.076198 
tunnel 0.031717 -0.027839 0.034022 0.021654 -0.023285 -0.0048121 -9.7423e-05 0.0087637 0.0087847 0.0054854 0.035487 0.01683 0.045528 0.048538 -0.03948 0.033366 0.045533 0.023752 0.025607 -0.01833 -0.0042988 0.012136 -0.038266 -0.033139 -0.011861 0.026586 0.027891 0.0080911 0.024438 0.027365 0.0061379 -0.047595 -0.048235 -0.024778 -0.050894 -0.031505 -0.015428 0.023376 -0.010813 0.0090185 0.059981 0.037223 -0.019618 -0.0031198 -0.038189 -0.036512 0.076901 0.020087 0.057901 -0.01585 0.0055821 0.036333 -0.016599 -0.05159 -0.017478 -0.018733 0.023394 0.028102 0.017606 -0.063537 -0.027372 0.0281 0.012508 -0.064637 -0.015547 -0.047021 -0.018491 -0.053621 -0.034595 -0.014471 0.02179 0.012855 0.042192 0.026635 0.0015747 -0.015772 -0.030204 -0.048179 -0.019149 -0.015866 -0.033706 0.046755 -0.020229 -0.037499 0.0010953 -0.10375 -0.0019147 -0.0037506 -0.035003 -0.023541 -0.030074 -0.0072501 0.025966 0.073213 0.013249 -0.036053 -0.023539 -0.033368 -0.0047237 -0.021273 
11:18:35] 0.12656 -0.11401 0.13102 0.084377 -0.09354 -0.018909 0.00090102 0.034857 0.03231 0.020413 0.14 0.069112 0.18229 0.19188 -0.15601 0.13734 0.18292 0.097169 0.10158 -0.069918 -0.015177 0.046086 -0.15235 -0.12867 -0.04522 0.10441 0.1056 0.030845 0.09517 0.10628 0.024677 -0.18412 -0.19201 -0.097266 -0.19811 -0.12252 -0.060529 0.091204 -0.037726 0.036835 0.23721 0.14682 -0.078544 -0.0093517 -0.15026 -0.14558 0.30811 0.079357 0.23132 -0.060261 0.021904 0.14254 -0.06283 -0.20775 -0.069624 -0.077 0.097547 0.1158 0.068975 -0.25294 -0.10705 0.11309 0.048973 -0.25545 -0.059575 -0.18696 -0.073476 -0.21061 -0.13461 -0.053712 0.083777 0.050693 0.16465 0.10549 0.0057863 -0.063271 -0.12008 -0.18917 -0.077801 -0.067072 -0.1312 0.18726 -0.074656 -0.15125 0.0049885 -0.41178 -0.0071855 -0.012693 -0.13762 -0.087775 -0.1141 -0.029334 0.10373 0.2874 0.053793 -0.14509 -0.093413 -0.13197 -0.02208 -0.077767 
11:15:07] 0.11814 -0.10658 0.12254 0.078297 -0.0879 -0.017609 0.0010467 0.032326 0.031037 0.018867 0.1311 0.064543 0.16969 0.17786 -0.14512 0.12826 0.16986 0.090641 0.09416 -0.065403 -0.014572 0.043945 -0.14189 -0.11962 -0.04263 0.096863 0.098446 0.028029 0.087909 0.099689 0.022551 -0.17198 -0.17889 -0.090799 -0.18455 -0.11438 -0.055933 0.084234 -0.035641 0.033713 0.22188 0.13723 -0.073722 -0.0086293 -0.14028 -0.13622 0.28694 0.073503 0.21554 -0.056473 0.020214 0.13285 -0.058639 -0.19405 -0.064591 -0.072054 0.090693 0.10797 0.064095 -0.23551 -0.099656 0.10549 0.046375 -0.23795 -0.055359 -0.17419 -0.068656 -0.19655 -0.1261 -0.049587 0.077884 0.046995 0.15276 0.098415 0.0053713 -0.059118 -0.11165 -0.17646 -0.072325 -0.061743 -0.12232 0.17454 -0.069542 -0.14091 0.0050879 -0.38373 -0.0065587 -0.011837 -0.1282 -0.082109 -0.10658 -0.027111 0.096615 0.26876 0.049527 -0.13561 -0.087368 -0.12304 -0.020636 -0.072603 
10:51:29] 0.049787 -0.044948 0.051415 0.032982 -0.036556 -0.006863 0.00076511 0.014146 0.013292 0.0080598 0.05439 0.026886 0.071667 0.074571 -0.061308 0.053689 0.071353 0.038711 0.039646 -0.026922 -0.0056643 0.018578 -0.060114 -0.050051 -0.017599 0.041079 0.041697 0.012175 0.036907 0.042362 0.010016 -0.072895 -0.075575 -0.038578 -0.077731 -0.048358 -0.024408 0.035953 -0.014537 0.014308 0.093618 0.058086 -0.031128 -0.0032578 -0.059386 -0.057224 0.12141 0.030933 0.091004 -0.023284 0.008209 0.055471 -0.024711 -0.081332 -0.027188 -0.029954 0.038133 0.045451 0.027172 -0.099752 -0.041282 0.044046 0.019733 -0.099696 -0.023214 -0.073639 -0.028376 -0.082839 -0.053652 -0.020887 0.032572 0.019866 0.064745 0.041248 0.0019966 -0.025377 -0.047776 -0.074321 -0.030113 -0.026404 -0.051502 0.073303 -0.029274 -0.059789 0.0023327 -0.16201 -0.0027373 -0.0056595 -0.054275 -0.034594 -0.04504 -0.011888 0.041177 0.11305 0.021069 -0.056971 -0.036937 -0.051906 -0.008638 -0.029947 
11:44:02] 0.12226 -0.11009 0.12552 0.080974 -0.09087 -0.018044 0.0017582 0.033243 0.032429 0.019983 0.13463 0.065814 0.17467 0.18446 -0.1493 0.13226 0.1757 0.093137 0.096681 -0.068078 -0.014501 0.044984 -0.14662 -0.12398 -0.044037 0.099996 0.10182 0.029581 0.090543 0.10279 0.023146 -0.17749 -0.18335 -0.094115 -0.19012 -0.11809 -0.058281 0.086946 -0.03679 0.03504 0.2288 0.14165 -0.076299 -0.0092228 -0.14544 -0.14045 0.29576 0.075987 0.2222 -0.058535 0.020842 0.13773 -0.060163 -0.19897 -0.067528 -0.073788 0.093812 0.11151 0.065459 -0.24353 -0.10268 0.10883 0.047686 -0.24518 -0.057825 -0.18034 -0.07098 -0.20223 -0.1304 -0.051184 0.080263 0.048736 0.15791 0.10145 0.0057787 -0.060273 -0.11536 -0.1819 -0.075121 -0.063788 -0.1261 0.1801 -0.072127 -0.14561 0.0052034 -0.3958 -0.0062282 -0.012941 -0.13173 -0.08418 -0.10948 -0.028025 0.099207 0.27707 0.050797 -0.13953 -0.090015 -0.12661 -0.021653 -0.075535 
10:50:26] 0.054056 -0.048237 0.056337 0.036025 -0.03996 -0.0076028 0.00078022 0.014598 0.013633 0.0084256 0.059564 0.029215 0.077663 0.0808 -0.06626 0.057998 0.077339 0.041439 0.04309 -0.030367 -0.0067276 0.018939 -0.064375 -0.054794 -0.019875 0.043605 0.045018 0.013033 0.040329 0.045003 0.010723 -0.078916 -0.081431 -0.041751 -0.084069 -0.052076 -0.025426 0.03902 -0.016176 0.016015 0.10103 0.063149 -0.033593 -0.0031411 -0.064423 -0.062317 0.13079 0.033346 0.098288 -0.025953 0.0093953 0.060163 -0.026952 -0.087779 -0.029355 -0.032614 0.041066 0.048852 0.029568 -0.10674 -0.045643 0.047848 0.021212 -0.10853 -0.025621 -0.079641 -0.031374 -0.089288 -0.058045 -0.022426 0.035411 0.02151 0.070207 0.045128 0.0021379 -0.027626 -0.051513 -0.080672 -0.033183 -0.028875 -0.056127 0.079165 -0.032179 -0.064645 0.0022502 -0.1751 -0.0035713 -0.0051954 -0.058859 -0.037192 -0.048894 -0.012307 0.044178 0.12287 0.022475 -0.061244 -0.039927 -0.056002 -0.0097247 -0.033635 
11:43:42] 0.11927 -0.10725 0.12343 0.079196 -0.088451 -0.016833 0.0018164 0.033242 0.031137 0.019104 0.1321 0.065082 0.1717 0.18021 -0.14698 0.1292 0.17288 0.091976 0.09557 -0.066554 -0.014773 0.042992 -0.14424 -0.12105 -0.04302 0.098727 0.098923 0.028676 0.088896 0.10081 0.022742 -0.17447 -0.18067 -0.091834 -0.18673 -0.11553 -0.057123 0.08582 -0.035638 0.034654 0.22502 0.13893 -0.073469 -0.0087531 -0.14196 -0.13786 0.29068 0.073961 0.21827 -0.057344 0.019844 0.13484 -0.05909 -0.19599 -0.0648 -0.073 0.092382 0.10897 0.06439 -0.23945 -0.10152 0.10684 0.0469 -0.24115 -0.05643 -0.1762 -0.069923 -0.19889 -0.12721 -0.050956 0.078731 0.048335 0.15503 0.099644 0.0049758 -0.059674 -0.11346 -0.17818 -0.073477 -0.062757 -0.12428 0.17574 -0.070351 -0.14295 0.0048788 -0.389 -0.0067162 -0.012673 -0.12996 -0.082488 -0.10745 -0.027467 0.097395 0.27249 0.049749 -0.13757 -0.088121 -0.12423 -0.021057 -0.073999 
11:47:27] 0.12087 -0.10998 0.12539 0.0804 -0.090318 -0.018029 0.0010444 0.033489 0.03156 0.020249 0.1343 0.0655 0.1744 0.18361 -0.14888 0.13193 0.17478 0.093774 0.096892 -0.067557 -0.014702 0.044831 -0.14627 -0.12256 -0.043727 0.099334 0.1021 0.029063 0.091142 0.1018 0.023081 -0.17671 -0.18341 -0.093876 -0.19007 -0.1174 -0.057431 0.087444 -0.035588 0.034932 0.22764 0.14094 -0.075125 -0.0086486 -0.14509 -0.1407 0.29501 0.076057 0.22142 -0.058059 0.02057 0.13703 -0.05974 -0.19866 -0.065955 -0.073307 0.093102 0.11091 0.065435 -0.24268 -0.10184 0.10825 0.047435 -0.24477 -0.056567 -0.1786 -0.070853 -0.20176 -0.12936 -0.051838 0.079866 0.048362 0.15786 0.10071 0.0055931 -0.060649 -0.11536 -0.18119 -0.074925 -0.063623 -0.12573 0.17977 -0.072295 -0.14485 0.0050362 -0.39367 -0.0071057 -0.012519 -0.13237 -0.083466 -0.10885 -0.027993 0.099071 0.27658 0.05112 -0.13918 -0.089411 -0.12639 -0.0211 -0.074042 
11:43:57] 0.11092 -0.099321 0.11405 0.074126 -0.0825 -0.016016 0.0013034 0.030034 0.029987 0.01805 0.12304 0.060011 0.15871 0.167 -0.1358 0.12057 0.16013 0.084141 0.087618 -0.061651 -0.014568 0.040225 -0.13289 -0.1122 -0.040114 0.090738 0.091722 0.026556 0.082606 0.092236 0.021205 -0.16061 -0.16701 -0.08479 -0.17318 -0.1073 -0.052423 0.079713 -0.033051 0.031428 0.20862 0.12846 -0.068771 -0.0078869 -0.1315 -0.12748 0.26896 0.068787 0.20182 -0.052656 0.018741 0.12472 -0.05512 -0.18126 -0.059835 -0.067351 0.08492 0.10094 0.059789 -0.2217 -0.093071 0.098837 0.043098 -0.22273 -0.052037 -0.16213 -0.064225 -0.1841 -0.11783 -0.047085 0.07296 0.044825 0.14334 0.09264 0.0051239 -0.054604 -0.10537 -0.16546 -0.068469 -0.058219 -0.11453 0.16384 -0.064853 -0.13124 0.0040736 -0.35965 -0.0058437 -0.01138 -0.1194 -0.076976 -0.099758 -0.024744 0.090357 0.25197 0.046391 -0.1273 -0.081202 -0.11549 -0.019527 -0.067701 
10:51:28] 0.050562 -0.044718 0.052608 0.033717 -0.037663 -0.0066878 0.00080147 0.013938 0.013246 0.0085424 0.056071 0.027764 0.072371 0.076326 -0.062568 0.054417 0.072376 0.038263 0.039726 -0.027716 -0.0063714 0.018925 -0.06099 -0.05151 -0.018222 0.041323 0.042112 0.012516 0.037926 0.04322 0.01035 -0.073853 -0.075976 -0.038674 -0.078942 -0.04921 -0.024388 0.036511 -0.015269 0.013893 0.095091 0.058481 -0.031463 -0.0036734 -0.060453 -0.058814 0.12312 0.031654 0.091254 -0.023903 0.008622 0.056188 -0.025377 -0.083407 -0.027674 -0.030533 0.038482 0.04606 0.027549 -0.10122 -0.042385 0.045059 0.020129 -0.10179 -0.023467 -0.074824 -0.029102 -0.083699 -0.054445 -0.02154 0.03331 0.01986 0.066051 0.041676 0.0014502 -0.025545 -0.048662 -0.074504 -0.030377 -0.026801 -0.05225 0.074134 -0.030009 -0.060493 0.002303 -0.16431 -0.0027898 -0.0052393 -0.055506 -0.035778 -0.046138 -0.011712 0.041381 0.1154 0.021358 -0.058301 -0.037136 -0.052688 -0.0088153 -0.030555 
10:59:32] 0.050711 -0.045307 0.052537 0.033911 -0.038141 -0.0068523 0.00076977 0.013939 0.012553 0.0086349 0.056665 0.027934 0.073094 0.076759 -0.062115 0.054788 0.072486 0.038655 0.040335 -0.027841 -0.006531 0.018669 -0.060942 -0.051623 -0.018362 0.041352 0.042293 0.011931 0.03799 0.043053 0.010033 -0.074254 -0.077535 -0.038679 -0.078937 -0.048552 -0.024325 0.036344 -0.015673 0.014495 0.096214 0.058865 -0.031212 -0.0037243 -0.060365 -0.058809 0.12412 0.031713 0.092901 -0.023779 0.0077832 0.057209 -0.025645 -0.082668 -0.027979 -0.030343 0.03906 0.046508 0.027045 -0.10135 -0.042486 0.045471 0.02033 -0.10273 -0.024058 -0.074722 -0.029566 -0.084266 -0.054085 -0.021401 0.03361 0.020125 0.066348 0.041501 0.0023592 -0.025455 -0.047933 -0.075554 -0.031444 -0.026345 -0.052169 0.074315 -0.030125 -0.060426 0.0021379 -0.1647 -0.0028139 -0.0049631 -0.055375 -0.035316 -0.045956 -0.011297 0.041356 0.11554 0.021256 -0.058707 -0.037304 -0.05247 -0.0092586 -0.030949 
11:23:11] 0.10961 -0.098895 0.11378 0.07314 -0.081092 -0.015892 0.00066582 0.030291 0.02842 0.017535 0.12152 0.059018 0.1575 0.16548 -0.13489 0.11894 0.1584 0.084298 0.087308 -0.060756 -0.013614 0.040625 -0.13234 -0.11193 -0.039974 0.090238 0.091297 0.026156 0.081662 0.093121 0.02116 -0.1596 -0.1663 -0.085085 -0.17185 -0.10633 -0.052112 0.079628 -0.033071 0.031751 0.20614 0.12823 -0.068481 -0.0079327 -0.1306 -0.12693 0.26686 0.069418 0.19986 -0.051923 0.018868 0.12353 -0.05396 -0.1802 -0.059849 -0.066076 0.083994 0.10027 0.05945 -0.21899 -0.092841 0.098161 0.043069 -0.22135 -0.051087 -0.16132 -0.063846 -0.18231 -0.11736 -0.046513 0.07257 0.043747 0.14195 0.091029 0.0055008 -0.053922 -0.10359 -0.1632 -0.067247 -0.05795 -0.11353 0.16175 -0.064553 -0.13119 0.0046258 -0.35666 -0.0063623 -0.010764 -0.11883 -0.075619 -0.098552 -0.025094 0.089682 0.25003 0.046026 -0.12553 -0.081056 -0.11444 -0.01914 -0.067912 
11:43:59] 0.11714 -0.10579 0.12094 0.078552 -0.087452 -0.0175 0.0018573 0.03208 0.030876 0.018989 0.13021 0.063778 0.16857 0.17692 -0.14416 0.12749 0.16962 0.089856 0.093803 -0.064875 -0.015016 0.04294 -0.14125 -0.11936 -0.042264 0.096496 0.097368 0.027631 0.087503 0.098685 0.022257 -0.17047 -0.17735 -0.089761 -0.18358 -0.11401 -0.055766 0.084195 -0.03534 0.033381 0.22112 0.1364 -0.072889 -0.0084032 -0.13987 -0.13488 0.28579 0.072961 0.21432 -0.055574 0.020007 0.13244 -0.058364 -0.19278 -0.063497 -0.070912 0.090411 0.10767 0.063415 -0.23466 -0.099081 0.10475 0.046403 -0.2364 -0.054947 -0.17266 -0.068192 -0.19526 -0.12519 -0.049313 0.077241 0.047242 0.15216 0.097671 0.0054151 -0.058297 -0.11169 -0.17506 -0.072382 -0.061282 -0.12171 0.17323 -0.068788 -0.13997 0.005029 -0.38139 -0.0062725 -0.011954 -0.12717 -0.081214 -0.10573 -0.026528 0.095673 0.26687 0.049215 -0.1345 -0.086394 -0.1226 -0.020343 -0.071635 
22 0.060222 -0.054567 0.062779 0.040847 -0.044607 -0.0086672 0.0018626 0.017247 0.014458 0.0099685 0.06784 0.032742 0.087975 0.091819 -0.074674 0.066144 0.088176 0.047013 0.04972 -0.034013 -0.0070329 0.023388 -0.073301 -0.061996 -0.022529 0.05059 0.051335 0.013513 0.046267 0.052753 0.01234 -0.089286 -0.093091 -0.048471 -0.096357 -0.060726 -0.030145 0.043238 -0.017297 0.018091 0.11546 0.070224 -0.037792 -0.0049397 -0.072377 -0.070853 0.14905 0.039036 0.11275 -0.028392 0.011091 0.07042 -0.031339 -0.10136 -0.032123 -0.037043 0.046437 0.055626 0.032307 -0.12093 -0.050639 0.055629 0.024483 -0.12292 -0.028297 -0.089864 -0.035405 -0.10121 -0.066788 -0.02656 0.04075 0.023411 0.079062 0.05082 0.0025091 -0.031861 -0.058428 -0.091303 -0.03755 -0.031515 -0.064535 0.091381 -0.035624 -0.072218 0.0035938 -0.19968 -0.0031459 -0.0068406 -0.067578 -0.04348 -0.054983 -0.013305 0.050971 0.13856 0.026216 -0.069183 -0.046549 -0.062989 -0.010993 -0.038928 
11:18:40] 0.12594 -0.11423 0.13091 0.08382 -0.09295 -0.018662 0.0010174 0.034869 0.032638 0.02091 0.13893 0.069386 0.18078 0.19102 -0.15504 0.13736 0.18201 0.096923 0.10049 -0.068879 -0.015581 0.045572 -0.15145 -0.12785 -0.045494 0.10343 0.10526 0.03017 0.094707 0.10595 0.023956 -0.18287 -0.19003 -0.096804 -0.19666 -0.12252 -0.059519 0.090726 -0.038286 0.035994 0.23662 0.1463 -0.077934 -0.0087557 -0.14976 -0.14542 0.30648 0.079488 0.22998 -0.060778 0.021654 0.14188 -0.062576 -0.20602 -0.068355 -0.076405 0.096312 0.1157 0.068196 -0.25147 -0.10712 0.11303 0.048871 -0.25398 -0.059406 -0.18657 -0.072718 -0.21006 -0.13458 -0.052944 0.083461 0.050005 0.16408 0.10495 0.0059509 -0.062932 -0.119 -0.18816 -0.077353 -0.066093 -0.1307 0.18642 -0.073873 -0.14994 0.0052711 -0.40949 -0.0071488 -0.012523 -0.13727 -0.087538 -0.11376 -0.029339 0.10332 0.28652 0.052414 -0.14379 -0.092408 -0.13158 -0.022437 -0.07672 
11:23:13] 0.10443 -0.094166 0.10844 0.069834 -0.0774 -0.014711 0.00053544 0.028544 0.0272 0.016768 0.11568 0.056171 0.14973 0.15733 -0.12835 0.11338 0.15069 0.080175 0.083831 -0.057847 -0.013055 0.037866 -0.12552 -0.10647 -0.037964 0.086787 0.086764 0.024568 0.077035 0.088247 0.020858 -0.15208 -0.15874 -0.081007 -0.16331 -0.10146 -0.049481 0.075246 -0.031276 0.030159 0.19672 0.12205 -0.06546 -0.0074803 -0.12482 -0.12085 0.25464 0.065546 0.1905 -0.049318 0.018108 0.11784 -0.051757 -0.17212 -0.056797 -0.062731 0.080143 0.095848 0.05723 -0.20838 -0.089024 0.093648 0.041094 -0.21107 -0.048621 -0.15368 -0.060621 -0.17365 -0.11172 -0.044095 0.069888 0.041687 0.1353 0.086822 0.0051257 -0.05181 -0.099221 -0.15594 -0.064047 -0.055352 -0.10796 0.15418 -0.061514 -0.12549 0.004141 -0.33958 -0.0060071 -0.010541 -0.1129 -0.072563 -0.093756 -0.024214 0.085383 0.23836 0.043986 -0.11943 -0.077128 -0.109 -0.01867 -0.064807 
VPN|raw_mtu=1440 0.087067 -0.07778 0.090293 0.057484 -0.064385 -0.012975 0.0011489 0.023845 0.022697 0.014091 0.0964 0.047076 0.12552 0.13177 -0.10697 0.09474 0.12511 0.067638 0.069715 -0.047983 -0.010768 0.031637 -0.10507 -0.088478 -0.030629 0.072164 0.072603 0.02058 0.064667 0.073818 0.017415 -0.12675 -0.13179 -0.066492 -0.13542 -0.084501 -0.041888 0.06249 -0.025564 0.025182 0.16447 0.10119 -0.054154 -0.0064141 -0.10349 -0.1003 0.21212 0.054783 0.15912 -0.041288 0.014369 0.097894 -0.043554 -0.14276 -0.047588 -0.054094 0.06658 0.079695 0.047898 -0.1736 -0.073764 0.077658 0.034783 -0.17597 -0.040739 -0.12798 -0.050901 -0.14466 -0.093658 -0.03681 0.057707 0.034353 0.1138 0.072957 0.0042664 -0.04354 -0.082888 -0.12922 -0.052826 -0.045536 -0.090255 0.12909 -0.051087 -0.10392 0.0032771 -0.28283 -0.0048432 -0.0090501 -0.094799 -0.060894 -0.078731 -0.020506 0.071489 0.19839 0.036638 -0.099063 -0.064207 -0.090961 -0.015758 -0.053122 
18 0.077426 -0.073149 0.078687 0.050872 -0.058091 -0.010744 0.0041398 0.020172 0.014827 0.01243 0.083154 0.040034 0.11171 0.11371 -0.095065 0.078321 0.10929 0.058422 0.058425 -0.041927 -0.0090069 0.027292 -0.090068 -0.078275 -0.025518 0.064598 0.062628 0.018588 0.060529 0.066855 0.018351 -0.11124 -0.11683 -0.061772 -0.11983 -0.070853 -0.036522 0.056724 -0.023258 0.022418 0.14394 0.088716 -0.050759 -0.004389 -0.088232 -0.090119 0.18682 0.048351 0.13977 -0.037994 0.01133 0.086155 -0.03743 -0.125 -0.042751 -0.043443 0.058275 0.067966 0.039544 -0.15395 -0.063008 0.068385 0.028093 -0.15476 -0.034942 -0.11641 -0.044241 -0.12938 -0.080745 -0.029715 0.050085 0.029279 0.10112 0.063187 0.0056588 -0.041858 -0.073148 -0.11422 -0.044108 -0.040706 -0.078827 0.10994 -0.04516 -0.088596 -0.00065204 -0.24515 -0.0035368 -0.0057061 -0.086407 -0.055989 -0.066361 -0.018097 0.062801 0.17354 0.034456 -0.087283 -0.060047 -0.077948 -0.012375 -0.048872 
11:01:38] 0.0953 -0.086256 0.098993 0.063194 -0.070783 -0.013993 0.00095151 0.026377 0.025105 0.015458 0.1057 0.05173 0.13721 0.14372 -0.11719 0.10409 0.13736 0.074018 0.076342 -0.053096 -0.012257 0.035411 -0.11522 -0.097106 -0.034407 0.078979 0.079364 0.022814 0.071221 0.08043 0.018379 -0.13942 -0.14426 -0.073475 -0.14936 -0.092285 -0.045745 0.068256 -0.028065 0.027475 0.18016 0.11132 -0.059013 -0.0066779 -0.11393 -0.11011 0.23266 0.059443 0.17439 -0.045007 0.016401 0.1074 -0.04704 -0.15602 -0.051849 -0.057581 0.073582 0.087743 0.051426 -0.19078 -0.080534 0.085556 0.037681 -0.19241 -0.044724 -0.14016 -0.055943 -0.15895 -0.10197 -0.03972 0.06341 0.038441 0.1245 0.079542 0.0047814 -0.047388 -0.090234 -0.14274 -0.058709 -0.050306 -0.099117 0.14134 -0.056566 -0.11385 0.0038501 -0.31109 -0.0054741 -0.0093422 -0.10402 -0.066227 -0.08606 -0.021829 0.078468 0.21724 0.040013 -0.1093 -0.070311 -0.098795 -0.016847 -0.058693 
10:51:25] 0.053951 -0.047932 0.055798 0.036092 -0.040287 -0.0080239 0.0007804 0.015889 0.014061 0.0090389 0.058738 0.02953 0.077334 0.080955 -0.066339 0.057881 0.077646 0.041414 0.042354 -0.030169 -0.0064085 0.019845 -0.065164 -0.054366 -0.019627 0.044173 0.044748 0.013495 0.039825 0.04477 0.010525 -0.078504 -0.081091 -0.041556 -0.084069 -0.05253 -0.026118 0.038558 -0.015886 0.015245 0.10088 0.062219 -0.034146 -0.0037717 -0.06347 -0.061914 0.13042 0.033945 0.098096 -0.025199 0.0083121 0.060116 -0.027194 -0.088352 -0.02905 -0.032885 0.040777 0.049117 0.029368 -0.10733 -0.044461 0.047653 0.021231 -0.10727 -0.025368 -0.079504 -0.03131 -0.088682 -0.057266 -0.022728 0.035123 0.021766 0.069814 0.044953 0.0021393 -0.026834 -0.051582 -0.079856 -0.032962 -0.028212 -0.055356 0.079011 -0.031741 -0.063274 0.0029831 -0.17491 -0.002937 -0.0064243 -0.058865 -0.037807 -0.048424 -0.012418 0.043841 0.12243 0.022901 -0.061828 -0.039613 -0.055792 -0.0089735 -0.032982 
19 0.081242 -0.072126 0.081312 0.050623 -0.0587 -0.013458 0.0048268 0.022944 0.020893 0.010653 0.087208 0.045845 0.11122 0.11949 -0.097827 0.083971 0.11066 0.061038 0.063148 -0.041168 -0.01205 0.027634 -0.094969 -0.079603 -0.028023 0.066094 0.068199 0.019089 0.058175 0.063818 0.017627 -0.11588 -0.11555 -0.063326 -0.12329 -0.07344 -0.035138 0.056525 -0.020965 0.02612 0.15278 0.091955 -0.049308 -0.0028616 -0.089823 -0.093232 0.1921 0.048383 0.14525 -0.036085 0.012044 0.088938 -0.039719 -0.12634 -0.039649 -0.05038 0.059926 0.069951 0.042377 -0.1576 -0.067088 0.071813 0.032236 -0.15861 -0.03613 -0.11532 -0.049229 -0.13005 -0.080591 -0.031246 0.049609 0.030322 0.10226 0.069125 -4.0434e-05 -0.037288 -0.074174 -0.11836 -0.043994 -0.038302 -0.082195 0.11659 -0.04567 -0.095393 0.0076403 -0.25443 -0.0033817 -0.0084564 -0.085012 -0.05822 -0.07248 -0.016649 0.063734 0.1811 0.034173 -0.089664 -0.060534 -0.07922 -0.012856 -0.049254 
11:49:43] 0.12473 -0.11272 0.12922 0.081973 -0.093131 -0.018023 0.0010909 0.034348 0.032638 0.020764 0.13799 0.067851 0.17929 0.1881 -0.15241 0.13624 0.17978 0.094897 0.099476 -0.068229 -0.015765 0.045174 -0.15003 -0.12626 -0.04475 0.10218 0.10376 0.029942 0.092719 0.10442 0.02427 -0.18149 -0.18846 -0.096163 -0.19435 -0.12032 -0.059336 0.089669 -0.037526 0.035913 0.23445 0.14492 -0.077038 -0.0084081 -0.14912 -0.14393 0.3038 0.077972 0.22769 -0.059903 0.021449 0.14025 -0.061942 -0.20502 -0.067639 -0.075356 0.095386 0.11388 0.068563 -0.24887 -0.10547 0.11149 0.04855 -0.25071 -0.059069 -0.18388 -0.072245 -0.20785 -0.13308 -0.052066 0.082461 0.049686 0.16158 0.10352 0.0057903 -0.063245 -0.11871 -0.18688 -0.076036 -0.065595 -0.12954 0.18376 -0.073374 -0.14855 0.0054535 -0.40483 -0.0068075 -0.013068 -0.13494 -0.086472 -0.1115 -0.029402 0.10158 0.28435 0.052134 -0.14294 -0.092119 -0.12963 -0.021921 -0.076078 
11:25:03] 0.093621 -0.084445 0.096515 0.063096 -0.069956 -0.01379 0.00077791 0.025692 0.024954 0.015201 0.103 0.051021 0.13467 0.14127 -0.11502 0.10159 0.1352 0.072606 0.074505 -0.051805 -0.011871 0.034635 -0.11317 -0.095506 -0.034105 0.077095 0.078312 0.022652 0.069736 0.079098 0.017576 -0.13586 -0.14223 -0.072705 -0.14653 -0.09042 -0.044395 0.067125 -0.027608 0.027055 0.17622 0.10925 -0.0588 -0.0066435 -0.11135 -0.10832 0.22833 0.058872 0.17045 -0.044708 0.016306 0.10634 -0.046471 -0.15476 -0.051628 -0.057401 0.072027 0.085959 0.051062 -0.18708 -0.0786 0.083961 0.037128 -0.18917 -0.043881 -0.13786 -0.054219 -0.15567 -0.10054 -0.039201 0.061718 0.037621 0.12151 0.07747 0.0039987 -0.046802 -0.089443 -0.14058 -0.057507 -0.049426 -0.097624 0.13869 -0.055679 -0.11237 0.0041922 -0.30446 -0.0057237 -0.0098131 -0.10183 -0.06451 -0.084307 -0.021217 0.076711 0.21367 0.039361 -0.10659 -0.069461 -0.098089 -0.016491 -0.057369 
11:43:58] 0.11617 -0.10432 0.1194 0.077302 -0.086942 -0.017248 0.001889 0.032008 0.03038 0.018703 0.12888 0.063089 0.16642 0.1753 -0.14227 0.12608 0.1672 0.088526 0.092189 -0.064508 -0.014974 0.042093 -0.13949 -0.11783 -0.042151 0.095073 0.096466 0.02786 0.086143 0.097329 0.022011 -0.16848 -0.17514 -0.088462 -0.18173 -0.11247 -0.054823 0.082892 -0.034444 0.033406 0.21824 0.13476 -0.071622 -0.0082386 -0.1378 -0.1332 0.28167 0.072115 0.21106 -0.055228 0.019831 0.13126 -0.057558 -0.18969 -0.062812 -0.070842 0.089169 0.10612 0.062318 -0.23174 -0.09761 0.10375 0.04563 -0.23262 -0.054398 -0.17028 -0.067467 -0.19234 -0.12384 -0.048476 0.076351 0.046404 0.15036 0.096472 0.0054091 -0.057673 -0.11001 -0.17304 -0.071158 -0.060494 -0.12041 0.17095 -0.068063 -0.13832 0.0044771 -0.37683 -0.0062102 -0.011823 -0.12512 -0.079977 -0.10445 -0.026676 0.094474 0.26372 0.048663 -0.13209 -0.08539 -0.12076 -0.019714 -0.07111 
14 0.059997 -0.054379 0.060806 0.037212 -0.047361 -0.0085678 0.0013259 0.015225 0.013743 0.0087153 0.065732 0.031479 0.087902 0.09007 -0.074152 0.067797 0.088207 0.045761 0.05153 -0.035053 -0.0059215 0.020923 -0.076513 -0.058022 -0.020781 0.051115 0.050358 0.016495 0.047101 0.051397 0.0077317 -0.086433 -0.091656 -0.047655 -0.092185 -0.058518 -0.02559 0.046617 -0.017202 0.01861 0.11238 0.071721 -0.037287 -0.0059542 -0.071793 -0.067967 0.14631 0.036356 0.11021 -0.030437 0.01075 0.06981 -0.033172 -0.10134 -0.032208 -0.034711 0.045048 0.055995 0.03582 -0.12046 -0.049887 0.052369 0.025901 -0.12292 -0.026593 -0.087889 -0.031465 -0.10132 -0.063144 -0.02308 0.04377 0.0247 0.077309 0.052698 0.00070148 -0.031326 -0.05888 -0.091535 -0.035663 -0.029717 -0.063573 0.087355 -0.037898 -0.074409 0.0041129 -0.19743 -0.0036689 -0.0085151 -0.065201 -0.044971 -0.055722 -0.015166 0.050214 0.13686 0.026154 -0.066438 -0.043894 -0.059606 -0.0096658 -0.033857 
10:51:31] 0.054512 -0.048801 0.056454 0.036369 -0.040617 -0.0076477 0.00044706 0.015636 0.014045 0.009033 0.060566 0.029885 0.077895 0.082512 -0.067131 0.058829 0.078054 0.041609 0.043583 -0.030105 -0.0063157 0.020017 -0.065467 -0.054996 -0.019781 0.044525 0.045076 0.013469 0.040675 0.04554 0.010706 -0.079305 -0.082248 -0.041938 -0.084582 -0.052833 -0.025649 0.039019 -0.016584 0.015645 0.1023 0.063339 -0.034088 -0.0034385 -0.064961 -0.06273 0.13217 0.033988 0.099003 -0.025702 0.0090897 0.060788 -0.027132 -0.089159 -0.030115 -0.032688 0.041606 0.049716 0.030283 -0.10862 -0.04576 0.048008 0.021149 -0.10941 -0.025659 -0.080286 -0.031287 -0.08999 -0.058076 -0.02316 0.035562 0.021939 0.071013 0.045501 0.0023107 -0.027673 -0.052063 -0.080927 -0.033274 -0.028464 -0.056464 0.08017 -0.032242 -0.064911 0.0025448 -0.17709 -0.0030266 -0.0056699 -0.059474 -0.037726 -0.049234 -0.013065 0.044369 0.12349 0.023071 -0.062761 -0.039829 -0.056851 -0.0093903 -0.03331 
11:35:42] 0.10748 -0.096186 0.11122 0.071399 -0.079906 -0.016146 0.0014314 0.029372 0.028897 0.016873 0.11855 0.058456 0.15444 0.16126 -0.13107 0.11735 0.15509 0.08306 0.086296 -0.058865 -0.013258 0.038936 -0.12937 -0.10917 -0.039451 0.088546 0.08868 0.025652 0.079372 0.090742 0.021438 -0.15697 -0.16197 -0.082745 -0.16709 -0.10373 -0.051681 0.07733 -0.031434 0.031043 0.20229 0.12463 -0.066518 -0.007527 -0.12772 -0.12376 0.26099 0.067101 0.19571 -0.051884 0.01815 0.12064 -0.053628 -0.17552 -0.058448 -0.064943 0.083093 0.097543 0.058892 -0.21483 -0.091155 0.094718 0.041787 -0.21646 -0.050276 -0.15734 -0.062798 -0.17853 -0.1144 -0.045209 0.071328 0.043386 0.13862 0.089697 0.0042887 -0.053037 -0.10191 -0.16027 -0.065764 -0.057216 -0.11199 0.15912 -0.063492 -0.12826 0.0043087 -0.34962 -0.0060301 -0.010826 -0.11662 -0.074546 -0.096064 -0.024912 0.088082 0.24365 0.044839 -0.12335 -0.078856 -0.11192 -0.018571 -0.06618 
11:15:08] 0.12165 -0.10985 0.12606 0.0806 -0.090565 -0.017666 0.0013841 0.033476 0.031969 0.019686 0.13491 0.06648 0.17531 0.18386 -0.14987 0.13276 0.17582 0.09366 0.09719 -0.067247 -0.015348 0.044773 -0.1462 -0.12384 -0.043892 0.10039 0.10153 0.029226 0.090669 0.10278 0.02386 -0.17768 -0.18439 -0.094541 -0.19065 -0.1178 -0.058145 0.087079 -0.036721 0.034825 0.22931 0.1418 -0.075846 -0.0091505 -0.14522 -0.14067 0.29594 0.07608 0.22246 -0.057982 0.021303 0.13727 -0.060911 -0.20012 -0.066444 -0.074279 0.093406 0.11141 0.06607 -0.24328 -0.10281 0.10868 0.047502 -0.24583 -0.057455 -0.17995 -0.070841 -0.20263 -0.13004 -0.050901 0.080318 0.048614 0.15792 0.1015 0.0053436 -0.060773 -0.11537 -0.18177 -0.075268 -0.063937 -0.12649 0.17993 -0.071852 -0.14581 0.0052645 -0.39596 -0.0067052 -0.012514 -0.13179 -0.084757 -0.11019 -0.028096 0.099636 0.27771 0.05131 -0.13974 -0.090195 -0.12709 -0.021155 -0.074732 
45 0.071863 -0.067329 0.077615 0.049732 -0.05507 -0.0083936 0.0010271 0.019782 0.020501 0.012826 0.081273 0.039117 0.10246 0.1107 -0.09134 0.079423 0.10661 0.057881 0.055587 -0.041126 -0.0066371 0.028695 -0.086727 -0.073429 -0.023715 0.061331 0.060377 0.018929 0.054471 0.060135 0.012842 -0.10625 -0.10991 -0.05692 -0.11124 -0.068869 -0.032435 0.052822 -0.022736 0.018411 0.13787 0.082243 -0.044355 -0.0071979 -0.086637 -0.082683 0.17826 0.04517 0.12975 -0.032658 0.012393 0.079229 -0.035161 -0.11829 -0.041862 -0.043791 0.057546 0.068807 0.041424 -0.1445 -0.059568 0.066568 0.029619 -0.14845 -0.034813 -0.10491 -0.04468 -0.12141 -0.076693 -0.02798 0.048863 0.030256 0.091998 0.061017 0.0034446 -0.036856 -0.069672 -0.10584 -0.044731 -0.038404 -0.077348 0.10776 -0.044416 -0.085077 0.0022403 -0.2344 -0.0056818 -0.0061908 -0.078153 -0.050921 -0.064431 -0.017407 0.061285 0.16724 0.032447 -0.084864 -0.05453 -0.076626 -0.01341 -0.042157 
11:01:36] 0.093104 -0.083703 0.096184 0.061212 -0.069505 -0.013599 0.00056019 0.025718 0.024135 0.015145 0.10332 0.050663 0.13388 0.14046 -0.11412 0.10098 0.13446 0.071797 0.07467 -0.051611 -0.011622 0.034987 -0.11242 -0.094096 -0.033859 0.076871 0.07801 0.022218 0.069379 0.078791 0.01778 -0.13588 -0.14126 -0.071853 -0.14613 -0.089706 -0.044552 0.066829 -0.027506 0.026605 0.17537 0.10874 -0.057588 -0.006778 -0.11051 -0.1073 0.22654 0.058374 0.17045 -0.044407 0.015936 0.1052 -0.045938 -0.15253 -0.050772 -0.05662 0.071736 0.08546 0.050367 -0.18655 -0.078411 0.083521 0.037 -0.18749 -0.043664 -0.13669 -0.054346 -0.1554 -0.099553 -0.039322 0.061432 0.037157 0.12103 0.077701 0.0041539 -0.046508 -0.088522 -0.13911 -0.057388 -0.049698 -0.096661 0.13769 -0.055246 -0.11104 0.003786 -0.30323 -0.0049893 -0.0093047 -0.1016 -0.064204 -0.083982 -0.021129 0.076222 0.21198 0.039295 -0.10668 -0.068516 -0.096734 -0.016449 -0.056525 
0 0.1325 -0.1189 0.13772 0.087902 -0.098481 -0.019722 0.0014633 0.035766 0.03441 0.021268 0.1465 0.072335 0.19041 0.20009 -0.16264 0.14399 0.19095 0.10177 0.10608 -0.072919 -0.016852 0.048841 -0.15939 -0.13422 -0.047124 0.10916 0.11048 0.031717 0.099021 0.11199 0.025632 -0.19243 -0.20039 -0.10199 -0.20616 -0.12848 -0.063375 0.094874 -0.039617 0.037507 0.24909 0.1539 -0.082098 -0.0093258 -0.15747 -0.15289 0.322 0.082979 0.24157 -0.063211 0.022628 0.14924 -0.066312 -0.21727 -0.07252 -0.080921 0.10162 0.12126 0.072732 -0.2644 -0.11201 0.11794 0.051984 -0.26734 -0.061861 -0.19571 -0.077091 -0.22061 -0.14226 -0.055192 0.087832 0.052448 0.17227 0.11032 0.0058125 -0.066509 -0.12553 -0.19755 -0.080912 -0.069559 -0.13728 0.19592 -0.077906 -0.15759 0.0056517 -0.43042 -0.0073763 -0.013575 -0.14428 -0.092421 -0.11983 -0.030916 0.10866 0.30204 0.055448 -0.15142 -0.098366 -0.1379 -0.023289 -0.081089 
10:50:27] 0.054433 -0.049096 0.056475 0.03616 -0.040294 -0.008358 0.00047666 0.014755 0.013763 0.0089764 0.060066 0.029297 0.078262 0.081781 -0.066675 0.058521 0.078067 0.041906 0.043262 -0.029937 -0.0064633 0.019846 -0.065155 -0.055008 -0.019497 0.044345 0.045566 0.012886 0.040688 0.045612 0.010489 -0.079088 -0.082244 -0.042303 -0.084694 -0.052244 -0.025869 0.038654 -0.016046 0.015417 0.10227 0.063047 -0.033815 -0.003744 -0.064683 -0.062525 0.13228 0.033447 0.09966 -0.026149 0.0093885 0.060541 -0.02676 -0.089173 -0.029364 -0.032562 0.041868 0.049301 0.029905 -0.10806 -0.045932 0.048477 0.021181 -0.10913 -0.025712 -0.079968 -0.031835 -0.090261 -0.058264 -0.022916 0.035764 0.022029 0.070881 0.045293 0.0025563 -0.02718 -0.051729 -0.08136 -0.033108 -0.028725 -0.056792 0.080216 -0.032189 -0.065243 0.0026476 -0.17617 -0.0033703 -0.0053556 -0.059019 -0.037777 -0.04914 -0.012121 0.044648 0.12399 0.022757 -0.061851 -0.040278 -0.056492 -0.0096825 -0.033288 
10:49:31] 0.049658 -0.045129 0.051364 0.033045 -0.037061 -0.0080189 0.00065126 0.013897 0.012823 0.0077557 0.054711 0.027233 0.070997 0.074642 -0.061026 0.053843 0.071321 0.038234 0.039761 -0.028054 -0.0060187 0.018462 -0.059508 -0.050324 -0.018264 0.040759 0.041186 0.012257 0.036727 0.041715 0.0097435 -0.071701 -0.074651 -0.038325 -0.076872 -0.048102 -0.02356 0.035421 -0.015533 0.01401 0.093304 0.057463 -0.030986 -0.003106 -0.059107 -0.057342 0.12104 0.030774 0.090641 -0.023558 0.0080985 0.056013 -0.024439 -0.081278 -0.027758 -0.029752 0.037862 0.045611 0.027209 -0.099063 -0.042058 0.044388 0.019517 -0.10004 -0.023223 -0.073019 -0.028415 -0.082058 -0.052904 -0.021163 0.032315 0.020107 0.064548 0.040839 0.002715 -0.024461 -0.046976 -0.074066 -0.030318 -0.025881 -0.051278 0.073185 -0.03011 -0.058778 0.0022394 -0.16102 -0.0032337 -0.0048936 -0.053761 -0.03471 -0.045327 -0.012104 0.041041 0.11267 0.021355 -0.056893 -0.036984 -0.051832 -0.0094881 -0.030974 
GRE|raw_mtu=1476 0.081285 -0.073105 0.08493 0.053773 -0.060649 -0.012378 0.0011144 0.021715 0.021091 0.013017 0.089782 0.04362 0.11805 0.12361 -0.10019 0.08854 0.11749 0.063276 0.064906 -0.044371 -0.010438 0.030392 -0.098891 -0.083087 -0.028672 0.067726 0.067651 0.019483 0.060858 0.069077 0.016443 -0.11864 -0.12384 -0.062455 -0.12713 -0.079095 -0.039622 0.058366 -0.023967 0.023691 0.15446 0.094698 -0.051319 -0.0053869 -0.09741 -0.093854 0.19875 0.051266 0.14925 -0.039411 0.013852 0.091934 -0.040936 -0.13389 -0.044517 -0.050601 0.06214 0.074967 0.045094 -0.16299 -0.069603 0.072788 0.032915 -0.16491 -0.03824 -0.12003 -0.04801 -0.1358 -0.087562 -0.034049 0.054107 0.032313 0.10619 0.068219 0.0035643 -0.040728 -0.077611 -0.12139 -0.049891 -0.04267 -0.084787 0.12006 -0.048329 -0.097549 0.0032105 -0.26529 -0.0048488 -0.0079881 -0.088862 -0.057231 -0.074515 -0.018862 0.067006 0.18635 0.034157 -0.093416 -0.060551 -0.085349 -0.014734 -0.049794 
2 0.087442 -0.078581 0.090756 0.057905 -0.065193 -0.012963 0.0012175 0.023701 0.022577 0.014149 0.09662 0.047581 0.1255 0.13207 -0.10712 0.09461 0.12593 0.067041 0.069933 -0.048211 -0.010958 0.031929 -0.10483 -0.088455 -0.030956 0.071772 0.073003 0.020773 0.065301 0.073856 0.01706 -0.12679 -0.1321 -0.067203 -0.13576 -0.084624 -0.04197 0.062662 -0.026317 0.024771 0.16404 0.10152 -0.054237 -0.0061398 -0.1039 -0.10052 0.21253 0.054719 0.15914 -0.041657 0.014737 0.098541 -0.043623 -0.14307 -0.047874 -0.053074 0.067113 0.079988 0.048001 -0.17418 -0.074011 0.077974 0.034437 -0.17627 -0.040917 -0.12924 -0.050597 -0.14535 -0.093874 -0.03657 0.057854 0.034381 0.11364 0.072658 0.0039968 -0.04404 -0.082469 -0.13028 -0.053456 -0.046126 -0.090581 0.12898 -0.051463 -0.10395 0.0036468 -0.28363 -0.004809 -0.0087988 -0.095136 -0.06084 -0.078787 -0.020395 0.071414 0.19895 0.036374 -0.099931 -0.064897 -0.090825 -0.015434 -0.05343 
1 0.063982 -0.057385 0.066579 0.042503 -0.047893 -0.0093795 0.0005641 0.017315 0.016601 0.010342 0.070839 0.034931 0.091866 0.096732 -0.078507 0.06957 0.092153 0.049077 0.051283 -0.035171 -0.0084202 0.023525 -0.076771 -0.064747 -0.022745 0.052653 0.053548 0.015194 0.047634 0.054238 0.012444 -0.092887 -0.096777 -0.049196 -0.099441 -0.061989 -0.03068 0.045817 -0.019148 0.018008 0.12035 0.074354 -0.039644 -0.0044519 -0.075879 -0.073927 0.15552 0.040093 0.11665 -0.030518 0.010969 0.072177 -0.031964 -0.10479 -0.034922 -0.038938 0.049161 0.058344 0.035155 -0.12763 -0.053931 0.057097 0.025161 -0.12909 -0.030045 -0.094624 -0.037141 -0.10644 -0.068853 -0.026766 0.04216 0.025137 0.083329 0.053212 0.0026531 -0.032175 -0.060602 -0.095324 -0.039035 -0.033501 -0.066174 0.094796 -0.037598 -0.075996 0.0029281 -0.20775 -0.0037028 -0.0065775 -0.069677 -0.044609 -0.057803 -0.015002 0.052401 0.14577 0.02677 -0.073107 -0.047374 -0.066465 -0.011255 -0.039369 
5 0.084484 -0.075731 0.087685 0.056176 -0.062929 -0.012607 0.0010234 0.022834 0.021787 0.013665 0.093244 0.046193 0.12115 0.12731 -0.10368 0.091409 0.12147 0.06485 0.067542 -0.046446 -0.010888 0.031008 -0.1016 -0.085389 -0.029996 0.069582 0.070583 0.020315 0.062989 0.071321 0.016286 -0.12261 -0.12753 -0.065075 -0.1313 -0.081712 -0.040351 0.060386 -0.025325 0.023945 0.15853 0.097836 -0.05228 -0.0059093 -0.10024 -0.097391 0.20498 0.052881 0.1538 -0.040052 0.014441 0.095168 -0.04217 -0.13829 -0.04606 -0.051254 0.064842 0.076953 0.046269 -0.16849 -0.071146 0.075231 0.033034 -0.17025 -0.03932 -0.12473 -0.049025 -0.14045 -0.09062 -0.035043 0.055841 0.033409 0.10968 0.07033 0.0036597 -0.042501 -0.079867 -0.12587 -0.051316 -0.044263 -0.087465 0.12484 -0.049681 -0.10038 0.0038952 -0.27406 -0.0047473 -0.0086545 -0.09197 -0.058932 -0.076355 -0.019578 0.069184 0.19247 0.035406 -0.096389 -0.062694 -0.087892 -0.014729 -0.051787 
4 0.085615 -0.076973 0.092696 0.05917 -0.061213 -0.017168 -0.0029705 0.019473 0.024125 0.011981 0.099841 0.051156 0.12845 0.13361 -0.10346 0.090147 0.12174 0.061418 0.065001 -0.048924 -0.0076712 0.030202 -0.10293 -0.087947 -0.035251 0.069979 0.071457 0.02041 0.064396 0.070732 0.019506 -0.12098 -0.13104 -0.062399 -0.13184 -0.083727 -0.039585 0.066236 -0.021867 0.028864 0.16586 0.10402 -0.052514 -0.0062887 -0.098766 -0.095847 0.20757 0.050066 0.15749 -0.040683 0.013645 0.095632 -0.039926 -0.14085 -0.050226 -0.051552 0.064692 0.083024 0.050252 -0.16864 -0.071551 0.079767 0.037008 -0.17256 -0.038277 -0.12344 -0.052109 -0.14835 -0.091645 -0.038851 0.062135 0.034585 0.1112 0.075555 0.0085882 -0.043643 -0.078038 -0.12632 -0.055111 -0.049841 -0.093473 0.12646 -0.052509 -0.10303 -0.0004516 -0.27631 -0.0090469 -0.0051483 -0.097906 -0.060836 -0.080907 -0.021403 0.07517 0.19488 0.034002 -0.10263 -0.068704 -0.08788 -0.012283 -0.048371 
11:37:39] 0.095171 -0.086537 0.098835 0.063579 -0.070238 -0.014154 0.00097167 0.025932 0.024951 0.015755 0.10591 0.052425 0.1374 0.14386 -0.11735 0.10385 0.13871 0.074271 0.076148 -0.053112 -0.012708 0.034753 -0.11435 -0.097087 -0.034623 0.078241 0.079613 0.022553 0.070623 0.080049 0.018548 -0.13931 -0.14454 -0.074291 -0.14937 -0.092152 -0.045096 0.068436 -0.028877 0.027277 0.17968 0.11107 -0.059346 -0.0073164 -0.11401 -0.11057 0.23219 0.060356 0.17451 -0.045643 0.016928 0.10737 -0.047128 -0.15635 -0.051535 -0.057005 0.073247 0.087392 0.052101 -0.19095 -0.080692 0.08541 0.0377 -0.19267 -0.045125 -0.14114 -0.055764 -0.15902 -0.10197 -0.04056 0.062889 0.038398 0.12369 0.078734 0.0047155 -0.047383 -0.090759 -0.14259 -0.058621 -0.050521 -0.098846 0.14044 -0.056605 -0.11412 0.0033609 -0.30997 -0.0046553 -0.0097337 -0.10365 -0.066372 -0.085552 -0.022845 0.077502 0.21766 0.039347 -0.10947 -0.070308 -0.10009 -0.016706 -0.058025 
11:43:41] 0.11933 -0.10765 0.1232 0.079182 -0.088624 -0.017056 0.0010178 0.033448 0.031115 0.019345 0.13212 0.065586 0.17117 0.18106 -0.14685 0.12968 0.1722 0.09145 0.095614 -0.066113 -0.014636 0.043512 -0.14319 -0.12084 -0.043567 0.098065 0.099348 0.028055 0.088936 0.10064 0.023184 -0.17357 -0.18066 -0.092011 -0.18666 -0.11562 -0.056687 0.085952 -0.035715 0.033935 0.22467 0.13925 -0.074205 -0.0087674 -0.14213 -0.1381 0.29014 0.074282 0.21792 -0.057503 0.020266 0.13458 -0.058716 -0.19576 -0.064714 -0.073248 0.092321 0.10914 0.064088 -0.23971 -0.1007 0.10635 0.047249 -0.23997 -0.056385 -0.17597 -0.069323 -0.19825 -0.1271 -0.050545 0.078745 0.048171 0.15541 0.099202 0.0055366 -0.05936 -0.1138 -0.17765 -0.073678 -0.06254 -0.12417 0.17602 -0.070152 -0.14231 0.0046947 -0.38823 -0.0064518 -0.012647 -0.12914 -0.082882 -0.10777 -0.027345 0.09728 0.27188 0.050048 -0.13692 -0.088209 -0.12456 -0.021246 -0.073341 
6 0.086069 -0.075449 0.093732 0.059178 -0.061581 -0.015995 -0.0015949 0.020704 0.02488 0.011919 0.094417 0.050887 0.12669 0.13378 -0.10912 0.098615 0.12729 0.066358 0.068767 -0.044296 -0.014889 0.033397 -0.10828 -0.089511 -0.030276 0.077361 0.070091 0.024131 0.070959 0.076378 0.014358 -0.12685 -0.13657 -0.071819 -0.13865 -0.091 -0.044602 0.062814 -0.02516 0.023715 0.1663 0.10369 -0.053415 -0.0053701 -0.10447 -0.10642 0.21354 0.05653 0.1613 -0.04147 0.01606 0.096437 -0.047919 -0.14871 -0.052931 -0.056956 0.064852 0.080931 0.050609 -0.17404 -0.076504 0.075131 0.03126 -0.17989 -0.038477 -0.13221 -0.054488 -0.15197 -0.09552 -0.03256 0.059633 0.036635 0.11949 0.077014 0.00042572 -0.047203 -0.08518 -0.13702 -0.051048 -0.045415 -0.090629 0.13485 -0.047614 -0.10113 0.0019215 -0.29243 -0.0015424 -0.0089766 -0.10093 -0.065625 -0.084501 -0.021363 0.076622 0.20668 0.039809 -0.10083 -0.06876 -0.092239 -0.014375 -0.054547 
13 0.053286 -0.044521 0.058624 0.035831 -0.04069 -0.007866 0.0014017 0.014804 0.014446 0.0063897 0.058782 0.027183 0.073211 0.079732 -0.062093 0.053446 0.073489 0.03867 0.047302 -0.028928 -0.0036894 0.019247 -0.062962 -0.054009 -0.014531 0.042311 0.046221 0.012947 0.039767 0.042938 0.010423 -0.074175 -0.077912 -0.039417 -0.082692 -0.055069 -0.024898 0.03867 -0.015689 0.018109 0.096802 0.060152 -0.034157 -0.0054881 -0.064996 -0.058785 0.12701 0.032963 0.095234 -0.019919 0.0075115 0.058954 -0.024244 -0.085889 -0.027772 -0.030996 0.044899 0.050584 0.02829 -0.10061 -0.043445 0.047193 0.0244 -0.10965 -0.025515 -0.07624 -0.028256 -0.081356 -0.054833 -0.017433 0.037618 0.019848 0.065621 0.040505 0.006825 -0.02722 -0.048777 -0.077013 -0.032297 -0.0295 -0.056792 0.072396 -0.030506 -0.062001 0.0017572 -0.16918 0.00070588 -0.0074905 -0.054891 -0.035973 -0.045695 -0.010052 0.043475 0.11785 0.020916 -0.060224 -0.040947 -0.056093 -0.0060082 -0.033369 
11:14:28] 0.10781 -0.096751 0.1109 0.071267 -0.079744 -0.015621 0.0012133 0.029606 0.027988 0.017693 0.11937 0.058547 0.15497 0.16191 -0.13188 0.11629 0.15462 0.082827 0.085934 -0.059706 -0.013297 0.039836 -0.12936 -0.10931 -0.038519 0.088595 0.089788 0.02549 0.080404 0.090988 0.02135 -0.15661 -0.16268 -0.082935 -0.16792 -0.10426 -0.051581 0.07714 -0.031986 0.030405 0.20277 0.12466 -0.066532 -0.0081137 -0.12834 -0.12391 0.26162 0.067467 0.19588 -0.051624 0.01805 0.12159 -0.053289 -0.1763 -0.05831 -0.065098 0.082408 0.098261 0.05832 -0.2149 -0.090556 0.096002 0.042196 -0.21675 -0.050544 -0.1583 -0.062847 -0.17908 -0.1153 -0.045407 0.071462 0.041995 0.13965 0.089311 0.0048497 -0.053585 -0.10245 -0.16052 -0.065941 -0.057039 -0.11081 0.15893 -0.063667 -0.12856 0.0045304 -0.34991 -0.0058652 -0.011214 -0.11695 -0.074772 -0.096522 -0.025204 0.087559 0.245 0.044666 -0.12309 -0.079943 -0.11189 -0.018732 -0.065612 
11:47:25] 0.11872 -0.10748 0.12248 0.079082 -0.088392 -0.017504 0.0014907 0.033074 0.030679 0.020239 0.13138 0.064854 0.17063 0.17987 -0.14605 0.12939 0.17163 0.091904 0.09434 -0.066623 -0.015007 0.043473 -0.14393 -0.12045 -0.043234 0.097669 0.099469 0.028258 0.089202 0.099235 0.022532 -0.17326 -0.17946 -0.091831 -0.18601 -0.11471 -0.056217 0.085846 -0.034642 0.034302 0.22332 0.1385 -0.074126 -0.0081471 -0.14171 -0.13813 0.28943 0.074788 0.21693 -0.056842 0.020034 0.13456 -0.058827 -0.19449 -0.064259 -0.072036 0.090921 0.1093 0.063593 -0.23766 -0.099764 0.10616 0.04661 -0.23978 -0.05551 -0.17477 -0.069458 -0.19747 -0.12668 -0.05042 0.078036 0.047512 0.15482 0.099029 0.0054733 -0.058714 -0.11283 -0.1775 -0.073356 -0.062886 -0.12306 0.17554 -0.070306 -0.14155 0.0047905 -0.38592 -0.0063231 -0.01255 -0.1297 -0.081853 -0.10682 -0.027487 0.096973 0.27125 0.049663 -0.13655 -0.087384 -0.12351 -0.020479 -0.072559 
8 0.058854 -0.052536 0.060875 0.039024 -0.044004 -0.0085756 0.00079248 0.015754 0.014775 0.0093571 0.064723 0.031671 0.083777 0.088273 -0.071705 0.063373 0.084307 0.0448 0.046709 -0.032394 -0.0075196 0.021726 -0.070158 -0.059246 -0.020791 0.048239 0.048927 0.013918 0.043812 0.049571 0.011332 -0.084897 -0.088391 -0.045044 -0.090948 -0.056569 -0.027906 0.04176 -0.017475 0.01657 0.10974 0.067702 -0.036294 -0.0040012 -0.069356 -0.06758 0.14215 0.03664 0.10653 -0.028009 0.010184 0.066137 -0.02927 -0.095905 -0.031736 -0.035669 0.044871 0.053506 0.032094 -0.11669 -0.049174 0.05234 0.022958 -0.11806 -0.027161 -0.086441 -0.033968 -0.097348 -0.062883 -0.024352 0.038851 0.022978 0.076116 0.048738 0.0025152 -0.029398 -0.055393 -0.086997 -0.035793 -0.030749 -0.060563 0.086503 -0.034318 -0.069441 0.0025677 -0.18993 -0.0032535 -0.0059357 -0.063624 -0.040884 -0.052737 -0.013692 0.047842 0.13308 0.024439 -0.066767 -0.043512 -0.060874 -0.010198 -0.035938 
20 0.056417 -0.050972 0.060978 0.034852 -0.043742 -0.0089728 -0.0015003 0.015527 0.013835 0.0092875 0.064182 0.03024 0.083652 0.085928 -0.06728 0.061213 0.081791 0.044902 0.047034 -0.031977 -0.0049903 0.018735 -0.066063 -0.057033 -0.018958 0.043943 0.048192 0.011365 0.043459 0.04609 0.012339 -0.085467 -0.088104 -0.042939 -0.087894 -0.056924 -0.029265 0.04366 -0.014865 0.016053 0.10865 0.068616 -0.035555 -0.0024907 -0.06933 -0.065076 0.14214 0.034052 0.10536 -0.02908 0.010753 0.067295 -0.027547 -0.093882 -0.032597 -0.03599 0.045762 0.054169 0.032663 -0.11144 -0.048755 0.051047 0.023563 -0.11462 -0.027699 -0.085709 -0.031164 -0.092573 -0.061351 -0.023113 0.034613 0.022198 0.073853 0.045278 0.003451 -0.025615 -0.052677 -0.087501 -0.033249 -0.030623 -0.056257 0.085112 -0.033549 -0.066089 0.0016483 -0.18685 -0.0017625 -0.0062325 -0.063068 -0.040067 -0.050817 -0.011093 0.047436 0.12835 0.021553 -0.065478 -0.039711 -0.057208 -0.012226 -0.033905 
7 0.079821 -0.071661 0.083078 0.053039 -0.059355 -0.011902 0.00084309 0.021603 0.020608 0.012895 0.088386 0.043745 0.1149 0.12052 -0.098017 0.086634 0.11497 0.061366 0.063996 -0.044101 -0.010209 0.029478 -0.096023 -0.080844 -0.028602 0.065803 0.066764 0.019127 0.059712 0.067456 0.015608 -0.11612 -0.12085 -0.061539 -0.12439 -0.077425 -0.038227 0.057146 -0.023972 0.02265 0.15017 0.092739 -0.04947 -0.0057067 -0.094882 -0.092122 0.19414 0.04998 0.14565 -0.038074 0.013632 0.090122 -0.03995 -0.13104 -0.043679 -0.048559 0.061407 0.072959 0.043795 -0.15938 -0.067439 0.071207 0.031171 -0.16106 -0.037376 -0.11813 -0.046443 -0.13294 -0.085888 -0.033406 0.052843 0.031553 0.10379 0.0665 0.003654 -0.040113 -0.075504 -0.11907 -0.048805 -0.041935 -0.082621 0.11812 -0.046955 -0.094969 0.0035033 -0.25952 -0.0044277 -0.0080875 -0.08703 -0.055657 -0.072237 -0.018455 0.065532 0.18193 0.033521 -0.091368 -0.059411 -0.083127 -0.014092 -0.049057 
11:44:06] 0.12472 -0.11216 0.12834 0.082603 -0.092536 -0.018567 0.0015453 0.034296 0.033164 0.020517 0.13733 0.067385 0.17873 0.18818 -0.1526 0.13536 0.17948 0.095178 0.098998 -0.069263 -0.015593 0.04619 -0.15015 -0.12677 -0.044798 0.10228 0.10405 0.030178 0.092251 0.10481 0.02367 -0.1813 -0.18778 -0.095697 -0.19409 -0.1201 -0.059435 0.088826 -0.037562 0.035981 0.23369 0.14492 -0.077632 -0.0091896 -0.14874 -0.14369 0.30244 0.077892 0.22653 -0.059863 0.02155 0.14076 -0.061449 -0.20357 -0.068478 -0.075584 0.095848 0.11338 0.067099 -0.24913 -0.10461 0.11142 0.049037 -0.25097 -0.058741 -0.18373 -0.072191 -0.20673 -0.13307 -0.052067 0.082261 0.05029 0.16156 0.10374 0.0063155 -0.062085 -0.11778 -0.1863 -0.076188 -0.065316 -0.12906 0.18401 -0.073455 -0.1488 0.0054422 -0.40463 -0.0064644 -0.013223 -0.13487 -0.08556 -0.11203 -0.028998 0.10116 0.28348 0.051811 -0.14266 -0.092055 -0.12933 -0.021644 -0.077037 
15 0.061543 -0.056343 0.062393 0.041212 -0.04806 -0.0087642 0.003247 0.016993 0.014493 0.010414 0.067277 0.032127 0.087656 0.091547 -0.072891 0.06609 0.087119 0.04789 0.050557 -0.034189 -0.006978 0.023586 -0.074217 -0.061473 -0.020578 0.050868 0.051899 0.013983 0.046508 0.051846 0.011606 -0.087365 -0.091599 -0.048148 -0.095027 -0.058626 -0.028343 0.042217 -0.017387 0.017661 0.11421 0.070175 -0.03772 -0.0033822 -0.070827 -0.070205 0.14853 0.036858 0.11086 -0.030988 0.011221 0.067003 -0.032341 -0.099506 -0.033065 -0.035413 0.047687 0.056052 0.033952 -0.12178 -0.052119 0.053621 0.023618 -0.12295 -0.028281 -0.091608 -0.034767 -0.10226 -0.066925 -0.026829 0.040546 0.022958 0.078508 0.051864 0.0029332 -0.031366 -0.058391 -0.088647 -0.036552 -0.032369 -0.064542 0.089792 -0.035275 -0.072801 0.00079258 -0.1979 -0.0030371 -0.0068792 -0.065679 -0.0425 -0.054595 -0.014066 0.050043 0.13729 0.025411 -0.068223 -0.046895 -0.063016 -0.010009 -0.037344 
23 0.08614 -0.07683 0.0894 0.057122 -0.063453 -0.013602 3.9564e-05 0.022441 0.023108 0.014442 0.094236 0.047587 0.12336 0.12958 -0.10593 0.093824 0.12223 0.066326 0.068643 -0.048302 -0.0096472 0.030991 -0.10244 -0.085659 -0.031233 0.071426 0.072758 0.021216 0.064092 0.072204 0.01759 -0.12528 -0.12995 -0.06495 -0.13273 -0.083062 -0.041417 0.061 -0.025447 0.023882 0.16179 0.099825 -0.053721 -0.0063255 -0.10118 -0.099483 0.20942 0.053822 0.1565 -0.039852 0.013943 0.096641 -0.041869 -0.14189 -0.045733 -0.052777 0.066978 0.07713 0.046584 -0.17209 -0.071643 0.076498 0.032722 -0.17342 -0.040196 -0.12724 -0.050985 -0.14166 -0.092374 -0.0363 0.056141 0.032744 0.11117 0.071727 0.0033929 -0.044261 -0.081953 -0.12704 -0.053156 -0.045104 -0.088633 0.1262 -0.05086 -0.10171 0.0031626 -0.27949 -0.0041001 -0.0083779 -0.09274 -0.059053 -0.076564 -0.019002 0.070647 0.19576 0.037114 -0.099172 -0.064793 -0.090129 -0.015972 -0.051336 
9 0.081485 -0.074067 0.090195 0.051146 -0.069295 -0.0054864 -0.0073335 0.018832 0.026405 0.014591 0.095926 0.039683 0.11356 0.12728 -0.10166 0.093586 0.12166 0.058193 0.068012 -0.038484 -0.019279 0.030388 -0.089762 -0.083802 -0.02495 0.066491 0.069024 0.017058 0.057743 0.071699 0.013833 -0.10971 -0.12273 -0.057441 -0.12213 -0.081582 -0.041536 0.063739 -0.023216 0.020846 0.15298 0.099424 -0.051386 -0.0031441 -0.089274 -0.10021 0.19693 0.051631 0.15038 -0.034838 0.013319 0.090073 -0.037549 -0.12514 -0.045841 -0.044767 0.060673 0.066091 0.042601 -0.15911 -0.067447 0.073788 0.038665 -0.16974 -0.041121 -0.12462 -0.047718 -0.13271 -0.094643 -0.032599 0.054411 0.024673 0.11369 0.064375 -0.0018798 -0.043749 -0.076279 -0.11414 -0.051627 -0.044504 -0.083139 0.12139 -0.048913 -0.089758 0.0060447 -0.25478 -0.0082069 -0.012893 -0.087816 -0.052527 -0.072601 -0.025525 0.065036 0.18796 0.033962 -0.095243 -0.060412 -0.0793 -0.011231 -0.056515 
11:45:09] 0.11505 -0.10357 0.11865 0.076706 -0.085923 -0.017387 0.001322 0.031677 0.030131 0.018621 0.12771 0.06289 0.16497 0.17376 -0.14118 0.1247 0.16537 0.088331 0.091738 -0.06351 -0.014466 0.042133 -0.13845 -0.11714 -0.041628 0.094056 0.096122 0.027586 0.085796 0.096675 0.022396 -0.16731 -0.17409 -0.088836 -0.1796 -0.1112 -0.054802 0.082044 -0.034211 0.032974 0.21673 0.13424 -0.071823 -0.0089603 -0.13766 -0.13291 0.27975 0.071237 0.20972 -0.054739 0.019822 0.13052 -0.056874 -0.18912 -0.06286 -0.070106 0.088686 0.10553 0.062313 -0.23017 -0.096925 0.10262 0.045321 -0.2322 -0.054321 -0.16954 -0.066674 -0.19141 -0.12308 -0.048621 0.07539 0.046065 0.1495 0.095764 0.0057291 -0.057412 -0.10947 -0.17233 -0.070362 -0.060726 -0.11934 0.1697 -0.06775 -0.13765 0.0042772 -0.37337 -0.0063863 -0.011964 -0.1253 -0.08007 -0.10414 -0.026368 0.094132 0.26239 0.048126 -0.13143 -0.085126 -0.12036 -0.02002 -0.070339 
11:44:00] 0.12282 -0.1108 0.12627 0.08137 -0.091405 -0.018154 0.0014639 0.033422 0.032654 0.020051 0.1351 0.065984 0.17559 0.18508 -0.15004 0.13252 0.17674 0.09354 0.097281 -0.068545 -0.01512 0.044999 -0.14706 -0.1249 -0.043996 0.10036 0.10209 0.029304 0.09098 0.10299 0.023313 -0.17837 -0.18452 -0.094179 -0.19128 -0.11861 -0.05793 0.087504 -0.036736 0.0357 0.22964 0.14237 -0.076109 -0.0090866 -0.14613 -0.14131 0.29747 0.076538 0.22283 -0.059043 0.020768 0.13896 -0.06003 -0.20049 -0.067163 -0.074138 0.094071 0.11162 0.066149 -0.24478 -0.10334 0.10979 0.047872 -0.24684 -0.058009 -0.18131 -0.07073 -0.20344 -0.13103 -0.051367 0.081009 0.049182 0.15859 0.10193 0.0062103 -0.06105 -0.11608 -0.18277 -0.075127 -0.064531 -0.1269 0.18091 -0.072072 -0.1463 0.0053132 -0.39764 -0.0067025 -0.012793 -0.13278 -0.084351 -0.11012 -0.028398 0.099448 0.279 0.051118 -0.14017 -0.090514 -0.12745 -0.021809 -0.075663 
21 0.045171 -0.040212 0.046964 0.029972 -0.032801 -0.0072264 0.00016046 0.012069 0.012314 0.0084047 0.050372 0.024036 0.0647 0.068474 -0.056006 0.049243 0.06547 0.034368 0.036451 -0.023705 -0.0051983 0.016427 -0.054368 -0.045487 -0.016488 0.038126 0.037191 0.010834 0.034468 0.038225 0.0075017 -0.064911 -0.069133 -0.034223 -0.068894 -0.043804 -0.022425 0.032045 -0.014873 0.012438 0.083359 0.053039 -0.027908 -0.0027536 -0.053239 -0.050618 0.11024 0.028094 0.081225 -0.021211 0.0074315 0.051608 -0.02333 -0.072991 -0.025646 -0.028231 0.033505 0.042254 0.024879 -0.089796 -0.037068 0.039142 0.018592 -0.09177 -0.02007 -0.066296 -0.025114 -0.075589 -0.047023 -0.019903 0.030228 0.017603 0.058432 0.036806 0.0013245 -0.021651 -0.043316 -0.067677 -0.028272 -0.023752 -0.046336 0.067421 -0.02613 -0.052699 0.0023085 -0.14578 -0.0026071 -0.0033972 -0.047938 -0.030415 -0.03991 -0.011165 0.036197 0.10243 0.017985 -0.050302 -0.031933 -0.045607 -0.0089139 -0.02842 
3 0.067222 -0.059956 0.069666 0.044649 -0.049914 -0.010211 0.00083827 0.018019 0.017267 0.010695 0.074024 0.036647 0.095766 0.1011 -0.082187 0.072497 0.096232 0.051348 0.053615 -0.036943 -0.008264 0.024613 -0.080353 -0.067579 -0.023639 0.055017 0.055877 0.016122 0.04978 0.056511 0.012795 -0.097103 -0.10111 -0.05153 -0.10378 -0.06492 -0.032082 0.047786 -0.020282 0.018871 0.12547 0.077492 -0.041288 -0.0047704 -0.07937 -0.07703 0.16263 0.042016 0.12176 -0.031867 0.011337 0.075491 -0.033711 -0.10985 -0.036575 -0.040876 0.051388 0.061507 0.036984 -0.13337 -0.056305 0.059521 0.026348 -0.13505 -0.031115 -0.098842 -0.038814 -0.11152 -0.071767 -0.027926 0.044405 0.026385 0.086966 0.055592 0.0029073 -0.033548 -0.063127 -0.099821 -0.040641 -0.035133 -0.069364 0.099041 -0.03911 -0.079617 0.0031627 -0.21728 -0.0036774 -0.0068979 -0.073083 -0.04669 -0.060554 -0.015659 0.054792 0.15231 0.027771 -0.07636 -0.049555 -0.069621 -0.01174 -0.040778 
17 0.052466 -0.04709 0.054427 0.034866 -0.038995 -0.0078126 0.00059429 0.014172 0.013542 0.0082623 0.057937 0.028524 0.075136 0.078952 -0.064155 0.056736 0.075374 0.040159 0.041791 -0.029043 -0.0064684 0.019404 -0.063072 -0.053057 -0.018799 0.043137 0.043581 0.012538 0.039125 0.044386 0.010203 -0.076129 -0.079175 -0.040204 -0.081345 -0.050601 -0.024892 0.037554 -0.015597 0.014839 0.098511 0.060816 -0.032513 -0.0036575 -0.062113 -0.060379 0.12722 0.032703 0.095393 -0.025081 0.008847 0.058846 -0.026166 -0.085735 -0.028668 -0.032015 0.04019 0.048014 0.028801 -0.10442 -0.044062 0.046689 0.020468 -0.10563 -0.024385 -0.077149 -0.030528 -0.087171 -0.056173 -0.021921 0.034783 0.020796 0.067949 0.043535 0.002411 -0.026263 -0.049545 -0.078022 -0.032006 -0.027461 -0.054258 0.077433 -0.030795 -0.062246 0.0021675 -0.17 -0.0030558 -0.0053458 -0.057089 -0.036531 -0.047369 -0.012141 0.042965 0.11918 0.021979 -0.059901 -0.038803 -0.054416 -0.0092358 -0.032119 
9.x|dist=15|params=fuzzy|raw_sig=4:49+15:0:1460:65535,6:mss,nop,ws,sok,ts:df,ecn:0 0.076287 -0.068462 0.079551 0.050921 -0.056886 -0.011701 0.00089828 0.02061 0.020143 0.012158 0.084511 0.041709 0.10979 0.11548 -0.09363 0.083039 0.11001 0.058654 0.061242 -0.042522 -0.0096416 0.02815 -0.092101 -0.077516 -0.027522 0.062822 0.063562 0.018401 0.05701 0.064633 0.015251 -0.11149 -0.11553 -0.058755 -0.1191 -0.074028 -0.036565 0.054488 -0.022928 0.021928 0.14385 0.088716 -0.047235 -0.0053879 -0.090837 -0.088294 0.1859 0.047846 0.1397 -0.036196 0.012748 0.086055 -0.038377 -0.12541 -0.041748 -0.046592 0.058633 0.069934 0.041785 -0.15266 -0.064528 0.068259 0.029916 -0.15419 -0.035952 -0.11294 -0.044725 -0.12703 -0.08224 -0.03213 0.050227 0.030471 0.09935 0.063641 0.0032997 -0.038179 -0.072158 -0.11396 -0.046773 -0.039881 -0.079033 0.11297 -0.044814 -0.090947 0.0034591 -0.24831 -0.0042797 -0.0080465 -0.083264 -0.053185 -0.069448 -0.017642 0.062917 0.1742 0.032034 -0.087177 -0.056564 -0.079821 -0.013658 -0.04708 
VPN|raw_mtu=1460 0.093902 -0.083666 0.096992 0.062197 -0.069476 -0.014154 0.0014215 0.025377 0.024465 0.015579 0.10404 0.050927 0.13557 0.14234 -0.11507 0.1023 0.13508 0.07275 0.075572 -0.051728 -0.01191 0.034033 -0.11328 -0.095443 -0.033261 0.077491 0.07824 0.022674 0.07015 0.07949 0.018762 -0.1369 -0.14221 -0.071495 -0.14618 -0.091022 -0.045082 0.067218 -0.027621 0.027276 0.17744 0.10939 -0.058476 -0.0068151 -0.11189 -0.10819 0.22855 0.05887 0.17155 -0.044488 0.015264 0.1055 -0.047016 -0.15345 -0.051399 -0.05789 0.071601 0.086033 0.052075 -0.18694 -0.079554 0.084268 0.037442 -0.19024 -0.043757 -0.13833 -0.054864 -0.15609 -0.10111 -0.039734 0.06234 0.037147 0.12235 0.078457 0.0043387 -0.046861 -0.089211 -0.13951 -0.057208 -0.048577 -0.097583 0.1387 -0.055609 -0.11205 0.0037761 -0.30525 -0.0052319 -0.0099878 -0.10215 -0.065768 -0.084789 -0.022 0.076907 0.21398 0.039262 -0.10708 -0.069517 -0.09799 -0.016895 -0.05739 
11:18:38] 0.12354 -0.11188 0.12807 0.08222 -0.091462 -0.018137 0.0014989 0.034418 0.031452 0.01961 0.13651 0.067747 0.17823 0.18755 -0.15193 0.13472 0.17877 0.095523 0.099064 -0.0682 -0.015592 0.045605 -0.14901 -0.12613 -0.044414 0.10208 0.10356 0.029693 0.092466 0.10442 0.02385 -0.18019 -0.18725 -0.095147 -0.19377 -0.11999 -0.059523 0.088717 -0.036722 0.035875 0.23279 0.14384 -0.076591 -0.0086295 -0.14745 -0.14324 0.30137 0.07732 0.22582 -0.058664 0.0208 0.14 -0.060936 -0.20251 -0.067833 -0.07495 0.095108 0.11369 0.066936 -0.24744 -0.10483 0.11086 0.048714 -0.24962 -0.057665 -0.18303 -0.071835 -0.2063 -0.13169 -0.052573 0.08175 0.049908 0.16115 0.10318 0.0058986 -0.061923 -0.11727 -0.18521 -0.076379 -0.065634 -0.12878 0.18326 -0.072779 -0.14795 0.0049523 -0.40335 -0.0076604 -0.012547 -0.13515 -0.085321 -0.11198 -0.028487 0.10167 0.28159 0.051983 -0.14242 -0.090937 -0.12916 -0.02121 -0.07571 
11:15:03] 0.11977 -0.10752 0.12394 0.079715 -0.089254 -0.01755 0.001661 0.032569 0.031609 0.019066 0.13226 0.065457 0.17264 0.18036 -0.14688 0.13023 0.17286 0.092089 0.095179 -0.066545 -0.015268 0.043844 -0.14377 -0.12168 -0.043563 0.09809 0.099941 0.028179 0.089338 0.10102 0.022476 -0.17354 -0.18106 -0.092655 -0.187 -0.11543 -0.056534 0.086131 -0.035823 0.034559 0.22524 0.13936 -0.074777 -0.008862 -0.14272 -0.13809 0.29109 0.074564 0.21825 -0.057195 0.020397 0.13516 -0.059251 -0.19711 -0.065647 -0.073017 0.092224 0.10996 0.065247 -0.23883 -0.10178 0.10686 0.047067 -0.242 -0.056188 -0.17623 -0.069483 -0.19944 -0.12803 -0.050252 0.079142 0.047922 0.15516 0.099142 0.0049248 -0.059663 -0.11365 -0.17897 -0.073467 -0.062914 -0.12414 0.17683 -0.071456 -0.14319 0.0049949 -0.38893 -0.0064535 -0.012021 -0.12962 -0.08279 -0.1077 -0.027858 0.097969 0.2722 0.050215 -0.13691 -0.088885 -0.12531 -0.021081 -0.073277 
16 0.047693 -0.041701 0.047666 0.031755 -0.036026 -0.0070954 -0.00063944 0.012657 0.013225 0.0081651 0.051912 0.025 0.066709 0.071444 -0.057873 0.050332 0.068843 0.036356 0.038575 -0.026478 -0.0047496 0.017944 -0.056968 -0.047474 -0.017121 0.037773 0.0406 0.01125 0.035414 0.040517 0.0093433 -0.069522 -0.072257 -0.03683 -0.072478 -0.044469 -0.021792 0.033806 -0.015126 0.012284 0.087596 0.053892 -0.029274 -0.0024436 -0.055619 -0.054402 0.11473 0.029772 0.086862 -0.023378 0.0068444 0.053201 -0.022806 -0.077276 -0.02574 -0.029689 0.036206 0.043901 0.025486 -0.09303 -0.040262 0.041751 0.019672 -0.095733 -0.02202 -0.06948 -0.028553 -0.079328 -0.051593 -0.020913 0.030839 0.017918 0.060496 0.039762 0.0029542 -0.022782 -0.043486 -0.069214 -0.028942 -0.024413 -0.048688 0.069564 -0.027781 -0.057015 0.0028853 -0.15279 -0.0020042 -0.0056372 -0.051949 -0.033726 -0.043502 -0.010924 0.038789 0.10788 0.018785 -0.054505 -0.034855 -0.048154 -0.0079758 -0.029195 
11 0.22998 -0.20161 0.2352 0.1526 -0.16521 -0.037249 0.0016123 0.060906 0.061413 0.038517 0.25195 0.1273 0.32299 0.33849 -0.28067 0.24443 0.32729 0.17681 0.17837 -0.12573 -0.025531 0.082871 -0.27214 -0.22513 -0.081557 0.18402 0.18836 0.054521 0.17013 0.19348 0.042478 -0.33012 -0.3436 -0.17122 -0.34978 -0.2223 -0.10941 0.16205 -0.069917 0.065696 0.41951 0.25911 -0.13915 -0.013952 -0.26926 -0.25715 0.54717 0.14012 0.41387 -0.1027 0.037337 0.25512 -0.11042 -0.36839 -0.12252 -0.13689 0.17167 0.20324 0.1235 -0.45192 -0.19212 0.20249 0.086988 -0.4569 -0.10346 -0.33543 -0.12908 -0.37842 -0.24454 -0.094769 0.15347 0.090275 0.29528 0.1874 0.011928 -0.11601 -0.21282 -0.33623 -0.13845 -0.12147 -0.23251 0.33599 -0.13311 -0.26668 0.011306 -0.73311 -0.012075 -0.023256 -0.2457 -0.1543 -0.20611 -0.051037 0.18517 0.51547 0.096067 -0.25784 -0.16924 -0.23701 -0.039106 -0.13731 
11:49:45] 0.13043 -0.11711 0.13481 0.085985 -0.097023 -0.018884 0.0014153 0.035905 0.034783 0.021682 0.14425 0.070933 0.18711 0.19654 -0.15887 0.14191 0.18728 0.099213 0.10378 -0.071468 -0.016375 0.047688 -0.15607 -0.13242 -0.04695 0.10635 0.10802 0.031445 0.097082 0.109 0.025395 -0.18954 -0.19671 -0.10068 -0.20372 -0.12598 -0.062022 0.093766 -0.038835 0.036729 0.24463 0.15119 -0.080412 -0.0092727 -0.15573 -0.15001 0.31688 0.081402 0.2372 -0.062332 0.022777 0.14714 -0.064393 -0.21345 -0.070624 -0.078986 0.10004 0.11866 0.070628 -0.25949 -0.11006 0.11632 0.050589 -0.2623 -0.061374 -0.19168 -0.075888 -0.21682 -0.13933 -0.054892 0.085791 0.051981 0.16911 0.10887 0.0060899 -0.065473 -0.12422 -0.19433 -0.079357 -0.068191 -0.13491 0.19239 -0.076402 -0.15503 0.0056531 -0.42296 -0.007181 -0.013617 -0.14125 -0.090743 -0.11728 -0.030178 0.10669 0.29658 0.054095 -0.14928 -0.095999 -0.13518 -0.022788 -0.080104 
11:49:34] 0.12497 -0.11212 0.12954 0.082975 -0.093526 -0.018421 0.0017308 0.034319 0.033346 0.019973 0.13818 0.06834 0.17959 0.18901 -0.15311 0.13587 0.17967 0.096092 0.099548 -0.068926 -0.015683 0.045873 -0.15019 -0.12722 -0.04428 0.10193 0.10403 0.029705 0.093303 0.10469 0.024188 -0.1825 -0.18829 -0.096516 -0.19539 -0.12056 -0.059052 0.090267 -0.037487 0.035979 0.23479 0.14511 -0.077226 -0.0092627 -0.14892 -0.1443 0.30378 0.078396 0.22797 -0.059697 0.02121 0.14127 -0.06201 -0.20415 -0.068763 -0.075106 0.095957 0.11436 0.067701 -0.24971 -0.10561 0.1111 0.049591 -0.25189 -0.058809 -0.18478 -0.072655 -0.20789 -0.13375 -0.052762 0.082395 0.050199 0.16218 0.10388 0.0054748 -0.062967 -0.11926 -0.18769 -0.076758 -0.065854 -0.12888 0.18413 -0.07377 -0.14867 0.0049262 -0.40607 -0.006413 -0.012974 -0.13521 -0.086687 -0.11235 -0.029072 0.10196 0.2854 0.051843 -0.14359 -0.09257 -0.12988 -0.022192 -0.077266 
12 0.059755 -0.053483 0.062013 0.040897 -0.0462 -0.010039 7.6912e-05 0.016913 0.01468 0.009043 0.06643 0.033371 0.085895 0.091296 -0.074338 0.066678 0.086052 0.047729 0.048885 -0.032475 -0.0079131 0.02343 -0.07352 -0.061246 -0.02256 0.050048 0.050098 0.014274 0.044697 0.05141 0.012836 -0.089191 -0.092644 -0.046951 -0.093394 -0.057885 -0.029606 0.044009 -0.018637 0.016149 0.11321 0.071331 -0.037629 -0.005129 -0.072921 -0.069752 0.14842 0.03879 0.10945 -0.028056 0.010923 0.067385 -0.031252 -0.10021 -0.03232 -0.036415 0.046386 0.055185 0.032082 -0.12007 -0.050436 0.055208 0.02415 -0.12253 -0.027568 -0.088596 -0.034083 -0.10006 -0.064375 -0.024766 0.039031 0.022776 0.079956 0.049385 0.001934 -0.030505 -0.058083 -0.091341 -0.037118 -0.031637 -0.061613 0.089372 -0.036688 -0.073236 0.0031895 -0.19647 -0.0036648 -0.0068472 -0.06575 -0.042716 -0.055449 -0.014474 0.049786 0.13915 0.02453 -0.069217 -0.044462 -0.062743 -0.011458 -0.037844 
11:25:04] 0.091961 -0.083026 0.095284 0.061104 -0.068155 -0.013365 0.0005096 0.025379 0.024494 0.014737 0.10119 0.04955 0.13232 0.13837 -0.11243 0.099714 0.13226 0.071281 0.072873 -0.051105 -0.011764 0.034715 -0.11095 -0.093676 -0.033165 0.075668 0.076369 0.022686 0.06784 0.077597 0.017105 -0.13368 -0.13872 -0.071421 -0.14356 -0.088749 -0.044178 0.06546 -0.027261 0.026079 0.1724 0.10714 -0.057478 -0.0066686 -0.10909 -0.10612 0.22333 0.057877 0.16748 -0.044045 0.015845 0.10417 -0.0458 -0.1512 -0.050557 -0.055617 0.070012 0.083712 0.049526 -0.18332 -0.07697 0.08157 0.036143 -0.18554 -0.043159 -0.13524 -0.053405 -0.1526 -0.098612 -0.038355 0.060696 0.036826 0.11946 0.076552 0.0045195 -0.045316 -0.087605 -0.13779 -0.056438 -0.048634 -0.095884 0.13609 -0.054418 -0.10976 0.004517 -0.29897 -0.0056859 -0.0097867 -0.09953 -0.062989 -0.083018 -0.021019 0.075363 0.20952 0.038609 -0.10534 -0.067616 -0.095176 -0.016362 -0.056346 
11:15:02] 0.11713 -0.10543 0.12102 0.077617 -0.087226 -0.01706 0.0014119 0.032009 0.030903 0.018787 0.12949 0.064023 0.16839 0.17626 -0.14382 0.12732 0.16841 0.0897 0.092924 -0.064735 -0.014468 0.043263 -0.14065 -0.11857 -0.041851 0.096022 0.097672 0.028 0.087063 0.098604 0.022476 -0.17049 -0.1766 -0.090067 -0.1827 -0.11341 -0.055685 0.084019 -0.035359 0.033115 0.22004 0.1362 -0.072973 -0.0086323 -0.13938 -0.13519 0.28411 0.073044 0.21379 -0.056061 0.019936 0.13182 -0.058071 -0.19171 -0.064058 -0.071264 0.089926 0.10734 0.063271 -0.23322 -0.098473 0.1042 0.045777 -0.23573 -0.054856 -0.17281 -0.068073 -0.19447 -0.12465 -0.048996 0.077007 0.046815 0.15137 0.097342 0.0052178 -0.058336 -0.11066 -0.1742 -0.072254 -0.061145 -0.12085 0.17284 -0.069101 -0.13965 0.0046506 -0.38044 -0.0067192 -0.011796 -0.12644 -0.08125 -0.10533 -0.026773 0.095649 0.26607 0.049556 -0.13414 -0.086716 -0.12177 -0.020297 -0.071839 
10:50:25] 0.055608 -0.04923 0.057347 0.037118 -0.040238 -0.0081985 0.0011475 0.015475 0.014183 0.0095189 0.060846 0.030154 0.079241 0.0829 -0.067305 0.059338 0.079728 0.042895 0.043376 -0.030826 -0.006631 0.019915 -0.066216 -0.056363 -0.019295 0.044955 0.045595 0.013399 0.041239 0.046368 0.010915 -0.081083 -0.083013 -0.042325 -0.085697 -0.053399 -0.026007 0.039771 -0.016076 0.015702 0.10356 0.064507 -0.034576 -0.0034121 -0.065734 -0.063617 0.13382 0.034824 0.10103 -0.026356 0.0091101 0.061339 -0.027696 -0.0903 -0.029507 -0.033058 0.04205 0.05116 0.029892 -0.10978 -0.046031 0.049244 0.021217 -0.11089 -0.026091 -0.080996 -0.032273 -0.091679 -0.058988 -0.023355 0.036392 0.021967 0.071995 0.046238 0.0029082 -0.027606 -0.052643 -0.082971 -0.033676 -0.029287 -0.057035 0.080843 -0.032291 -0.065378 0.002584 -0.17875 -0.0028771 -0.0058015 -0.059902 -0.038176 -0.049593 -0.012714 0.045726 0.12604 0.022885 -0.062986 -0.040867 -0.057311 -0.0089779 -0.033592 
9.x|dist=17|params=fuzzy|raw_sig=4:47+17:0:1460:65535,6:mss,nop,ws,sok,ts:df,ecn:0 0.078401 -0.070383 0.081884 0.052382 -0.058353 -0.012162 0.00083225 0.021152 0.020662 0.012526 0.086975 0.042919 0.11316 0.11881 -0.0963 0.085491 0.11313 0.060359 0.063085 -0.043683 -0.0099092 0.02897 -0.094856 -0.079783 -0.028348 0.064664 0.065504 0.018986 0.058621 0.066536 0.01572 -0.11475 -0.11891 -0.060443 -0.12255 -0.076319 -0.037636 0.05617 -0.023553 0.022501 0.14809 0.091259 -0.048757 -0.0055994 -0.093441 -0.090765 0.19133 0.049392 0.14374 -0.037298 0.013187 0.088516 -0.039483 -0.12913 -0.042926 -0.047979 0.060351 0.071915 0.042969 -0.15697 -0.066324 0.070259 0.030755 -0.15858 -0.037011 -0.11615 -0.045954 -0.13076 -0.084588 -0.033172 0.051725 0.031383 0.10225 0.065417 0.0033988 -0.039284 -0.074367 -0.11729 -0.0481 -0.041054 -0.081376 0.11629 -0.046099 -0.093563 0.0034345 -0.25552 -0.0043621 -0.0082474 -0.085669 -0.054746 -0.071521 -0.018127 0.064782 0.17914 0.03297 -0.08982 -0.058142 -0.082177 -0.014032 -0.048391 
11:19:04] 0.11879 -0.10701 0.12348 0.077828 -0.087863 -0.018392 0.00068654 0.032025 0.030753 0.01931 0.13147 0.06537 0.17162 0.17872 -0.1451 0.12844 0.1715 0.091318 0.095027 -0.06557 -0.015158 0.04415 -0.14309 -0.12024 -0.042817 0.097646 0.099167 0.028069 0.088503 0.1004 0.022733 -0.17225 -0.17961 -0.091662 -0.18581 -0.11491 -0.056681 0.08512 -0.035814 0.033786 0.22345 0.13847 -0.073927 -0.0090828 -0.14173 -0.13639 0.28778 0.074262 0.21657 -0.057437 0.020888 0.1339 -0.057947 -0.19485 -0.064479 -0.071858 0.091353 0.1087 0.064454 -0.23726 -0.10062 0.10548 0.046779 -0.23963 -0.056305 -0.17435 -0.06898 -0.19798 -0.12668 -0.050001 0.078689 0.047989 0.15462 0.09884 0.0061144 -0.05873 -0.11259 -0.17704 -0.072255 -0.062594 -0.12318 0.17553 -0.069456 -0.14217 0.0051261 -0.38593 -0.0059546 -0.011891 -0.1282 -0.081965 -0.10689 -0.027565 0.097607 0.27046 0.049662 -0.13684 -0.087534 -0.12346 -0.021226 -0.073009 
11:49:46] 0.12733 -0.11434 0.13238 0.0841 -0.094824 -0.018228 0.0010458 0.035091 0.033962 0.02135 0.14095 0.069173 0.1828 0.19145 -0.15508 0.13842 0.18324 0.097854 0.10077 -0.069784 -0.016259 0.046976 -0.15296 -0.12908 -0.045818 0.10439 0.10475 0.030388 0.094946 0.10647 0.024323 -0.18556 -0.19245 -0.098671 -0.19805 -0.12341 -0.060355 0.09122 -0.037398 0.036846 0.23893 0.14725 -0.078535 -0.0092359 -0.15175 -0.14638 0.30971 0.080004 0.2319 -0.061172 0.022063 0.14415 -0.062614 -0.20811 -0.06855 -0.076919 0.097867 0.11647 0.06902 -0.25378 -0.1074 0.11351 0.049692 -0.25563 -0.060445 -0.18737 -0.073957 -0.21205 -0.13593 -0.052983 0.08421 0.050777 0.16511 0.10552 0.0062269 -0.064285 -0.12128 -0.19007 -0.077049 -0.06736 -0.13187 0.1877 -0.07465 -0.15129 0.0051924 -0.4136 -0.0065567 -0.01314 -0.13716 -0.088151 -0.1146 -0.029 0.10422 0.29029 0.053529 -0.14562 -0.093559 -0.13276 -0.022145 -0.078028 
11:18:34] 0.11917 -0.10726 0.12475 0.079172 -0.088052 -0.017305 0.0012002 0.032792 0.031618 0.018891 0.13197 0.064985 0.17186 0.18063 -0.14665 0.12975 0.17247 0.092041 0.095257 -0.065685 -0.014871 0.044123 -0.14383 -0.12098 -0.042684 0.097958 0.099867 0.028553 0.089444 0.10053 0.023293 -0.17404 -0.18069 -0.091757 -0.18645 -0.11531 -0.056486 0.085749 -0.035365 0.034376 0.22379 0.13877 -0.074144 -0.0090254 -0.14212 -0.13674 0.29043 0.074948 0.21766 -0.05758 0.020341 0.1348 -0.059164 -0.1952 -0.065717 -0.072636 0.091456 0.10976 0.064953 -0.23893 -0.10155 0.10645 0.046926 -0.24103 -0.055666 -0.17604 -0.069131 -0.19851 -0.12733 -0.050493 0.079112 0.048375 0.15459 0.09927 0.0051241 -0.059832 -0.11353 -0.17926 -0.073577 -0.063459 -0.12381 0.17604 -0.070167 -0.14245 0.0052568 -0.38814 -0.0065998 -0.012208 -0.1297 -0.082913 -0.1075 -0.028042 0.097762 0.27186 0.049792 -0.13717 -0.088301 -0.12397 -0.020884 -0.07366 
55 0.057997 -0.049079 0.058699 0.037256 -0.041762 -0.0095243 0.00058442 0.013594 0.0123 0.008796 0.065013 0.029483 0.082536 0.08633 -0.073637 0.064802 0.080827 0.044758 0.048694 -0.033752 -0.0085723 0.023578 -0.071262 -0.057883 -0.019179 0.049818 0.047829 0.013825 0.040878 0.04742 0.010731 -0.081579 -0.086004 -0.045396 -0.089694 -0.060172 -0.023666 0.037759 -0.016692 0.015353 0.11011 0.067233 -0.035949 -0.0047678 -0.068842 -0.067085 0.14023 0.032885 0.10493 -0.025301 0.006539 0.066327 -0.030047 -0.097184 -0.030247 -0.037538 0.043428 0.055086 0.028523 -0.11289 -0.0499 0.049863 0.023715 -0.11447 -0.028971 -0.087438 -0.035521 -0.09293 -0.06385 -0.026669 0.037397 0.022327 0.072434 0.04895 0.00064448 -0.028585 -0.058181 -0.08385 -0.034003 -0.02876 -0.05719 0.086659 -0.032492 -0.068633 0.0028426 -0.18761 -0.0033075 -0.0035018 -0.063766 -0.041547 -0.052946 -0.01391 0.047522 0.13299 0.025156 -0.066699 -0.044007 -0.061639 -0.012082 -0.034545 
10:49:54] 0.040417 -0.037242 0.041961 0.027082 -0.030258 -0.0064206 0.00073211 0.011357 0.010831 0.0065272 0.045301 0.02174 0.058074 0.061497 -0.050061 0.044537 0.058549 0.032033 0.032629 -0.023159 -0.0058077 0.015474 -0.04942 -0.042077 -0.015269 0.033723 0.033671 0.0099128 0.029935 0.034766 0.0076202 -0.059323 -0.061743 -0.031993 -0.063376 -0.039849 -0.019307 0.028542 -0.012498 0.011506 0.076954 0.046924 -0.025129 -0.002737 -0.048425 -0.04706 0.10001 0.025985 0.074866 -0.020422 0.0065584 0.046 -0.020393 -0.067309 -0.022612 -0.024664 0.031081 0.037089 0.022737 -0.081492 -0.034558 0.036976 0.015594 -0.08313 -0.019765 -0.060172 -0.023726 -0.067831 -0.043879 -0.017223 0.026913 0.016624 0.053502 0.034361 0.0022227 -0.019587 -0.038616 -0.061589 -0.025249 -0.021589 -0.043171 0.060733 -0.024826 -0.048632 0.0020787 -0.13285 -0.0018612 -0.0037338 -0.044503 -0.028236 -0.037488 -0.0095951 0.033723 0.093365 0.017152 -0.047105 -0.03042 -0.04288 -0.0079658 -0.025671 
11:23:14] 0.11095 -0.10047 0.11492 0.074008 -0.082301 -0.01659 0.00055869 0.030783 0.028829 0.01793 0.12327 0.059937 0.15948 0.1674 -0.13681 0.12063 0.15967 0.085155 0.088424 -0.061383 -0.013762 0.040712 -0.13387 -0.11347 -0.040242 0.091101 0.092823 0.026432 0.082606 0.093659 0.021568 -0.16154 -0.16781 -0.085774 -0.17335 -0.10817 -0.052964 0.080488 -0.032745 0.03187 0.20865 0.12976 -0.068879 -0.0079921 -0.13249 -0.12831 0.27033 0.070076 0.20254 -0.052257 0.019112 0.12513 -0.05492 -0.18224 -0.061096 -0.066771 0.08499 0.10125 0.059571 -0.22138 -0.093561 0.099272 0.043515 -0.22459 -0.051842 -0.16377 -0.064627 -0.18454 -0.11915 -0.046691 0.07375 0.0448 0.14406 0.092418 0.0053897 -0.054822 -0.10532 -0.1657 -0.06816 -0.058111 -0.11489 0.16398 -0.065387 -0.13288 0.0045584 -0.361 -0.0064225 -0.011872 -0.12008 -0.076869 -0.10015 -0.025722 0.091136 0.25324 0.046441 -0.12709 -0.081912 -0.11597 -0.019092 -0.068506 
11:23:15] 0.10977 -0.099271 0.11487 0.073163 -0.082106 -0.015891 0.00084879 0.030215 0.028812 0.017412 0.12197 0.059375 0.15805 0.16567 -0.13579 0.11962 0.15847 0.084313 0.088186 -0.061064 -0.013206 0.040208 -0.13305 -0.11237 -0.039789 0.090861 0.092011 0.026725 0.081834 0.092834 0.021478 -0.16007 -0.16665 -0.085139 -0.17213 -0.10717 -0.052245 0.079767 -0.032883 0.031681 0.20738 0.1287 -0.068813 -0.0080198 -0.13065 -0.12765 0.26813 0.069078 0.20098 -0.052162 0.019225 0.12455 -0.054734 -0.18096 -0.060216 -0.066225 0.084412 0.10092 0.059851 -0.22009 -0.09327 0.098928 0.043478 -0.22208 -0.051592 -0.16174 -0.064441 -0.18316 -0.11759 -0.046228 0.072962 0.044376 0.14316 0.091549 0.0051039 -0.054596 -0.10443 -0.16493 -0.067577 -0.057475 -0.11395 0.16237 -0.064792 -0.13212 0.0045576 -0.35827 -0.0065625 -0.010937 -0.11966 -0.076686 -0.098843 -0.025081 0.09052 0.25114 0.046174 -0.12627 -0.08138 -0.11465 -0.018947 -0.067812 
11:35:41] 0.097887 -0.087753 0.10197 0.064929 -0.073011 -0.013794 0.00027081 0.027583 0.026644 0.016066 0.10797 0.05346 0.14049 0.14711 -0.11919 0.10718 0.14131 0.075333 0.078409 -0.053382 -0.01227 0.035942 -0.11721 -0.10017 -0.035275 0.080199 0.080679 0.023664 0.072295 0.082816 0.019393 -0.14228 -0.14714 -0.075846 -0.15194 -0.094774 -0.045766 0.070436 -0.028891 0.027652 0.18394 0.11356 -0.061238 -0.0068879 -0.11634 -0.11259 0.23726 0.061629 0.17883 -0.047084 0.016965 0.10978 -0.04898 -0.16051 -0.052877 -0.059469 0.075501 0.0895 0.053316 -0.19544 -0.082191 0.086115 0.038099 -0.19682 -0.045555 -0.1435 -0.056872 -0.16247 -0.10475 -0.041376 0.065233 0.040062 0.12598 0.081727 0.0038764 -0.047523 -0.092294 -0.14549 -0.060363 -0.052148 -0.10185 0.14439 -0.057522 -0.11716 0.0037556 -0.31812 -0.0053328 -0.0095222 -0.10582 -0.066584 -0.087889 -0.021927 0.079907 0.22196 0.040377 -0.11194 -0.071782 -0.10213 -0.017175 -0.059477 
10:59:31] 0.051228 -0.046192 0.0527 0.034189 -0.038615 -0.0071993 0.00098097 0.014643 0.013213 0.0087542 0.057205 0.028238 0.073894 0.077871 -0.062747 0.055191 0.073783 0.039243 0.040949 -0.029143 -0.0058995 0.019386 -0.061177 -0.052357 -0.019215 0.04242 0.042532 0.013233 0.038273 0.043182 0.0097592 -0.074823 -0.078241 -0.039333 -0.079979 -0.049388 -0.024427 0.037127 -0.015914 0.01462 0.096736 0.059238 -0.032001 -0.0030888 -0.061276 -0.059428 0.12511 0.032203 0.093674 -0.023551 0.0082163 0.057761 -0.025632 -0.083523 -0.02833 -0.030621 0.039215 0.047212 0.027477 -0.10211 -0.043265 0.04583 0.020547 -0.10344 -0.024031 -0.075628 -0.029506 -0.084966 -0.054479 -0.021743 0.034091 0.020675 0.067085 0.042575 0.0023644 -0.025359 -0.047991 -0.076495 -0.031396 -0.027044 -0.053043 0.075088 -0.03012 -0.060887 0.0018315 -0.16698 -0.0030954 -0.0054299 -0.055893 -0.03583 -0.046693 -0.011732 0.041578 0.11674 0.021758 -0.059165 -0.037759 -0.053165 -0.0095334 -0.031386 
10 0.10227 -0.091045 0.10445 0.066136 -0.072195 -0.010453 0.0009457 0.026861 0.022422 0.01558 0.11232 0.058128 0.13878 0.14758 -0.11988 0.10414 0.14563 0.077181 0.079463 -0.057865 -0.012012 0.039 -0.11993 -0.10106 -0.03891 0.081222 0.084399 0.024072 0.077933 0.089089 0.017999 -0.14463 -0.14746 -0.076786 -0.15227 -0.092932 -0.043664 0.074079 -0.026711 0.026295 0.18716 0.11781 -0.059393 -0.00456 -0.11838 -0.11636 0.23955 0.060692 0.18282 -0.050867 0.021337 0.11057 -0.050901 -0.16151 -0.054212 -0.061479 0.075891 0.09275 0.056643 -0.20114 -0.082475 0.086808 0.038937 -0.19771 -0.044894 -0.15185 -0.054158 -0.1674 -0.11053 -0.039473 0.068017 0.039978 0.12907 0.084732 0.0040915 -0.050847 -0.097277 -0.14845 -0.062679 -0.0531 -0.10288 0.14904 -0.063063 -0.11556 0.003806 -0.32472 -0.0036611 -0.006486 -0.10626 -0.069116 -0.094031 -0.02299 0.083815 0.22818 0.041598 -0.11902 -0.075446 -0.10402 -0.017998 -0.062135 
mod=ip 0.045569 -0.041861 0.047813 0.030544 -0.0346 -0.0069567 0.0013816 0.012874 0.011171 0.0083711 0.050369 0.025869 0.065497 0.069304 -0.057259 0.049868 0.066231 0.034245 0.037176 -0.025683 -0.0060602 0.015736 -0.055891 -0.047181 -0.01683 0.038391 0.038593 0.010917 0.034453 0.038935 0.0091422 -0.066713 -0.069825 -0.036332 -0.071493 -0.044127 -0.020976 0.032869 -0.013367 0.013912 0.087429 0.052786 -0.028795 -0.0034299 -0.054996 -0.053432 0.11178 0.028342 0.084204 -0.020979 0.0068547 0.052628 -0.022899 -0.076523 -0.024918 -0.028701 0.035469 0.04146 0.02612 -0.09324 -0.038869 0.041606 0.017699 -0.093411 -0.020754 -0.067359 -0.026925 -0.075859 -0.049056 -0.018283 0.030158 0.017758 0.059471 0.038264 0.0017494 -0.023054 -0.043205 -0.068795 -0.029508 -0.022612 -0.049098 0.069087 -0.027255 -0.055487 0.0031211 -0.1501 -0.003753 -0.0051273 -0.050762 -0.031417 -0.042385 -0.01052 0.037984 0.10526 0.019053 -0.052173 -0.033849 -0.048958 -0.0082596 -0.027884 
11:49:35] 0.1379 -0.124 0.14237 0.091648 -0.1027 -0.020434 0.0016307 0.03808 0.036429 0.022752 0.15258 0.075101 0.19778 0.2084 -0.16922 0.15007 0.1984 0.10567 0.10992 -0.076161 -0.016794 0.050207 -0.16567 -0.14009 -0.049736 0.11304 0.11461 0.032801 0.10273 0.11527 0.026652 -0.20059 -0.20843 -0.10664 -0.21544 -0.13318 -0.066023 0.099303 -0.040934 0.039797 0.25878 0.15994 -0.085141 -0.010078 -0.16387 -0.15888 0.33517 0.086646 0.25134 -0.065703 0.024117 0.15527 -0.06844 -0.226 -0.075099 -0.083237 0.10632 0.12607 0.074662 -0.27514 -0.11692 0.12272 0.054048 -0.27774 -0.065304 -0.20373 -0.080223 -0.22969 -0.14731 -0.057498 0.091295 0.055118 0.17909 0.11445 0.0063594 -0.069142 -0.13137 -0.20584 -0.084057 -0.07239 -0.14248 0.20344 -0.081421 -0.16379 0.005202 -0.4476 -0.0078936 -0.014486 -0.14919 -0.095829 -0.12386 -0.031905 0.11303 0.31388 0.057385 -0.15758 -0.10158 -0.14363 -0.024 -0.085149 
ttl|raw_hits=0,1,1,1 0.067359 -0.060202 0.069637 0.044742 -0.049911 -0.010686 0.0010568 0.018039 0.017021 0.010895 0.074678 0.036363 0.09705 0.10176 -0.082664 0.073195 0.097653 0.051478 0.054113 -0.037089 -0.0081564 0.024944 -0.080571 -0.06773 -0.023818 0.055518 0.055778 0.016017 0.049831 0.057139 0.013267 -0.098137 -0.10212 -0.051331 -0.10484 -0.065039 -0.032574 0.047814 -0.020334 0.019451 0.12666 0.0778 -0.041353 -0.0047549 -0.080249 -0.077685 0.16381 0.042472 0.1227 -0.032215 0.011425 0.075902 -0.033772 -0.11004 -0.036886 -0.041406 0.051714 0.061923 0.037157 -0.1338 -0.056416 0.059908 0.026046 -0.13575 -0.031294 -0.099568 -0.039328 -0.11178 -0.072271 -0.028377 0.044466 0.02651 0.08801 0.056312 0.0036238 -0.033691 -0.063567 -0.099763 -0.040978 -0.035488 -0.069334 0.099365 -0.03963 -0.079891 0.0029048 -0.21844 -0.0031644 -0.0062046 -0.072976 -0.046596 -0.060643 -0.015776 0.055165 0.15359 0.028253 -0.076792 -0.049946 -0.069934 -0.011863 -0.041409 
38 0.048357 -0.043149 0.050196 0.032099 -0.036066 -0.0071097 0.00051507 0.012878 0.012298 0.0076823 0.053248 0.026186 0.069032 0.072743 -0.059123 0.052451 0.069369 0.036944 0.038578 -0.026634 -0.0060537 0.017939 -0.057853 -0.048781 -0.017048 0.03975 0.040117 0.011564 0.035927 0.040816 0.0092874 -0.069912 -0.072853 -0.037101 -0.074815 -0.046667 -0.022871 0.034291 -0.014475 0.013557 0.090515 0.055808 -0.029822 -0.0034157 -0.057045 -0.055657 0.11709 0.030079 0.087722 -0.023109 0.0082896 0.054388 -0.024169 -0.07912 -0.026209 -0.029483 0.036966 0.044174 0.026466 -0.096016 -0.040557 0.042999 0.018861 -0.097191 -0.02237 -0.071169 -0.028096 -0.08022 -0.05178 -0.020086 0.031995 0.01889 0.062619 0.040107 0.0020387 -0.02425 -0.045617 -0.071648 -0.029494 -0.025229 -0.049795 0.071297 -0.02817 -0.057159 0.0020857 -0.15649 -0.002746 -0.0049419 -0.052457 -0.033672 -0.043507 -0.011295 0.039562 0.10964 0.020095 -0.055132 -0.035909 -0.050221 -0.0084871 -0.029454 
59 0.065156 -0.058866 0.065003 0.040666 -0.046383 -0.010684 0.0024567 0.017876 0.017344 0.0092638 0.07028 0.035664 0.089464 0.09842 -0.080013 0.068614 0.092823 0.045866 0.049798 -0.035215 -0.0079124 0.021809 -0.073969 -0.061363 -0.022809 0.049664 0.050382 0.012359 0.045551 0.054655 0.013858 -0.089805 -0.098012 -0.047794 -0.095082 -0.06046 -0.033361 0.043837 -0.019971 0.017368 0.11921 0.074979 -0.037536 -0.0027401 -0.075453 -0.07178 0.15605 0.042271 0.11421 -0.027866 0.0083521 0.07013 -0.033238 -0.10583 -0.035204 -0.038925 0.048369 0.059198 0.037248 -0.12468 -0.055123 0.057068 0.024855 -0.12729 -0.030409 -0.094414 -0.036202 -0.10621 -0.069651 -0.028948 0.040983 0.025486 0.081551 0.05301 0.0033538 -0.032249 -0.057002 -0.094068 -0.039436 -0.033604 -0.063895 0.092635 -0.034765 -0.075364 0.0051281 -0.20578 -0.00074911 -0.0037199 -0.07132 -0.040681 -0.057288 -0.016517 0.048906 0.14215 0.024345 -0.071192 -0.046055 -0.064726 -0.011357 -0.03637 
11:14:02] 0.11304 -0.10179 0.11644 0.074822 -0.08359 -0.016675 0.0010609 0.031272 0.029569 0.018128 0.12472 0.061258 0.16172 0.17038 -0.13845 0.12177 0.16197 0.08715 0.089756 -0.061873 -0.013229 0.041288 -0.13512 -0.11449 -0.040901 0.092427 0.094222 0.026587 0.08437 0.095169 0.021885 -0.16422 -0.1701 -0.087397 -0.17572 -0.10872 -0.053391 0.081123 -0.033675 0.031673 0.21248 0.13131 -0.069919 -0.0080911 -0.13378 -0.12946 0.27429 0.071068 0.20597 -0.054216 0.019468 0.12686 -0.055479 -0.18403 -0.06175 -0.06863 0.086362 0.10311 0.060418 -0.22521 -0.094738 0.10006 0.043843 -0.22648 -0.052336 -0.16617 -0.064995 -0.18708 -0.12042 -0.047155 0.07416 0.044886 0.14646 0.094094 0.0050328 -0.055865 -0.10598 -0.16829 -0.069139 -0.059214 -0.11638 0.16672 -0.06642 -0.13447 0.0050837 -0.36592 -0.0057123 -0.011418 -0.12263 -0.077608 -0.10128 -0.026034 0.092084 0.2564 0.047078 -0.12896 -0.083541 -0.11719 -0.01934 -0.069091 
