264 100
[2023/03/23 0.23273 0.1613 0.22943 -0.18992 0.1822 0.12518 -0.13197 -0.064535 -0.053368 -0.087595 -0.19632 -0.18859 -0.066638 0.036978 -0.17778 -0.16317 0.15026 0.20108 -0.1173 -0.064473 -0.065356 0.068244 0.069406 0.091134 -0.28601 -0.094356 -0.14657 0.12619 0.012725 -0.11332 -0.045524 -0.10259 0.077795 -0.091193 -0.1302 -0.0084266 -0.15769 0.053745 -0.02216 -0.12738 -0.24175 0.27265 -0.0078649 0.078721 0.26043 -0.026348 0.25375 0.12154 -0.14371 0.067947 -0.11239 -0.019672 0.046004 0.16562 -0.065397 0.051226 -0.27232 0.10165 0.094419 0.0064023 0.055342 0.17525 0.20193 0.17689 0.0012727 0.0061448 -0.21149 -0.094661 -0.10861 -0.12284 0.081033 0.17349 0.22409 -0.037406 -0.074504 -0.0021763 -0.0012253 0.01806 0.22576 0.10745 0.089421 -0.18488 -0.020522 0.082516 0.29781 0.055437 0.14791 -0.28859 -0.15811 0.19833 0.10328 0.085471 0.24364 0.0045384 0.16546 0.1184 -0.016421 -0.012758 -0.07026 -0.17528 
</s> 0.26681 0.18799 0.26914 -0.22473 0.21508 0.15048 -0.15608 -0.071017 -0.065478 -0.10079 -0.22381 -0.22114 -0.080178 0.044383 -0.20831 -0.19264 0.17389 0.23538 -0.13959 -0.07426 -0.078177 0.087447 0.083397 0.10998 -0.33343 -0.11348 -0.17679 0.14156 0.012973 -0.13781 -0.057236 -0.11688 0.092829 -0.10949 -0.15468 -0.010978 -0.18628 0.065914 -0.025448 -0.14706 -0.28611 0.31826 -0.015136 0.092494 0.30646 -0.028268 0.29616 0.13428 -0.16632 0.080745 -0.12775 -0.023932 0.056088 0.1923 -0.083991 0.062017 -0.3192 0.11626 0.11547 0.0053265 0.062902 0.20349 0.2354 0.20926 0.0066115 0.0028163 -0.24695 -0.11426 -0.12971 -0.14691 0.094081 0.20203 0.2594 -0.049588 -0.087656 -0.0041177 -0.0046714 0.023006 0.26272 0.12806 0.10205 -0.21682 -0.020699 0.096103 0.34251 0.067443 0.16549 -0.33813 -0.18392 0.23276 0.12005 0.099225 0.27952 0.0072564 0.19702 0.13766 -0.01871 -0.013239 -0.086222 -0.20565 
or 0.19266 0.1281 0.1864 -0.15393 0.14628 0.099393 -0.1077 -0.054655 -0.040787 -0.067031 -0.16061 -0.15245 -0.052701 0.02853 -0.14657 -0.12855 0.12415 0.16435 -0.094624 -0.052823 -0.048838 0.05489 0.055474 0.074047 -0.23277 -0.078297 -0.11549 0.10137 0.0098388 -0.090298 -0.035916 -0.08094 0.05976 -0.071264 -0.10698 -0.0064697 -0.13064 0.046769 -0.014743 -0.102 -0.19931 0.2224 -0.0032119 0.062923 0.21172 -0.02138 0.20528 0.098256 -0.11696 0.055242 -0.092522 -0.016062 0.040496 0.13353 -0.052979 0.041255 -0.22104 0.082462 0.072932 0.0052807 0.04687 0.14533 0.16755 0.14294 -0.0018961 0.0059832 -0.16976 -0.077959 -0.088769 -0.10172 0.068868 0.14126 0.18244 -0.030303 -0.062823 -0.00039999 0.0036235 0.013813 0.18572 0.082992 0.076962 -0.15035 -0.020528 0.067919 0.23882 0.045035 0.11949 -0.23163 -0.12766 0.1601 0.082854 0.069693 0.20156 0.0036995 0.13224 0.095441 -0.013732 -0.0090929 -0.054997 -0.13707 
modem|raw_mtu=1500 0.25316 0.1759 0.24979 -0.20484 0.19916 0.13586 -0.14257 -0.069934 -0.058735 -0.094577 -0.21446 -0.20618 -0.071451 0.038815 -0.19322 -0.17648 0.16297 0.21962 -0.12638 -0.070736 -0.070074 0.072624 0.075632 0.098273 -0.31063 -0.10102 -0.15909 0.13757 0.013945 -0.12367 -0.049372 -0.11104 0.084586 -0.099168 -0.14122 -0.0082903 -0.17036 0.058138 -0.023722 -0.13787 -0.26322 0.29599 -0.0097045 0.085245 0.28497 -0.028572 0.2765 0.13189 -0.15618 0.073694 -0.12223 -0.021399 0.051411 0.17902 -0.070523 0.055246 -0.29676 0.11156 0.10093 0.0084126 0.061753 0.19101 0.21963 0.19212 0.0015111 0.0066655 -0.22886 -0.10354 -0.11806 -0.13451 0.088204 0.18969 0.24403 -0.039128 -0.081732 -0.0010758 -0.00051265 0.018403 0.24512 0.1172 0.097353 -0.20119 -0.023659 0.089861 0.32381 0.060714 0.16225 -0.31527 -0.17161 0.21578 0.11198 0.093046 0.26481 0.0054913 0.17907 0.13092 -0.017398 -0.015942 -0.075139 -0.19006 
OS 0.15198 0.1067 0.14963 -0.12099 0.12093 0.080487 -0.08481 -0.044346 -0.034144 -0.056905 -0.12751 -0.12598 -0.042308 0.021383 -0.11197 -0.10484 0.0984 0.13062 -0.076145 -0.040336 -0.043017 0.039966 0.043221 0.056498 -0.18264 -0.061518 -0.091738 0.084013 0.010067 -0.069359 -0.028905 -0.0687 0.046666 -0.060539 -0.084045 -0.0040546 -0.10237 0.038197 -0.011442 -0.084312 -0.154 0.17691 -0.0054805 0.054172 0.16896 -0.015628 0.1632 0.080954 -0.096817 0.039495 -0.072153 -0.012516 0.032745 0.10655 -0.038971 0.036467 -0.1754 0.067188 0.05536 0.0070034 0.034932 0.11343 0.1274 0.11522 0.0039725 0.0048913 -0.14142 -0.06423 -0.072898 -0.078746 0.054336 0.10964 0.14011 -0.021944 -0.051051 0.00053789 -0.0020718 0.010128 0.1427 0.067403 0.055191 -0.12039 -0.014105 0.054862 0.19444 0.033577 0.10069 -0.18837 -0.10081 0.12982 0.069422 0.055408 0.16227 0.0031556 0.10286 0.082313 -0.013336 -0.0072087 -0.046217 -0.11504 
X|dist=0|params=generic 0.16495 0.11444 0.16331 -0.13417 0.13009 0.088201 -0.093489 -0.045302 -0.039259 -0.060834 -0.13968 -0.13381 -0.046773 0.026351 -0.1252 -0.11512 0.10633 0.14188 -0.082581 -0.046124 -0.046235 0.048424 0.04963 0.063555 -0.20221 -0.066803 -0.1037 0.088821 0.0094037 -0.080363 -0.032129 -0.072576 0.054792 -0.064736 -0.092515 -0.0047367 -0.11182 0.037918 -0.015411 -0.090043 -0.17266 0.19177 -0.0059385 0.055332 0.18566 -0.018659 0.1797 0.086222 -0.101 0.047343 -0.079172 -0.013698 0.032526 0.11609 -0.046243 0.035669 -0.19294 0.072567 0.065441 0.0050352 0.039622 0.12522 0.14261 0.1252 0.0011837 0.0042232 -0.15013 -0.068711 -0.076689 -0.087124 0.058006 0.12321 0.15796 -0.025946 -0.053707 -0.0010046 -0.00042933 0.011855 0.15954 0.076447 0.063161 -0.13146 -0.015062 0.058843 0.21134 0.040033 0.10569 -0.20414 -0.11152 0.14011 0.07326 0.060176 0.17284 0.0034316 0.11718 0.085115 -0.012279 -0.010031 -0.049393 -0.1237 
fuzzy|raw_sig=4:64+0:0:1460:65535,6:mss,nop,ws,nop,nop,ts,sok,eol+1:df,ecn:0 0.20223 0.14051 0.20078 -0.16545 0.16019 0.10988 -0.11475 -0.055625 -0.047527 -0.075848 -0.17073 -0.1646 -0.057402 0.032485 -0.15471 -0.14198 0.13053 0.17511 -0.1023 -0.056308 -0.056431 0.060397 0.060966 0.078297 -0.24843 -0.082375 -0.12796 0.10945 0.011481 -0.099779 -0.039981 -0.088905 0.067881 -0.080035 -0.11347 -0.0069633 -0.13748 0.047168 -0.019131 -0.11079 -0.21161 0.23673 -0.0082602 0.068023 0.22789 -0.022677 0.22069 0.1047 -0.12427 0.058586 -0.096125 -0.017175 0.041105 0.14319 -0.057519 0.045005 -0.23724 0.088555 0.081687 0.0058188 0.048455 0.15292 0.17574 0.15463 0.0023649 0.0047232 -0.18411 -0.084512 -0.095275 -0.10818 0.071022 0.15149 0.19341 -0.032712 -0.065553 -0.0011985 -0.0014155 0.015248 0.19612 0.09427 0.077415 -0.16178 -0.01753 0.071999 0.25866 0.049082 0.12847 -0.25136 -0.1372 0.17309 0.089702 0.074559 0.21177 0.0040641 0.14389 0.10394 -0.014224 -0.012081 -0.061536 -0.15243 
SIT|raw_mtu=1480 0.19376 0.13383 0.1904 -0.15632 0.15211 0.10298 -0.10897 -0.052845 -0.044743 -0.072593 -0.16381 -0.1573 -0.054275 0.030317 -0.14702 -0.13564 0.12418 0.1681 -0.096698 -0.054233 -0.053993 0.054266 0.057297 0.074701 -0.23755 -0.07759 -0.12125 0.10445 0.010642 -0.094092 -0.038236 -0.085019 0.064581 -0.07606 -0.10734 -0.0063788 -0.12966 0.044103 -0.017902 -0.10584 -0.20137 0.22671 -0.0075684 0.06492 0.21788 -0.021667 0.21159 0.10174 -0.11943 0.056531 -0.093489 -0.016469 0.039569 0.13699 -0.053396 0.042629 -0.22641 0.085772 0.077438 0.0065812 0.047393 0.14606 0.1674 0.14698 0.0013431 0.0048736 -0.17498 -0.079317 -0.089448 -0.10292 0.067879 0.14445 0.18603 -0.029735 -0.062376 -0.00078403 -0.00017954 0.013598 0.18724 0.089598 0.07387 -0.15321 -0.018094 0.068384 0.24658 0.046519 0.12428 -0.24035 -0.13108 0.16483 0.085913 0.070235 0.20243 0.0041126 0.13703 0.099736 -0.013323 -0.012274 -0.056889 -0.14533 
days 0.44676 0.308 0.43884 -0.36416 0.35075 0.23764 -0.25218 -0.12 -0.10685 -0.16587 -0.37729 -0.36226 -0.1257 0.071179 -0.33961 -0.31241 0.28775 0.38589 -0.22125 -0.12496 -0.1234 0.12576 0.1337 0.17206 -0.54642 -0.17957 -0.27788 0.24238 0.026874 -0.21967 -0.087497 -0.19636 0.1498 -0.17394 -0.24831 -0.012814 -0.29929 0.10238 -0.042735 -0.24232 -0.46367 0.51746 -0.013718 0.14924 0.50296 -0.05365 0.4848 0.23498 -0.27254 0.13151 -0.21531 -0.036698 0.088586 0.31594 -0.12331 0.098104 -0.52427 0.19423 0.17914 0.014986 0.10629 0.3383 0.38481 0.3393 0.0030472 0.0097817 -0.40084 -0.18203 -0.20786 -0.23807 0.15605 0.33285 0.42708 -0.067067 -0.1407 0.00013177 -0.0016284 0.033413 0.4302 0.20768 0.17028 -0.35487 -0.041506 0.15531 0.56998 0.10829 0.28577 -0.55147 -0.3004 0.37974 0.19686 0.16231 0.46695 0.0093528 0.3157 0.22922 -0.02873 -0.027453 -0.12992 -0.33433 
hrs 0.35425 0.24559 0.34998 -0.28788 0.27757 0.19121 -0.1981 -0.096673 -0.081443 -0.13288 -0.30036 -0.28789 -0.098303 0.052643 -0.27332 -0.24823 0.22678 0.30599 -0.17464 -0.1019 -0.10017 0.10185 0.1075 0.13824 -0.43686 -0.14249 -0.22295 0.19392 0.023792 -0.17652 -0.06701 -0.15942 0.12153 -0.14078 -0.19847 -0.010223 -0.23933 0.082652 -0.035674 -0.19275 -0.36835 0.41519 -0.01009 0.11938 0.4027 -0.041684 0.38737 0.18653 -0.21517 0.10417 -0.17173 -0.030396 0.070893 0.25076 -0.097832 0.077686 -0.41413 0.15634 0.14273 0.012676 0.087149 0.26959 0.30615 0.27067 0.0012606 0.0061655 -0.32095 -0.14388 -0.16411 -0.19101 0.12583 0.26495 0.34181 -0.056393 -0.11346 -0.0012881 -0.0016476 0.024872 0.34505 0.16385 0.13941 -0.28522 -0.031432 0.12316 0.45478 0.086356 0.22589 -0.44008 -0.24211 0.30114 0.15738 0.13067 0.37259 0.0065518 0.25059 0.18173 -0.025873 -0.021773 -0.10675 -0.26489 
min 0.32046 0.22004 0.30962 -0.25763 0.2501 0.16979 -0.17889 -0.089734 -0.075013 -0.11999 -0.27015 -0.26012 -0.086614 0.05086 -0.24163 -0.2238 0.20284 0.27569 -0.15514 -0.089669 -0.086273 0.089623 0.096688 0.1215 -0.39179 -0.12901 -0.20264 0.17302 0.020453 -0.15577 -0.062466 -0.14202 0.10567 -0.12374 -0.17675 -0.014157 -0.21543 0.071051 -0.03091 -0.17536 -0.33104 0.37121 -0.010575 0.10574 0.35949 -0.037329 0.34443 0.17031 -0.19567 0.092041 -0.15437 -0.026643 0.066305 0.22551 -0.08931 0.06695 -0.36971 0.13963 0.12807 0.0088393 0.07665 0.24164 0.276 0.2422 -0.0010631 0.010383 -0.28824 -0.13211 -0.14773 -0.16709 0.11062 0.23687 0.30647 -0.047828 -0.10179 -0.0019165 0.0006328 0.023143 0.30832 0.14724 0.12278 -0.25426 -0.027669 0.11104 0.40911 0.079302 0.20307 -0.39511 -0.21523 0.27225 0.13988 0.11782 0.33479 0.0068534 0.22212 0.15932 -0.022852 -0.022403 -0.09392 -0.2377 
(modulo 0.35166 0.24232 0.34182 -0.28522 0.273 0.18866 -0.19758 -0.095838 -0.083792 -0.12966 -0.29609 -0.28405 -0.097946 0.054511 -0.26546 -0.24387 0.22607 0.30263 -0.17432 -0.09959 -0.096358 0.10004 0.10386 0.13614 -0.42824 -0.14054 -0.22059 0.19014 0.020547 -0.17232 -0.068022 -0.15496 0.11792 -0.1373 -0.19436 -0.0099492 -0.23578 0.081957 -0.035486 -0.19125 -0.36389 0.40722 -0.0089767 0.11732 0.39333 -0.041302 0.37994 0.18403 -0.21415 0.10067 -0.1678 -0.02808 0.069888 0.24644 -0.097162 0.075984 -0.41007 0.15348 0.13864 0.01154 0.084172 0.26455 0.30281 0.26534 0.0033514 0.0072366 -0.31514 -0.1431 -0.16298 -0.18534 0.12131 0.26233 0.33702 -0.052907 -0.1131 -0.00041948 -0.00043629 0.02455 0.33892 0.16006 0.13626 -0.27857 -0.031446 0.12458 0.44816 0.083764 0.22485 -0.43423 -0.23617 0.29672 0.15447 0.12894 0.36647 0.0068105 0.24739 0.18125 -0.025152 -0.021924 -0.10244 -0.26186 
Hz 0.30647 0.20854 0.29788 -0.2498 0.24148 0.16653 -0.16963 -0.082236 -0.070379 -0.1164 -0.25561 -0.24182 -0.079663 0.048274 -0.23195 -0.21413 0.19587 0.26122 -0.14756 -0.089831 -0.084963 0.084576 0.093739 0.11505 -0.37127 -0.12294 -0.19005 0.16936 0.019629 -0.15361 -0.058655 -0.13443 0.10612 -0.11909 -0.17274 -0.0047343 -0.20053 0.064103 -0.032856 -0.16818 -0.3153 0.34693 -0.0091559 0.10153 0.34235 -0.040608 0.3331 0.16373 -0.182 0.089364 -0.14432 -0.025524 0.058756 0.21108 -0.085176 0.061405 -0.36095 0.13289 0.11706 0.0065451 0.070532 0.22864 0.2645 0.22921 0.0010791 0.0072688 -0.27628 -0.1254 -0.13842 -0.16154 0.10772 0.22873 0.29141 -0.051307 -0.097486 -0.0011636 -0.00022662 0.020562 0.29685 0.14351 0.11575 -0.2445 -0.025839 0.10698 0.39221 0.072045 0.196 -0.37959 -0.20712 0.25659 0.138 0.1095 0.31729 0.0024724 0.21114 0.15473 -0.018305 -0.020749 -0.086958 -0.22705 
49 0.29983 0.20576 0.29496 -0.24101 0.23319 0.1619 -0.1676 -0.083207 -0.068061 -0.11062 -0.25213 -0.24074 -0.086501 0.04829 -0.22859 -0.20722 0.19386 0.26062 -0.1512 -0.085359 -0.083501 0.084173 0.088903 0.11562 -0.3653 -0.11928 -0.18536 0.16392 0.019946 -0.14661 -0.056716 -0.13188 0.099747 -0.11794 -0.1645 -0.0071579 -0.20315 0.066155 -0.027962 -0.16391 -0.30852 0.34797 -0.0098307 0.10132 0.33772 -0.036684 0.32288 0.15764 -0.18183 0.08588 -0.14364 -0.022803 0.057732 0.21178 -0.08564 0.064228 -0.35193 0.13242 0.11618 0.010753 0.069344 0.2251 0.25953 0.22934 0.0009053 0.0057947 -0.27118 -0.12198 -0.13767 -0.15993 0.10189 0.22486 0.28785 -0.046179 -0.097269 -0.0026412 0.002114 0.019565 0.28713 0.13755 0.11695 -0.23724 -0.029335 0.10729 0.382 0.073979 0.19304 -0.37268 -0.20298 0.2552 0.13056 0.1108 0.3142 0.0039189 0.21099 0.15371 -0.02069 -0.019291 -0.085583 -0.22432 
days)|raw_freq=1000.00 0.3213 0.22203 0.31587 -0.26095 0.25153 0.17211 -0.18205 -0.08758 -0.075676 -0.11974 -0.27149 -0.26037 -0.090639 0.050373 -0.24478 -0.22435 0.20734 0.27731 -0.16036 -0.09048 -0.08951 0.092428 0.097132 0.12418 -0.39375 -0.12961 -0.20176 0.17435 0.019707 -0.15776 -0.062929 -0.14181 0.10838 -0.1259 -0.17893 -0.0097744 -0.21574 0.074245 -0.031057 -0.17518 -0.33396 0.37376 -0.010724 0.10731 0.36115 -0.037951 0.34937 0.16891 -0.19647 0.093688 -0.15431 -0.026722 0.064024 0.22659 -0.08957 0.070592 -0.37684 0.14063 0.12799 0.010705 0.076547 0.24321 0.27793 0.24461 0.0021411 0.0070217 -0.28994 -0.13127 -0.1501 -0.1711 0.11137 0.2401 0.30744 -0.049834 -0.103 -0.00032466 0.00013868 0.023998 0.31041 0.14839 0.12404 -0.25639 -0.029522 0.11362 0.41093 0.077621 0.20571 -0.39888 -0.21724 0.27236 0.14229 0.1173 0.336 0.0064602 0.22771 0.1647 -0.021783 -0.019639 -0.094765 -0.24084 
11:49:44] 0.26844 0.18722 0.26468 -0.21814 0.21266 0.144 -0.15089 -0.073979 -0.06464 -0.098883 -0.22717 -0.21907 -0.075781 0.042055 -0.20453 -0.18788 0.17342 0.23328 -0.13484 -0.076773 -0.07526 0.077885 0.079999 0.1042 -0.32898 -0.10834 -0.16883 0.1467 0.016337 -0.13197 -0.053305 -0.1184 0.091562 -0.10619 -0.15069 -0.0098585 -0.18119 0.0619 -0.026094 -0.14746 -0.27878 0.31414 -0.0103 0.091718 0.30379 -0.030387 0.2942 0.14045 -0.16514 0.078758 -0.12935 -0.021945 0.053703 0.19015 -0.075114 0.059738 -0.31688 0.11794 0.10768 0.008166 0.066293 0.20226 0.23288 0.20538 0.0022201 0.0067328 -0.24236 -0.11041 -0.12575 -0.14312 0.093695 0.20174 0.25807 -0.043317 -0.086797 -0.00096113 -0.0010406 0.019003 0.26079 0.12474 0.10295 -0.21472 -0.023611 0.095053 0.34458 0.063596 0.17179 -0.33493 -0.18208 0.2297 0.1191 0.098985 0.28183 0.0044446 0.19149 0.13978 -0.0195 -0.016504 -0.079775 -0.20236 
11:47:26] 0.24754 0.17112 0.24274 -0.20081 0.19415 0.13267 -0.13998 -0.067746 -0.058271 -0.092161 -0.20847 -0.19988 -0.070854 0.038822 -0.18683 -0.17305 0.15972 0.21381 -0.12341 -0.069391 -0.068069 0.071331 0.073699 0.09573 -0.30152 -0.099695 -0.15403 0.13324 0.013847 -0.12057 -0.047909 -0.10919 0.082269 -0.097568 -0.1394 -0.007992 -0.1653 0.057659 -0.023022 -0.13536 -0.25674 0.28785 -0.0077884 0.083632 0.27789 -0.028001 0.26884 0.13032 -0.1515 0.071561 -0.11822 -0.019797 0.04923 0.17385 -0.069063 0.05372 -0.28972 0.10751 0.098054 0.0077159 0.059623 0.18647 0.21341 0.18767 0.0021673 0.0059746 -0.22208 -0.10136 -0.1142 -0.13095 0.085699 0.18538 0.23791 -0.037689 -0.079419 -0.0017211 -0.00098461 0.016538 0.2392 0.11497 0.094646 -0.19672 -0.021962 0.087697 0.31626 0.060343 0.15795 -0.30572 -0.16645 0.20987 0.10912 0.09034 0.25894 0.0061644 0.17478 0.1265 -0.017444 -0.014726 -0.073168 -0.18581 
11:23:10] 0.23151 0.16048 0.22823 -0.18847 0.1828 0.12389 -0.13171 -0.062677 -0.053963 -0.086451 -0.19639 -0.18855 -0.066482 0.036506 -0.17793 -0.16245 0.14897 0.20022 -0.11587 -0.065871 -0.065153 0.065784 0.069159 0.090142 -0.28655 -0.094009 -0.14526 0.12692 0.013405 -0.11513 -0.046261 -0.10341 0.078061 -0.091321 -0.13098 -0.007033 -0.1555 0.053868 -0.023167 -0.12713 -0.24069 0.2708 -0.0082197 0.077487 0.26244 -0.027466 0.25356 0.12067 -0.14374 0.068877 -0.1112 -0.019831 0.04737 0.16438 -0.06413 0.051443 -0.27341 0.10216 0.093478 0.007758 0.055288 0.17706 0.20121 0.17737 0.001947 0.0054646 -0.21085 -0.095217 -0.10873 -0.1239 0.080242 0.17383 0.22273 -0.036398 -0.075155 -0.0010697 -0.00035186 0.01725 0.22592 0.10853 0.089958 -0.18684 -0.021912 0.08183 0.29747 0.055454 0.1497 -0.28745 -0.15658 0.19798 0.10316 0.084998 0.24395 0.0051575 0.16546 0.1203 -0.015776 -0.015046 -0.069766 -0.17515 
10:51:11] 0.13408 0.093116 0.13197 -0.10868 0.10436 0.070553 -0.076022 -0.036763 -0.031962 -0.048882 -0.11304 -0.10879 -0.037854 0.020577 -0.10173 -0.094222 0.085438 0.11501 -0.067061 -0.037175 -0.037435 0.039151 0.039496 0.051604 -0.1637 -0.054338 -0.083515 0.072372 0.0079186 -0.066137 -0.026636 -0.059464 0.044526 -0.052811 -0.075048 -0.0042299 -0.090096 0.031142 -0.012873 -0.072948 -0.13868 0.15546 -0.0047107 0.044638 0.15082 -0.015683 0.14484 0.071152 -0.082771 0.03784 -0.064793 -0.010652 0.026861 0.094997 -0.037298 0.029544 -0.15726 0.058798 0.054454 0.0051097 0.033433 0.10046 0.11571 0.10179 0.00036612 0.0028758 -0.12148 -0.05507 -0.06213 -0.071368 0.047113 0.10059 0.12887 -0.021029 -0.042887 -0.0014429 -0.00072196 0.0094349 0.13056 0.061887 0.050786 -0.10665 -0.011957 0.047535 0.17136 0.032863 0.085393 -0.16475 -0.090281 0.11361 0.058676 0.049371 0.14037 0.0021242 0.094487 0.067762 -0.0089831 -0.008341 -0.040245 -0.10013 
11:18:33] 0.23367 0.16233 0.23096 -0.18971 0.1848 0.1255 -0.1321 -0.064408 -0.054274 -0.086707 -0.19817 -0.19004 -0.06631 0.036924 -0.17728 -0.16397 0.14937 0.20146 -0.11706 -0.066071 -0.065172 0.06777 0.070901 0.090362 -0.28611 -0.094314 -0.14709 0.12699 0.013657 -0.11347 -0.046504 -0.10328 0.078543 -0.091015 -0.12988 -0.0072256 -0.15783 0.054355 -0.022616 -0.1272 -0.24309 0.27232 -0.0080197 0.078515 0.26328 -0.026543 0.25551 0.12104 -0.14348 0.068102 -0.11192 -0.01886 0.047068 0.16542 -0.065745 0.051166 -0.27357 0.10233 0.093225 0.0068323 0.056094 0.17644 0.20179 0.17784 0.0021388 0.0050606 -0.2105 -0.09597 -0.10859 -0.12479 0.081277 0.17497 0.22367 -0.036377 -0.074715 -0.00088075 -0.00096172 0.016993 0.22596 0.10809 0.090235 -0.18574 -0.021278 0.08261 0.29893 0.056444 0.14957 -0.28981 -0.15689 0.19845 0.10385 0.085848 0.24458 0.0040067 0.16594 0.12072 -0.01612 -0.013556 -0.069991 -0.17578 
mod=host 0.18335 0.12695 0.17928 -0.14835 0.14333 0.097427 -0.10278 -0.050322 -0.041975 -0.067933 -0.15512 -0.14819 -0.052816 0.029728 -0.14025 -0.12829 0.1192 0.15893 -0.09122 -0.051168 -0.049494 0.052543 0.054018 0.071344 -0.22351 -0.073073 -0.11433 0.099426 0.010889 -0.089773 -0.035481 -0.081124 0.062032 -0.071379 -0.10325 -0.0050351 -0.12336 0.041845 -0.016012 -0.099714 -0.19017 0.21366 -0.0062836 0.061171 0.20702 -0.020431 0.20005 0.095055 -0.112 0.052652 -0.087608 -0.015203 0.037848 0.12876 -0.051719 0.040939 -0.21363 0.079486 0.07322 0.0066732 0.04426 0.13856 0.1588 0.13961 0.001222 0.0041282 -0.16441 -0.07481 -0.085318 -0.096117 0.063631 0.1377 0.17604 -0.028464 -0.060044 -0.00092219 -0.0011003 0.012472 0.17733 0.084637 0.070971 -0.14508 -0.016639 0.06486 0.23455 0.043219 0.11582 -0.22654 -0.12356 0.15641 0.080263 0.067105 0.19274 0.0039816 0.12796 0.093868 -0.012315 -0.011587 -0.053397 -0.13685 
11:45:08] 0.22697 0.15786 0.22344 -0.18523 0.1788 0.12274 -0.12882 -0.062251 -0.054494 -0.08422 -0.19194 -0.18383 -0.065356 0.035637 -0.17271 -0.15927 0.14523 0.19615 -0.11341 -0.063848 -0.062336 0.064818 0.068708 0.087568 -0.27913 -0.091515 -0.14169 0.12301 0.013006 -0.11133 -0.044089 -0.099928 0.075922 -0.089491 -0.12751 -0.0077381 -0.15293 0.052307 -0.021958 -0.12367 -0.23531 0.264 -0.0080989 0.076238 0.25549 -0.02603 0.24808 0.11813 -0.13947 0.065326 -0.10964 -0.018184 0.045441 0.16008 -0.064313 0.048984 -0.26632 0.099923 0.090312 0.0081526 0.054395 0.17113 0.19642 0.17349 0.00089536 0.0050839 -0.20489 -0.093672 -0.10589 -0.12119 0.078294 0.1706 0.21871 -0.035392 -0.07288 -0.00028108 -0.0014405 0.015587 0.21938 0.10582 0.086797 -0.18094 -0.020252 0.080074 0.29074 0.054191 0.14469 -0.28098 -0.15449 0.19257 0.10035 0.082758 0.23702 0.0042663 0.16138 0.11629 -0.016266 -0.013172 -0.066948 -0.17046 
11:44:01] 0.24975 0.17379 0.24608 -0.20326 0.19671 0.13465 -0.14126 -0.067954 -0.058307 -0.093234 -0.21174 -0.20306 -0.070589 0.038069 -0.19031 -0.17485 0.16094 0.21718 -0.12559 -0.070388 -0.06959 0.072419 0.074359 0.097338 -0.30619 -0.10116 -0.15615 0.13662 0.01442 -0.12242 -0.048366 -0.11127 0.084491 -0.098118 -0.13982 -0.0075783 -0.16776 0.057353 -0.024085 -0.13657 -0.25962 0.29078 -0.009523 0.08474 0.2814 -0.02881 0.27332 0.12957 -0.15374 0.071978 -0.11959 -0.021281 0.050871 0.17649 -0.069416 0.054699 -0.29359 0.11012 0.099689 0.0084756 0.059861 0.18872 0.21548 0.19046 0.0023691 0.0047141 -0.22529 -0.10213 -0.11586 -0.13334 0.087242 0.18724 0.23991 -0.038617 -0.079641 -0.00053612 -0.00095138 0.01751 0.24245 0.11579 0.09599 -0.19944 -0.022506 0.089173 0.31979 0.05971 0.16082 -0.31 -0.1687 0.21288 0.11117 0.091505 0.26136 0.0040651 0.17721 0.12937 -0.017978 -0.014999 -0.074771 -0.18813 
tunnel 0.094482 0.066556 0.092845 -0.075627 0.074801 0.051365 -0.053817 -0.025776 -0.021471 -0.036361 -0.080827 -0.077417 -0.028144 0.014733 -0.072206 -0.064947 0.061327 0.081484 -0.047914 -0.025662 -0.025968 0.026851 0.029174 0.036153 -0.1168 -0.037639 -0.060485 0.05168 0.0062986 -0.047398 -0.018483 -0.041922 0.031255 -0.036517 -0.053075 -0.0054499 -0.063015 0.021852 -0.009365 -0.052266 -0.099933 0.10955 -0.0030206 0.031028 0.10526 -0.01088 0.10298 0.050743 -0.057873 0.027516 -0.045708 -0.0074731 0.017354 0.067032 -0.026542 0.020427 -0.11085 0.040948 0.037916 0.0022336 0.023056 0.07194 0.081966 0.070747 -0.00074883 0.0021596 -0.085242 -0.038729 -0.044082 -0.051494 0.033765 0.069946 0.092172 -0.014017 -0.031123 -0.00061007 0.0013352 0.0074487 0.091252 0.044033 0.035999 -0.076415 -0.0082495 0.033632 0.12165 0.022693 0.059642 -0.11734 -0.065735 0.080303 0.042801 0.035801 0.099893 0.0023134 0.068464 0.047287 -0.0058132 -0.0061008 -0.027424 -0.071806 
11:18:35] 0.24138 0.16751 0.23751 -0.19661 0.18931 0.12936 -0.13715 -0.066534 -0.05669 -0.090052 -0.20361 -0.19506 -0.068438 0.037779 -0.18338 -0.16944 0.15518 0.20813 -0.12098 -0.068195 -0.067133 0.069138 0.072338 0.092235 -0.29585 -0.097087 -0.15081 0.13025 0.013868 -0.11703 -0.04857 -0.10603 0.081615 -0.094054 -0.13412 -0.0073118 -0.16343 0.055018 -0.023024 -0.13145 -0.25103 0.28055 -0.0079659 0.080068 0.272 -0.028308 0.26329 0.12574 -0.14837 0.070001 -0.11507 -0.019583 0.048098 0.17044 -0.066811 0.053521 -0.28355 0.1055 0.096369 0.0080836 0.059178 0.18144 0.20859 0.18324 0.0027048 0.0061312 -0.21671 -0.10036 -0.11196 -0.12856 0.084043 0.17986 0.23115 -0.036893 -0.077119 -0.0014756 -0.00090208 0.016349 0.23301 0.11205 0.091963 -0.19128 -0.022326 0.085571 0.30791 0.059512 0.15473 -0.30027 -0.16146 0.20532 0.10831 0.088324 0.25208 0.004782 0.17218 0.12347 -0.017735 -0.01559 -0.072704 -0.18134 
11:15:07] 0.23553 0.16369 0.23309 -0.19209 0.1856 0.12609 -0.13336 -0.06447 -0.055174 -0.08859 -0.19907 -0.19147 -0.067348 0.037319 -0.17912 -0.16565 0.15081 0.2035 -0.11816 -0.066103 -0.065067 0.067762 0.070442 0.091431 -0.29004 -0.096217 -0.14797 0.128 0.013257 -0.11587 -0.046275 -0.10408 0.079961 -0.093295 -0.13202 -0.007289 -0.15976 0.053198 -0.022312 -0.1279 -0.24509 0.27538 -0.0088043 0.079264 0.26537 -0.026463 0.25726 0.12182 -0.14472 0.06886 -0.11312 -0.019902 0.04829 0.16834 -0.066213 0.052473 -0.27712 0.10386 0.093648 0.0078193 0.056154 0.17805 0.20426 0.18066 0.0017956 0.0050801 -0.2129 -0.098024 -0.10973 -0.12617 0.082216 0.17758 0.22676 -0.037143 -0.074893 -0.00087022 -0.00040343 0.018198 0.22864 0.10946 0.090646 -0.18773 -0.021504 0.083131 0.30059 0.057447 0.15068 -0.29361 -0.15971 0.19993 0.10384 0.086065 0.24748 0.0049762 0.16753 0.12116 -0.016494 -0.012917 -0.070169 -0.17749 
10:51:29] 0.12998 0.089948 0.12764 -0.1041 0.10088 0.068988 -0.073898 -0.036037 -0.031044 -0.047696 -0.10903 -0.10458 -0.036354 0.0189 -0.099008 -0.091114 0.082386 0.11152 -0.064489 -0.035647 -0.035568 0.038312 0.038817 0.049866 -0.15859 -0.052344 -0.081733 0.06991 0.0071689 -0.06394 -0.025643 -0.056887 0.04351 -0.050885 -0.072397 -0.0031564 -0.087447 0.030615 -0.01172 -0.07122 -0.13481 0.15147 -0.0054777 0.043642 0.14488 -0.015173 0.14106 0.068759 -0.079762 0.037194 -0.063322 -0.010116 0.025249 0.09191 -0.035699 0.028202 -0.15146 0.056166 0.051698 0.0044496 0.031533 0.097373 0.11244 0.099092 0.001624 0.0024078 -0.1176 -0.053068 -0.060343 -0.0695 0.044861 0.097954 0.12492 -0.020252 -0.041556 -0.00062515 -0.00029256 0.0085084 0.1265 0.06026 0.049654 -0.10327 -0.011105 0.046364 0.16552 0.031482 0.082292 -0.16065 -0.087133 0.11048 0.057555 0.047121 0.13554 0.0026932 0.0916 0.065486 -0.0087806 -0.0078956 -0.039184 -0.097237 
11:44:02] 0.25275 0.17547 0.2488 -0.20519 0.20039 0.13672 -0.14329 -0.068832 -0.059188 -0.093878 -0.21445 -0.20559 -0.072075 0.038508 -0.19213 -0.1775 0.16259 0.21992 -0.12728 -0.071532 -0.07065 0.073588 0.076193 0.098321 -0.31031 -0.10205 -0.15834 0.1384 0.015061 -0.12438 -0.049426 -0.11137 0.084474 -0.10025 -0.14164 -0.0080798 -0.17056 0.05779 -0.024711 -0.13847 -0.26276 0.29429 -0.0084672 0.086269 0.28498 -0.029202 0.27622 0.13178 -0.15527 0.072944 -0.12094 -0.021766 0.051482 0.17902 -0.070186 0.055336 -0.29691 0.11159 0.10067 0.0085212 0.061227 0.19178 0.21881 0.19263 0.0017032 0.0059919 -0.22836 -0.10427 -0.1183 -0.13484 0.088446 0.18991 0.24249 -0.038986 -0.081253 -0.00046558 -0.00026962 0.017401 0.24493 0.11784 0.097256 -0.20187 -0.022328 0.091014 0.32446 0.06122 0.16175 -0.31432 -0.17047 0.21531 0.11233 0.093224 0.26491 0.0047202 0.17988 0.13082 -0.018068 -0.015397 -0.075693 -0.19079 
10:50:26] 0.15109 0.10487 0.14828 -0.12185 0.11706 0.080732 -0.086127 -0.04071 -0.036704 -0.055814 -0.12768 -0.12237 -0.042767 0.023751 -0.11425 -0.10585 0.097531 0.13009 -0.075243 -0.041862 -0.04195 0.043671 0.043947 0.05822 -0.18376 -0.061352 -0.093767 0.081966 0.0088045 -0.073574 -0.029285 -0.06666 0.050817 -0.060157 -0.084469 -0.004539 -0.10071 0.035736 -0.013418 -0.082736 -0.1565 0.17626 -0.0051856 0.050313 0.16971 -0.017829 0.16472 0.080767 -0.093209 0.042812 -0.073093 -0.012001 0.030292 0.10603 -0.041727 0.032918 -0.17692 0.0653 0.060425 0.0046838 0.0371 0.11386 0.13022 0.11443 0.0015649 0.0028874 -0.13653 -0.061337 -0.069491 -0.080303 0.052703 0.1142 0.14429 -0.023396 -0.049505 -0.0013754 -0.00067175 0.009909 0.14565 0.069518 0.05759 -0.12005 -0.01329 0.053386 0.19348 0.037187 0.095506 -0.18669 -0.10265 0.12764 0.065775 0.054872 0.15767 0.0033985 0.10671 0.077112 -0.010225 -0.0099545 -0.044491 -0.11344 
11:43:42] 0.25744 0.17915 0.25354 -0.21005 0.20341 0.13909 -0.14703 -0.070889 -0.060918 -0.095995 -0.2186 -0.21014 -0.072868 0.040437 -0.1949 -0.18066 0.16465 0.22347 -0.12937 -0.072717 -0.072277 0.074288 0.078306 0.099326 -0.31613 -0.10327 -0.16072 0.13999 0.014113 -0.12633 -0.050826 -0.11401 0.087136 -0.10176 -0.14348 -0.008177 -0.17356 0.059381 -0.024638 -0.14144 -0.26653 0.30056 -0.0096107 0.0869 0.29106 -0.030161 0.28182 0.13466 -0.15891 0.074745 -0.1228 -0.021975 0.0521 0.18169 -0.072445 0.056025 -0.30255 0.11292 0.10389 0.0080398 0.06176 0.19425 0.22331 0.19593 0.0012308 0.0069169 -0.23245 -0.10693 -0.12097 -0.13811 0.08878 0.19214 0.24762 -0.039776 -0.083055 -0.0016585 -0.001137 0.018905 0.25033 0.11872 0.098243 -0.20643 -0.023977 0.091937 0.33139 0.061685 0.16423 -0.31915 -0.17433 0.21864 0.11544 0.094292 0.27089 0.0048272 0.18193 0.13417 -0.017851 -0.016272 -0.077346 -0.19367 
11:47:27] 0.24891 0.17251 0.24601 -0.20286 0.19624 0.13369 -0.14119 -0.06827 -0.059015 -0.092483 -0.21083 -0.2026 -0.070111 0.038633 -0.18913 -0.17482 0.16012 0.2161 -0.12505 -0.070098 -0.069368 0.071902 0.074755 0.096167 -0.3053 -0.10079 -0.15639 0.13563 0.01477 -0.12254 -0.048973 -0.11014 0.083824 -0.097998 -0.13913 -0.0075668 -0.16797 0.057791 -0.023802 -0.13615 -0.25899 0.29049 -0.0088122 0.083838 0.28053 -0.029049 0.27213 0.13029 -0.15294 0.072204 -0.11944 -0.021246 0.05042 0.17599 -0.06996 0.05441 -0.29279 0.10924 0.099845 0.0081132 0.060288 0.18826 0.21535 0.18975 0.0019204 0.0058021 -0.22484 -0.10279 -0.11628 -0.1331 0.086943 0.18689 0.23959 -0.038785 -0.080183 -0.00093718 -0.00083373 0.017527 0.24169 0.11498 0.095537 -0.19931 -0.022656 0.088403 0.31944 0.06009 0.15925 -0.30905 -0.16904 0.21185 0.11046 0.091205 0.26127 0.004524 0.17653 0.12869 -0.017734 -0.015574 -0.074146 -0.18771 
11:43:57] 0.24787 0.17266 0.24633 -0.20272 0.19659 0.13468 -0.14094 -0.067703 -0.059106 -0.091839 -0.211 -0.20275 -0.070553 0.037798 -0.18935 -0.17385 0.15896 0.21586 -0.12571 -0.070387 -0.068978 0.07118 0.07365 0.096119 -0.30567 -0.1008 -0.15661 0.13492 0.014509 -0.1223 -0.048477 -0.10983 0.082963 -0.098579 -0.13989 -0.0084234 -0.16821 0.057862 -0.022726 -0.13622 -0.25784 0.29054 -0.0089543 0.083654 0.28029 -0.02876 0.27274 0.13021 -0.1534 0.072954 -0.11893 -0.022596 0.050292 0.17491 -0.070771 0.054897 -0.29342 0.10959 0.1002 0.0077656 0.059344 0.18896 0.2155 0.19076 0.0016898 0.0061206 -0.22569 -0.10301 -0.11651 -0.13316 0.087534 0.18678 0.23967 -0.039141 -0.081118 -0.0013051 -0.0010223 0.017839 0.24267 0.1144 0.09715 -0.19888 -0.023835 0.088022 0.31926 0.060274 0.15822 -0.30958 -0.16998 0.21256 0.11079 0.090796 0.26188 0.00432 0.17619 0.12926 -0.01757 -0.015095 -0.074836 -0.187 
10:51:28] 0.11897 0.082106 0.11649 -0.095565 0.093234 0.063742 -0.067529 -0.032878 -0.028209 -0.044253 -0.10068 -0.0964 -0.033828 0.017984 -0.090953 -0.083277 0.076136 0.10209 -0.059512 -0.032355 -0.033253 0.034531 0.034761 0.046038 -0.14546 -0.047726 -0.073878 0.064684 0.0073288 -0.058128 -0.022972 -0.052479 0.040617 -0.046289 -0.066299 -0.0030619 -0.079773 0.028084 -0.011126 -0.065459 -0.12297 0.13806 -0.0045271 0.03986 0.13314 -0.013745 0.12948 0.06308 -0.073181 0.033442 -0.057658 -0.010191 0.023329 0.083896 -0.032581 0.026018 -0.13927 0.052623 0.047876 0.0044273 0.029902 0.08867 0.10247 0.090537 0.001342 0.0027515 -0.10781 -0.04835 -0.055046 -0.063676 0.042181 0.089136 0.11429 -0.018317 -0.038546 -0.0012658 -0.00013953 0.0084066 0.11611 0.055279 0.045731 -0.094168 -0.010534 0.042601 0.15109 0.029019 0.075275 -0.14631 -0.080013 0.10085 0.052377 0.043698 0.12429 0.0019021 0.08407 0.060732 -0.0077141 -0.006965 -0.035315 -0.08854 
10:59:32] 0.11421 0.078924 0.11238 -0.093026 0.089308 0.061102 -0.064218 -0.031617 -0.027819 -0.042949 -0.096684 -0.093979 -0.032382 0.017049 -0.086379 -0.079878 0.072616 0.097865 -0.057898 -0.031935 -0.032281 0.034726 0.034006 0.044124 -0.14002 -0.046115 -0.071826 0.061342 0.0065425 -0.055729 -0.022806 -0.051167 0.039362 -0.044956 -0.064525 -0.0040888 -0.077295 0.026773 -0.010717 -0.062722 -0.119 0.13333 -0.0049581 0.038959 0.12817 -0.01285 0.12607 0.060849 -0.07062 0.032107 -0.055541 -0.009208 0.022366 0.080714 -0.031946 0.025124 -0.13497 0.049102 0.046816 0.0039161 0.028154 0.086553 0.099047 0.086961 0.0005484 0.0026637 -0.1036 -0.04654 -0.052922 -0.061195 0.040257 0.086308 0.10926 -0.018872 -0.037519 -0.0021882 -1.9368e-05 0.0082212 0.11206 0.053332 0.044015 -0.090763 -0.0088412 0.040654 0.14561 0.028216 0.073661 -0.142 -0.076929 0.096867 0.049669 0.042344 0.11993 0.0016266 0.081042 0.058443 -0.0074362 -0.0075838 -0.035009 -0.086819 
11:23:11] 0.23269 0.16055 0.22978 -0.18898 0.18296 0.12438 -0.13126 -0.062838 -0.054438 -0.087006 -0.19673 -0.18865 -0.065831 0.036336 -0.17779 -0.16311 0.14916 0.20135 -0.11606 -0.065143 -0.064772 0.065496 0.0705 0.090413 -0.28594 -0.09454 -0.14586 0.12695 0.014117 -0.11517 -0.04556 -0.10294 0.077882 -0.09165 -0.13104 -0.0074244 -0.15633 0.053499 -0.02339 -0.12704 -0.24203 0.27127 -0.0070247 0.07729 0.26272 -0.026943 0.2539 0.1208 -0.14356 0.06923 -0.11089 -0.019958 0.048004 0.16595 -0.06527 0.051457 -0.27364 0.10266 0.094866 0.0076377 0.055784 0.17734 0.20219 0.17714 0.0020192 0.0053484 -0.21138 -0.095954 -0.10829 -0.12353 0.079861 0.17364 0.22349 -0.036765 -0.074935 -0.00098396 -0.0011407 0.017584 0.22578 0.10842 0.088984 -0.18584 -0.022467 0.082537 0.29885 0.055773 0.15099 -0.28862 -0.15783 0.19848 0.10232 0.085726 0.24389 0.005331 0.16518 0.11991 -0.016119 -0.015186 -0.069675 -0.17538 
11:43:59] 0.26171 0.18273 0.25916 -0.21409 0.20833 0.14228 -0.14847 -0.071199 -0.061694 -0.097887 -0.22277 -0.21323 -0.074064 0.040945 -0.19986 -0.18273 0.16838 0.22726 -0.13232 -0.07329 -0.072918 0.075326 0.078539 0.10137 -0.32209 -0.10596 -0.16483 0.1427 0.015063 -0.12846 -0.051817 -0.11643 0.087411 -0.10357 -0.14667 -0.0086637 -0.17687 0.060772 -0.0253 -0.14403 -0.27189 0.307 -0.010065 0.088686 0.29643 -0.030184 0.28695 0.13687 -0.16161 0.076458 -0.12548 -0.022612 0.052943 0.18558 -0.074003 0.058017 -0.30926 0.11565 0.10536 0.0081963 0.062316 0.19893 0.22718 0.20009 0.0017533 0.0059851 -0.23682 -0.10839 -0.12259 -0.14037 0.092032 0.19682 0.25246 -0.0406 -0.085107 -0.0010987 -0.0013095 0.018443 0.25536 0.12198 0.10193 -0.21012 -0.024194 0.093238 0.33564 0.063998 0.16883 -0.32553 -0.17743 0.22351 0.11703 0.095628 0.27574 0.0055955 0.1855 0.13655 -0.019158 -0.015967 -0.078214 -0.19795 
22 0.13679 0.095252 0.13939 -0.11196 0.11227 0.074633 -0.077411 -0.037747 -0.029813 -0.049843 -0.11686 -0.10973 -0.036917 0.022721 -0.10857 -0.096109 0.087922 0.11762 -0.072797 -0.037595 -0.039525 0.036615 0.04344 0.04996 -0.17029 -0.055176 -0.084635 0.075357 0.0061782 -0.066228 -0.027538 -0.059075 0.042428 -0.052456 -0.076534 -0.0011697 -0.092893 0.029465 -0.015083 -0.076173 -0.14145 0.16055 -0.0065416 0.042313 0.15515 -0.014603 0.14928 0.06972 -0.084864 0.041685 -0.061221 -0.010227 0.026302 0.096718 -0.037017 0.030048 -0.16125 0.062525 0.055922 0.0043696 0.033957 0.10492 0.12419 0.1043 0.0046883 0.00086085 -0.12734 -0.056041 -0.066394 -0.074768 0.051088 0.10134 0.12928 -0.019044 -0.04305 0.00043697 -0.00038034 0.0082521 0.13411 0.068305 0.053608 -0.1069 -0.010687 0.047988 0.17711 0.032648 0.090081 -0.17082 -0.092044 0.11829 0.062016 0.048948 0.14483 0.0016796 0.096836 0.070225 -0.0060317 -0.010566 -0.043557 -0.099973 
11:18:40] 0.23889 0.16576 0.23413 -0.19346 0.18857 0.12792 -0.13508 -0.065722 -0.055207 -0.088075 -0.20176 -0.19293 -0.067566 0.036723 -0.18061 -0.16664 0.15347 0.20479 -0.12031 -0.067632 -0.066035 0.067374 0.072238 0.092041 -0.29055 -0.095998 -0.15117 0.12922 0.013947 -0.11628 -0.047105 -0.10517 0.079042 -0.09314 -0.13288 -0.0079345 -0.16085 0.056131 -0.022916 -0.12974 -0.24738 0.27937 -0.00923 0.078986 0.26932 -0.028178 0.25973 0.12396 -0.14772 0.069572 -0.11355 -0.020266 0.046813 0.16815 -0.066916 0.051486 -0.28047 0.1059 0.095156 0.0073811 0.05719 0.18061 0.20605 0.18143 0.0020645 0.0073091 -0.21484 -0.099505 -0.11025 -0.12848 0.083394 0.17876 0.22831 -0.037339 -0.076471 -0.00074221 -0.0003786 0.01694 0.22963 0.11089 0.092042 -0.1899 -0.022042 0.083697 0.30548 0.058016 0.153 -0.2969 -0.16081 0.20354 0.10403 0.08792 0.25013 0.0044281 0.16919 0.12389 -0.017118 -0.014059 -0.071238 -0.17775 
11:23:13] 0.2403 0.16596 0.23723 -0.19608 0.18963 0.12949 -0.13546 -0.065157 -0.056803 -0.090022 -0.20367 -0.19451 -0.068633 0.03784 -0.18426 -0.16921 0.15391 0.20813 -0.12014 -0.067579 -0.067231 0.068268 0.072316 0.093224 -0.29633 -0.097906 -0.15143 0.13104 0.01404 -0.11829 -0.046546 -0.10582 0.081241 -0.094973 -0.13543 -0.0083891 -0.16222 0.056081 -0.024883 -0.13149 -0.25058 0.2804 -0.0086063 0.079783 0.27263 -0.027788 0.2626 0.12574 -0.14837 0.071523 -0.11554 -0.020345 0.050996 0.17041 -0.067983 0.053371 -0.28398 0.10465 0.097404 0.0085385 0.057204 0.18357 0.20925 0.18374 0.0015105 0.0059672 -0.21862 -0.098816 -0.11284 -0.12795 0.082981 0.18031 0.23223 -0.037253 -0.07787 -0.00063112 -0.00015919 0.017265 0.23381 0.11196 0.092515 -0.1924 -0.022673 0.085644 0.30831 0.058361 0.15576 -0.29916 -0.16354 0.2053 0.10683 0.088703 0.2528 0.0047427 0.17089 0.12414 -0.016943 -0.015761 -0.072355 -0.18129 
VPN|raw_mtu=1440 0.22171 0.15293 0.21855 -0.17894 0.17442 0.11839 -0.1246 -0.060424 -0.051513 -0.082582 -0.18759 -0.18017 -0.06239 0.034394 -0.1685 -0.15492 0.14227 0.19232 -0.11088 -0.061742 -0.061909 0.062464 0.066705 0.085624 -0.27207 -0.088841 -0.13876 0.12059 0.012883 -0.10797 -0.04342 -0.097536 0.073819 -0.087123 -0.12318 -0.0080066 -0.14804 0.051112 -0.021462 -0.12124 -0.23119 0.25923 -0.0090151 0.07482 0.24968 -0.024999 0.24217 0.11618 -0.13654 0.064264 -0.10727 -0.01892 0.044851 0.15652 -0.061774 0.048821 -0.25963 0.097664 0.0888 0.0077653 0.053686 0.16714 0.19223 0.16764 0.0012496 0.0054657 -0.20056 -0.090882 -0.10285 -0.11737 0.077074 0.16514 0.21277 -0.034537 -0.071605 -0.0010843 -0.00071276 0.016271 0.21479 0.10309 0.084962 -0.17608 -0.020473 0.077996 0.28301 0.052963 0.14173 -0.27535 -0.15044 0.18872 0.097737 0.081168 0.23204 0.0054201 0.15733 0.11426 -0.015187 -0.013363 -0.065564 -0.16634 
18 0.13106 0.08877 0.12675 -0.10406 0.10242 0.071294 -0.069367 -0.036085 -0.026729 -0.0477 -0.1095 -0.10228 -0.036876 0.022746 -0.10054 -0.090384 0.083118 0.1104 -0.065529 -0.031382 -0.033561 0.037173 0.038641 0.046856 -0.15969 -0.049775 -0.082845 0.06737 0.0062132 -0.062104 -0.024827 -0.053121 0.04069 -0.051716 -0.070605 -0.006524 -0.087351 0.026812 -0.011662 -0.069762 -0.13624 0.14492 -5.2619e-05 0.043475 0.14023 -0.015633 0.13601 0.067461 -0.078738 0.03662 -0.06139 -0.01358 0.026352 0.090691 -0.035176 0.023746 -0.15144 0.059025 0.048696 0.0065008 0.032532 0.097724 0.11077 0.094691 -0.0036025 0.001032 -0.1156 -0.051486 -0.056182 -0.06644 0.046651 0.096185 0.12314 -0.016384 -0.044568 -0.0021485 0.0027872 0.011579 0.12263 0.057966 0.048754 -0.1019 -0.012802 0.045088 0.16429 0.034383 0.081175 -0.16086 -0.08604 0.10807 0.057408 0.046236 0.13471 0.00066981 0.092056 0.061645 -0.011542 -0.0095823 -0.038648 -0.095524 
11:01:38] 0.21325 0.14733 0.20929 -0.17326 0.1674 0.11432 -0.12066 -0.059206 -0.050211 -0.079395 -0.17992 -0.17206 -0.060216 0.03178 -0.16148 -0.14969 0.13638 0.18408 -0.10597 -0.060257 -0.059079 0.060841 0.06387 0.083004 -0.261 -0.085615 -0.1346 0.11558 0.013163 -0.10437 -0.041611 -0.093903 0.071727 -0.083335 -0.11928 -0.0064645 -0.14304 0.048815 -0.020325 -0.1162 -0.22133 0.24802 -0.0078653 0.071147 0.24077 -0.024463 0.23227 0.11058 -0.1308 0.061978 -0.10312 -0.018509 0.041855 0.15045 -0.059584 0.045407 -0.24939 0.094311 0.084525 0.0063786 0.051509 0.1605 0.18461 0.16215 0.0012729 0.0046725 -0.19204 -0.088018 -0.09806 -0.11438 0.074072 0.15952 0.20444 -0.032721 -0.068511 -0.00029001 -0.0010523 0.015996 0.20613 0.099443 0.082099 -0.16993 -0.019942 0.075 0.27221 0.051443 0.13606 -0.2645 -0.14448 0.18166 0.094271 0.077344 0.22245 0.0035152 0.15131 0.11079 -0.014711 -0.014137 -0.06386 -0.16117 
10:51:25] 0.13748 0.095915 0.13679 -0.11193 0.10835 0.074256 -0.079215 -0.038767 -0.032371 -0.050991 -0.11626 -0.1121 -0.038703 0.02224 -0.10622 -0.097036 0.088607 0.11861 -0.069399 -0.038873 -0.038092 0.04057 0.041541 0.052882 -0.17044 -0.055871 -0.086546 0.075716 0.0080619 -0.068458 -0.0267 -0.061182 0.046355 -0.054748 -0.076785 -0.0047512 -0.092432 0.032669 -0.012735 -0.075729 -0.14318 0.16142 -0.0052447 0.046652 0.15636 -0.016153 0.15067 0.073267 -0.086386 0.039092 -0.067248 -0.011272 0.028257 0.097393 -0.039021 0.031396 -0.1632 0.060602 0.056235 0.0052968 0.033951 0.10372 0.11915 0.10564 0.00041292 0.0032286 -0.12522 -0.056727 -0.063895 -0.074357 0.049345 0.10474 0.1337 -0.020807 -0.044377 -0.0020065 -0.00026538 0.009438 0.13497 0.063801 0.052915 -0.11021 -0.012317 0.048712 0.17634 0.034565 0.088101 -0.17118 -0.093395 0.11773 0.061901 0.050995 0.14533 0.0025497 0.098294 0.069897 -0.0092413 -0.0084114 -0.041183 -0.10362 
19 0.12336 0.086644 0.12199 -0.10186 0.097616 0.070791 -0.070226 -0.036773 -0.031333 -0.044944 -0.10796 -0.10266 -0.034339 0.016395 -0.097036 -0.089659 0.080503 0.11055 -0.060385 -0.035486 -0.034941 0.037042 0.039536 0.04924 -0.15 -0.05063 -0.082355 0.06505 0.0090657 -0.065577 -0.023997 -0.055244 0.042756 -0.049307 -0.071946 -0.0013012 -0.082641 0.024847 -0.011456 -0.070215 -0.13112 0.14368 -0.0072896 0.045117 0.1404 -0.018511 0.13923 0.06419 -0.076915 0.037483 -0.058295 -0.013775 0.025639 0.086932 -0.036525 0.025229 -0.14612 0.059614 0.049832 0.004284 0.026011 0.095365 0.11129 0.096325 -0.0011454 0.0037881 -0.11571 -0.050202 -0.061921 -0.067272 0.041562 0.092047 0.1214 -0.01905 -0.042025 -9.2961e-05 0.0026641 0.012581 0.12022 0.058431 0.048687 -0.10204 -0.010227 0.043639 0.16146 0.027583 0.076132 -0.15369 -0.081586 0.10499 0.058378 0.045772 0.13667 0.0020254 0.090829 0.063366 -0.0079072 -0.012501 -0.039342 -0.096615 
11:49:43] 0.24208 0.1679 0.23882 -0.19723 0.19105 0.13001 -0.13642 -0.06619 -0.057467 -0.088733 -0.20579 -0.19765 -0.067997 0.038512 -0.18487 -0.16994 0.15635 0.21049 -0.12113 -0.069057 -0.068113 0.070018 0.072605 0.093373 -0.29746 -0.097498 -0.15238 0.13141 0.014253 -0.11929 -0.047275 -0.10777 0.081416 -0.096064 -0.13546 -0.0085685 -0.16347 0.055768 -0.023197 -0.13335 -0.25247 0.28324 -0.0095785 0.082124 0.27382 -0.027702 0.2653 0.12621 -0.14857 0.070411 -0.11753 -0.020273 0.048647 0.17234 -0.067352 0.053463 -0.28536 0.10647 0.097398 0.0077391 0.059449 0.1832 0.20982 0.18566 0.0015702 0.0065282 -0.21854 -0.099854 -0.11323 -0.1294 0.084174 0.18175 0.23328 -0.039081 -0.078007 -0.00091484 -0.0013414 0.01716 0.23536 0.11228 0.093098 -0.19467 -0.021706 0.086556 0.31061 0.057707 0.1551 -0.30162 -0.16421 0.20802 0.10829 0.089144 0.25437 0.0041989 0.17245 0.12554 -0.017656 -0.014866 -0.071882 -0.1826 
11:25:03] 0.19899 0.13824 0.19536 -0.16182 0.15601 0.10682 -0.11256 -0.054177 -0.046822 -0.073785 -0.16753 -0.16106 -0.056701 0.031918 -0.15092 -0.13926 0.12791 0.1719 -0.099393 -0.055691 -0.055414 0.057372 0.058659 0.077266 -0.24373 -0.080364 -0.12551 0.10767 0.01146 -0.097282 -0.03855 -0.087343 0.06697 -0.079056 -0.11128 -0.0066842 -0.13368 0.045653 -0.018298 -0.10833 -0.20663 0.2318 -0.0077706 0.066768 0.22419 -0.022363 0.21618 0.10386 -0.12199 0.057736 -0.096326 -0.016551 0.039375 0.141 -0.056006 0.043041 -0.2334 0.087306 0.07984 0.0064202 0.04779 0.15031 0.17217 0.15178 0.0016507 0.0038631 -0.17993 -0.082197 -0.092952 -0.10603 0.068676 0.14886 0.19067 -0.031287 -0.064831 -0.00046344 -0.00091923 0.01434 0.19263 0.092015 0.076117 -0.1583 -0.017548 0.070093 0.25428 0.047927 0.12675 -0.24745 -0.13459 0.16922 0.087984 0.072462 0.2074 0.004668 0.14142 0.10227 -0.014355 -0.011615 -0.05924 -0.14944 
11:43:58] 0.25187 0.17505 0.2488 -0.20549 0.19887 0.13636 -0.14299 -0.06852 -0.059926 -0.093882 -0.21429 -0.20469 -0.070474 0.039466 -0.19222 -0.17607 0.16169 0.21849 -0.12728 -0.071242 -0.069963 0.072616 0.075474 0.097706 -0.30916 -0.10177 -0.15838 0.13745 0.014866 -0.12399 -0.049563 -0.11151 0.08453 -0.099325 -0.14129 -0.0077268 -0.16969 0.058237 -0.023701 -0.1381 -0.2616 0.294 -0.008745 0.085535 0.28365 -0.02993 0.27561 0.13195 -0.15494 0.073789 -0.12086 -0.022638 0.050984 0.17809 -0.07031 0.05516 -0.29643 0.11081 0.10116 0.0087607 0.060624 0.19104 0.21873 0.19215 0.0029568 0.0061248 -0.22779 -0.10401 -0.11808 -0.13448 0.088163 0.18929 0.24198 -0.039505 -0.082369 -0.00099472 -0.0012515 0.017484 0.24546 0.11593 0.097464 -0.20157 -0.022914 0.089183 0.32349 0.061358 0.16116 -0.31229 -0.17164 0.21431 0.11214 0.092209 0.26429 0.0052814 0.17927 0.13173 -0.018544 -0.015367 -0.075079 -0.18977 
14 0.09129 0.066199 0.093062 -0.07681 0.071291 0.047992 -0.053864 -0.027461 -0.021435 -0.034578 -0.07745 -0.073441 -0.025852 0.016955 -0.071235 -0.066015 0.058288 0.081653 -0.046589 -0.02856 -0.026471 0.024313 0.028803 0.035171 -0.11622 -0.037366 -0.057371 0.048106 0.0077362 -0.043904 -0.020045 -0.039897 0.029832 -0.035235 -0.050224 -0.0019947 -0.060846 0.019746 -0.0094637 -0.051856 -0.09825 0.10724 -0.0030145 0.030394 0.1025 -0.01068 0.099818 0.051034 -0.055917 0.024801 -0.04536 -0.0076712 0.016585 0.063325 -0.025506 0.022104 -0.10737 0.04305 0.039538 0.0044232 0.020433 0.07036 0.078894 0.06871 0.0030761 0.0020316 -0.084078 -0.040049 -0.041086 -0.049576 0.033873 0.067475 0.090499 -0.013692 -0.029715 0.0020572 -0.00069449 0.0061745 0.08804 0.042227 0.034094 -0.074245 -0.0065976 0.030909 0.11879 0.020662 0.060105 -0.11739 -0.0629 0.080227 0.041923 0.035246 0.095355 0.0024765 0.068097 0.049445 -0.004492 -0.0053894 -0.026016 -0.06822 
10:51:31] 0.13305 0.092367 0.13034 -0.10743 0.10385 0.070258 -0.075309 -0.037221 -0.031668 -0.049346 -0.11274 -0.10803 -0.037754 0.020341 -0.1017 -0.093325 0.085083 0.11398 -0.066607 -0.037411 -0.037219 0.039505 0.039776 0.050147 -0.16225 -0.054334 -0.083217 0.0723 0.0077622 -0.064808 -0.027108 -0.058344 0.044456 -0.052297 -0.074766 -0.0039626 -0.089562 0.030818 -0.013407 -0.072541 -0.13777 0.15481 -0.0047175 0.045104 0.15004 -0.014572 0.14497 0.069936 -0.08245 0.036963 -0.064151 -0.011249 0.025848 0.093393 -0.036673 0.029774 -0.15639 0.058359 0.054213 0.005127 0.033171 0.099082 0.1149 0.10046 0.00073379 0.0035394 -0.12033 -0.053985 -0.061189 -0.071179 0.046385 0.099525 0.128 -0.02053 -0.042447 -0.0012659 -0.00093968 0.009687 0.12966 0.062196 0.050645 -0.10562 -0.011503 0.046849 0.16921 0.032278 0.084305 -0.16439 -0.090107 0.11323 0.058194 0.048693 0.13849 0.0028474 0.094611 0.068523 -0.0083307 -0.0082565 -0.039363 -0.098937 
11:35:42] 0.21929 0.1527 0.21726 -0.17959 0.17385 0.11882 -0.12505 -0.060376 -0.052771 -0.083089 -0.1863 -0.1794 -0.063177 0.035227 -0.16829 -0.15435 0.14067 0.1906 -0.10959 -0.061511 -0.061473 0.064857 0.066868 0.085384 -0.27146 -0.088573 -0.13892 0.11941 0.012919 -0.10859 -0.043059 -0.097426 0.074335 -0.086749 -0.12342 -0.0073543 -0.14807 0.050374 -0.02188 -0.12085 -0.22825 0.25783 -0.0081675 0.074409 0.24854 -0.026214 0.24128 0.11521 -0.13517 0.064609 -0.10537 -0.019132 0.043739 0.15555 -0.06201 0.048923 -0.25788 0.095905 0.089004 0.0061673 0.05213 0.1658 0.19065 0.16834 0.00088239 0.004597 -0.20026 -0.091667 -0.10308 -0.11725 0.075754 0.165 0.21127 -0.034015 -0.070111 -0.0021052 -0.00067768 0.01666 0.21388 0.10237 0.083407 -0.17654 -0.01989 0.078025 0.28234 0.052317 0.13991 -0.27382 -0.14919 0.18759 0.097654 0.080736 0.23063 0.0049364 0.15634 0.1133 -0.01456 -0.01335 -0.066349 -0.1663 
11:15:08] 0.22556 0.15776 0.22318 -0.18424 0.17896 0.12188 -0.12805 -0.061776 -0.053573 -0.084472 -0.19079 -0.18338 -0.063808 0.035804 -0.17162 -0.15896 0.14462 0.19609 -0.11276 -0.063061 -0.062311 0.06464 0.067997 0.086689 -0.27782 -0.091949 -0.14305 0.12283 0.013077 -0.11045 -0.045134 -0.099462 0.0762 -0.088787 -0.12704 -0.0063205 -0.15315 0.051629 -0.021367 -0.1232 -0.23509 0.26365 -0.0093727 0.076158 0.25446 -0.025723 0.24631 0.11715 -0.13911 0.065009 -0.10848 -0.019092 0.04576 0.16091 -0.064203 0.049921 -0.2653 0.09938 0.089464 0.0082217 0.054186 0.17069 0.19493 0.17302 0.0019262 0.0053762 -0.20461 -0.093683 -0.10541 -0.12093 0.078506 0.16918 0.21762 -0.035551 -0.072177 -0.0003303 -0.00097746 0.016494 0.21929 0.10491 0.086622 -0.17915 -0.020867 0.079421 0.28824 0.053497 0.14394 -0.28154 -0.15246 0.19176 0.099427 0.082654 0.23639 0.0046731 0.16003 0.11621 -0.016109 -0.012625 -0.067114 -0.16979 
45 0.14106 0.09871 0.14182 -0.11793 0.10989 0.07923 -0.077675 -0.036429 -0.032907 -0.053969 -0.11987 -0.11434 -0.039755 0.022397 -0.10791 -0.1022 0.088884 0.12136 -0.07074 -0.037855 -0.041379 0.039172 0.044595 0.059218 -0.17392 -0.058515 -0.090439 0.080429 0.012015 -0.069093 -0.028611 -0.062687 0.048767 -0.051038 -0.080999 -0.004164 -0.092169 0.036197 -0.01341 -0.07832 -0.14821 0.16769 -0.0074399 0.048274 0.16148 -0.01686 0.15277 0.076693 -0.085478 0.04359 -0.067958 -0.010024 0.02781 0.10264 -0.037137 0.033382 -0.16979 0.058449 0.05607 -0.00036287 0.032262 0.10386 0.12471 0.10416 -0.0012169 0.004047 -0.12831 -0.056669 -0.068855 -0.077082 0.050385 0.10771 0.13828 -0.019189 -0.046017 0.0029266 -0.00098966 0.010222 0.13519 0.062851 0.052335 -0.11558 -0.010736 0.051162 0.17908 0.034324 0.09183 -0.17674 -0.096 0.12444 0.059428 0.053029 0.1471 0.0035635 0.10099 0.074067 -0.011839 -0.008571 -0.043261 -0.10383 
11:01:36] 0.1996 0.13879 0.19604 -0.16279 0.15724 0.10712 -0.11289 -0.054888 -0.046827 -0.074625 -0.16901 -0.16174 -0.056139 0.030703 -0.15195 -0.13934 0.12802 0.17239 -0.099722 -0.056231 -0.055837 0.05749 0.060177 0.077979 -0.24562 -0.08038 -0.12565 0.10849 0.012027 -0.097615 -0.039997 -0.088646 0.067251 -0.078311 -0.11134 -0.0058994 -0.13463 0.046378 -0.018969 -0.10858 -0.20775 0.23311 -0.0066285 0.06745 0.2255 -0.023144 0.21746 0.10409 -0.12368 0.057069 -0.096385 -0.016939 0.040242 0.14149 -0.055594 0.042952 -0.23396 0.08708 0.079009 0.0062919 0.048205 0.15078 0.17285 0.152 0.0012737 0.0044713 -0.18066 -0.082366 -0.092595 -0.10702 0.069408 0.14882 0.19179 -0.031808 -0.064575 -0.0010983 -0.00039923 0.014345 0.19295 0.093096 0.076036 -0.15953 -0.017741 0.071031 0.25533 0.048124 0.12827 -0.24787 -0.1358 0.16988 0.088061 0.073203 0.20869 0.0043712 0.14176 0.10262 -0.013156 -0.012911 -0.059465 -0.15004 
0 0.10873 0.080942 0.10854 -0.090871 0.081963 0.055113 -0.063468 -0.027414 -0.023204 -0.041879 -0.09134 -0.086582 -0.02998 0.01815 -0.08029 -0.080176 0.075992 0.095149 -0.059892 -0.030375 -0.032565 0.030376 0.031349 0.045681 -0.13609 -0.042491 -0.066601 0.062492 0.0061194 -0.052989 -0.022386 -0.044738 0.034024 -0.047603 -0.064167 -0.0074892 -0.071411 0.024944 -0.0069524 -0.05798 -0.11853 0.127 -0.0046788 0.032552 0.12423 -0.0087519 0.12396 0.053324 -0.071107 0.030016 -0.053237 -0.010415 0.02648 0.074575 -0.02678 0.021298 -0.12638 0.047032 0.047751 -0.0012172 0.030631 0.085747 0.098263 0.083377 0.0025672 0.007211 -0.10426 -0.040125 -0.046697 -0.058674 0.036812 0.087181 0.11076 -0.016673 -0.031129 0.0014937 0.00022897 0.0053431 0.10414 0.046824 0.038396 -0.086827 -0.01389 0.043932 0.13714 0.025211 0.07039 -0.13997 -0.072879 0.096843 0.052034 0.038606 0.11287 0.0015942 0.080406 0.060733 -0.0082943 -0.011734 -0.033254 -0.081489 
10:50:27] 0.15103 0.10475 0.14872 -0.12205 0.11806 0.081222 -0.086336 -0.041353 -0.036086 -0.05557 -0.12775 -0.12203 -0.042436 0.023609 -0.11519 -0.10626 0.097221 0.13001 -0.075723 -0.042395 -0.042055 0.043731 0.045036 0.058533 -0.18493 -0.061524 -0.094345 0.082288 0.0096075 -0.07412 -0.0292 -0.066394 0.050593 -0.0594 -0.084075 -0.0046186 -0.10087 0.035532 -0.013978 -0.08196 -0.15668 0.17663 -0.0055902 0.050727 0.17009 -0.018087 0.16472 0.079911 -0.093164 0.043159 -0.072851 -0.012353 0.030038 0.10697 -0.041234 0.033725 -0.17706 0.065734 0.060904 0.0052588 0.037256 0.11394 0.13055 0.11524 0.00088426 0.0037359 -0.13674 -0.061722 -0.069411 -0.080925 0.052761 0.1135 0.14471 -0.022953 -0.049639 -0.0009193 -0.00089208 0.010369 0.14626 0.069605 0.057858 -0.1206 -0.013209 0.053948 0.19303 0.036892 0.096157 -0.18677 -0.10311 0.12858 0.067012 0.055228 0.15724 0.0027464 0.10707 0.076605 -0.010011 -0.0095118 -0.044783 -0.11361 
10:49:31] 0.095534 0.065461 0.093855 -0.078316 0.074642 0.049699 -0.054364 -0.025672 -0.0236 -0.03585 -0.081207 -0.077651 -0.027974 0.01571 -0.073391 -0.066925 0.061051 0.082263 -0.047894 -0.027029 -0.026346 0.028482 0.027638 0.035901 -0.11755 -0.039157 -0.059976 0.051388 0.0059634 -0.045442 -0.019681 -0.041791 0.032268 -0.037771 -0.052838 -0.0027495 -0.065428 0.021928 -0.0091216 -0.05215 -0.099443 0.11219 -0.004298 0.032705 0.10902 -0.010931 0.10517 0.051183 -0.058898 0.027364 -0.046072 -0.0082216 0.018127 0.068141 -0.025801 0.021453 -0.11311 0.042131 0.038507 0.0040811 0.023249 0.0716 0.082238 0.072066 0.00074824 0.0036191 -0.085141 -0.0378 -0.043068 -0.051931 0.033016 0.070514 0.092955 -0.015623 -0.030721 -0.00058233 0.00026669 0.0068187 0.093957 0.044138 0.037604 -0.075927 -0.0072809 0.034801 0.12186 0.021948 0.060265 -0.11919 -0.064171 0.080453 0.041993 0.035261 0.099359 0.00053975 0.068223 0.049573 -0.0072138 -0.0054114 -0.028767 -0.07164 
GRE|raw_mtu=1476 0.20569 0.14157 0.20222 -0.16648 0.16114 0.1097 -0.1152 -0.055953 -0.047789 -0.076347 -0.17323 -0.16638 -0.057632 0.031715 -0.15645 -0.14306 0.13095 0.17818 -0.10264 -0.057486 -0.057872 0.058224 0.061544 0.079059 -0.2515 -0.081842 -0.12884 0.11154 0.011591 -0.099792 -0.040353 -0.089635 0.068435 -0.080417 -0.11451 -0.0070672 -0.13749 0.047147 -0.019348 -0.11201 -0.21288 0.24064 -0.0080784 0.068707 0.23046 -0.023028 0.22362 0.10748 -0.12647 0.060038 -0.099397 -0.016843 0.042194 0.14474 -0.057155 0.045233 -0.23998 0.089934 0.081425 0.0072657 0.049879 0.15504 0.17739 0.15563 0.001139 0.0054883 -0.18529 -0.0837 -0.095039 -0.10934 0.071651 0.15343 0.19694 -0.031649 -0.066487 -0.00097314 0.00040682 0.014594 0.19887 0.094653 0.078868 -0.16297 -0.018917 0.072138 0.2613 0.048673 0.13161 -0.25486 -0.13902 0.17446 0.090674 0.074919 0.21469 0.0038844 0.1453 0.10586 -0.01385 -0.012887 -0.060565 -0.15392 
2 0.091946 0.057588 0.087995 -0.066412 0.071156 0.044764 -0.047017 -0.020058 -0.01962 -0.031557 -0.075886 -0.065455 -0.021793 0.010824 -0.062191 -0.060022 0.053323 0.079644 -0.044176 -0.023313 -0.020382 0.020284 0.029589 0.033744 -0.10528 -0.037593 -0.052126 0.049843 0.007665 -0.046703 -0.016627 -0.038725 0.032012 -0.028994 -0.046101 0.0004904 -0.057919 0.018203 -0.01185 -0.050526 -0.090661 0.1053 -0.0012758 0.024836 0.1016 -0.012917 0.099163 0.049086 -0.050733 0.026112 -0.042214 -0.0053551 0.018649 0.064272 -0.021522 0.014636 -0.0972 0.036325 0.033404 -0.00068608 0.020115 0.061862 0.0793 0.066461 -0.0017743 0.0061794 -0.082075 -0.035316 -0.039706 -0.050984 0.033103 0.062664 0.083332 -0.017647 -0.02503 -0.0017253 0.00084952 0.0076373 0.085145 0.036379 0.037877 -0.07428 -0.0067427 0.027867 0.11507 0.017524 0.056229 -0.10946 -0.061006 0.070894 0.037562 0.028384 0.094042 0.003585 0.066711 0.047362 -0.0090352 -0.0083146 -0.024949 -0.065265 
1 0.11333 0.083328 0.11005 -0.093984 0.087195 0.06404 -0.067384 -0.026471 -0.024595 -0.046991 -0.094975 -0.095013 -0.036214 0.018498 -0.088457 -0.082943 0.078132 0.094607 -0.055259 -0.028053 -0.033094 0.029077 0.030369 0.047526 -0.13693 -0.04227 -0.070182 0.057276 0.0094953 -0.058086 -0.017814 -0.054277 0.033321 -0.045569 -0.066909 -0.0035957 -0.077987 0.027745 -0.014342 -0.058574 -0.11577 0.12849 -0.0074557 0.034344 0.13233 -0.0085682 0.128 0.05732 -0.071477 0.031312 -0.05888 -0.0094338 0.020808 0.085524 -0.034597 0.024084 -0.13027 0.051633 0.042822 -0.000554 0.030896 0.084193 0.094963 0.087341 0.00050389 -0.0010142 -0.10239 -0.048874 -0.051715 -0.06222 0.037165 0.081905 0.11181 -0.021157 -0.041286 -8.0723e-05 0.0042867 0.0057663 0.10586 0.055175 0.048624 -0.09616 -0.011387 0.040536 0.14828 0.030119 0.077156 -0.14092 -0.080691 0.09697 0.053052 0.046723 0.11873 0.00071693 0.08266 0.058554 -0.0083353 -0.0021818 -0.037311 -0.085787 
5 0.13496 0.098748 0.13502 -0.10563 0.11343 0.069398 -0.072147 -0.042322 -0.026683 -0.046215 -0.11764 -0.1064 -0.046517 0.031203 -0.10798 -0.090191 0.085549 0.12285 -0.061741 -0.0402 -0.046465 0.030033 0.044566 0.045792 -0.17184 -0.054166 -0.089408 0.073603 0.011837 -0.073621 -0.026985 -0.050467 0.042439 -0.049369 -0.075351 -0.0069734 -0.094058 0.025995 -0.017946 -0.07014 -0.14056 0.15832 -0.012201 0.041237 0.15321 -0.016991 0.14855 0.074495 -0.076692 0.041436 -0.062201 -0.015934 0.028513 0.10161 -0.034829 0.034027 -0.15496 0.061775 0.052847 0.0069197 0.033417 0.10801 0.11466 0.098829 0.00035263 0.0055786 -0.12563 -0.054884 -0.055997 -0.068585 0.048338 0.10332 0.12841 -0.018583 -0.045791 0.0051698 0.0020608 0.0034193 0.13069 0.058915 0.0501 -0.11155 -0.010809 0.045225 0.16834 0.036887 0.087179 -0.16744 -0.10133 0.11368 0.060366 0.058671 0.1391 0.0030568 0.098535 0.071713 -0.010554 -0.01796 -0.032991 -0.10427 
4 0.12924 0.087106 0.12753 -0.10476 0.09286 0.06947 -0.072264 -0.028159 -0.027128 -0.048194 -0.10887 -0.10205 -0.032365 0.021806 -0.09723 -0.090083 0.088669 0.10369 -0.06166 -0.033675 -0.036168 0.042303 0.044635 0.047117 -0.15493 -0.052108 -0.08113 0.07565 0.0048322 -0.061921 -0.022191 -0.058121 0.048151 -0.042699 -0.069161 -0.00023974 -0.089017 0.0337 -0.012854 -0.075712 -0.13119 0.14654 -0.0021945 0.047496 0.14693 -0.011339 0.13514 0.064662 -0.069639 0.029643 -0.060825 -0.0022277 0.032286 0.080865 -0.031486 0.034729 -0.14448 0.051211 0.048425 0.0011181 0.029471 0.095606 0.10612 0.098899 0.00080804 0.0035169 -0.1176 -0.05276 -0.051928 -0.066395 0.038858 0.096967 0.11645 -0.014566 -0.03138 0.0044024 0.0033111 0.0074108 0.12185 0.062657 0.049034 -0.10287 -0.014886 0.046971 0.16671 0.025941 0.079959 -0.1593 -0.08563 0.11078 0.061272 0.048925 0.13731 -0.0030584 0.088328 0.071255 -0.011122 -0.014167 -0.036787 -0.090986 
11:37:39] 0.21712 0.14969 0.21401 -0.17624 0.17168 0.11698 -0.12174 -0.058885 -0.051686 -0.080531 -0.18282 -0.17486 -0.060954 0.033062 -0.16491 -0.15231 0.13933 0.18794 -0.10823 -0.061679 -0.060128 0.062356 0.065368 0.084718 -0.26568 -0.086136 -0.13668 0.11751 0.012171 -0.10673 -0.042986 -0.09675 0.072455 -0.085181 -0.1209 -0.0072174 -0.14625 0.050641 -0.021217 -0.11997 -0.22627 0.25355 -0.0074785 0.073197 0.24365 -0.025393 0.23709 0.11386 -0.13341 0.06261 -0.10392 -0.018398 0.043536 0.15418 -0.060405 0.047711 -0.25553 0.096018 0.08634 0.0064673 0.051305 0.164 0.18803 0.16576 0.00096978 0.0046062 -0.19653 -0.089903 -0.10054 -0.11597 0.075853 0.16207 0.20946 -0.034125 -0.070188 -0.0022303 -0.00014137 0.015022 0.21089 0.099737 0.082269 -0.17277 -0.019966 0.07695 0.27897 0.053654 0.13833 -0.26991 -0.14576 0.18552 0.095792 0.079376 0.22736 0.003921 0.15401 0.11238 -0.015165 -0.012813 -0.064413 -0.16218 
11:43:41] 0.25526 0.17708 0.25175 -0.20776 0.20186 0.13779 -0.14444 -0.069635 -0.060563 -0.095079 -0.21578 -0.20761 -0.071669 0.03983 -0.1938 -0.17842 0.16394 0.22161 -0.12798 -0.072502 -0.070646 0.074009 0.076599 0.099471 -0.31328 -0.10313 -0.16019 0.13893 0.014007 -0.12529 -0.049636 -0.11274 0.08603 -0.1008 -0.14261 -0.0077852 -0.17205 0.059481 -0.023902 -0.13992 -0.26515 0.29746 -0.0091841 0.086675 0.28732 -0.030084 0.27882 0.1337 -0.15728 0.074185 -0.12242 -0.021513 0.0511 0.18067 -0.072324 0.05531 -0.29952 0.11237 0.10245 0.0082257 0.060375 0.19336 0.22103 0.19428 0.0018379 0.0068431 -0.23049 -0.10567 -0.11904 -0.13618 0.088654 0.19111 0.24555 -0.039617 -0.083048 -0.0012111 -0.0013692 0.018532 0.24715 0.11816 0.098419 -0.20391 -0.022938 0.089833 0.32725 0.061698 0.16301 -0.31737 -0.17285 0.21759 0.11366 0.093989 0.26718 0.0050811 0.18019 0.13153 -0.017994 -0.016231 -0.076676 -0.19254 
6 0.090359 0.069356 0.090756 -0.081604 0.078092 0.045953 -0.054159 -0.023693 -0.020223 -0.032374 -0.081566 -0.074607 -0.027231 0.010161 -0.075015 -0.06609 0.057904 0.083965 -0.046873 -0.029237 -0.025694 0.023624 0.029889 0.031752 -0.11861 -0.036855 -0.057308 0.05355 0.0048356 -0.047333 -0.021696 -0.044723 0.027638 -0.035428 -0.051617 -0.0020113 -0.061293 0.024705 -0.011133 -0.051313 -0.099001 0.11167 -0.00087839 0.033337 0.10803 -0.0092672 0.099724 0.053945 -0.06169 0.029229 -0.0428 -0.0092513 0.016535 0.063076 -0.030026 0.018876 -0.11428 0.039517 0.039205 0.0069488 0.023112 0.071831 0.078531 0.071901 0.0051333 0.00080152 -0.087175 -0.033704 -0.047712 -0.052375 0.029217 0.069515 0.091281 -0.017526 -0.029793 0.0013726 -0.0004739 0.011799 0.086694 0.041788 0.033385 -0.076543 -0.0037893 0.028385 0.11794 0.019625 0.058362 -0.11857 -0.066613 0.084281 0.041588 0.036873 0.10061 0.0063197 0.063514 0.047209 -0.0044983 -0.0023697 -0.026716 -0.066721 
13 0.10327 0.071191 0.1053 -0.088756 0.080557 0.05273 -0.055373 -0.029251 -0.023368 -0.03927 -0.090363 -0.082323 -0.028861 0.014413 -0.079373 -0.074098 0.063215 0.090997 -0.053992 -0.031073 -0.0272 0.026678 0.03348 0.041138 -0.12854 -0.041745 -0.062269 0.054943 0.007864 -0.051006 -0.017834 -0.044663 0.036739 -0.043335 -0.058269 -0.0068068 -0.072189 0.024366 -0.010572 -0.056529 -0.10453 0.12569 -0.002313 0.03391 0.11596 -0.013722 0.11421 0.052168 -0.06071 0.032034 -0.051905 -0.0074855 0.0194 0.075846 -0.029738 0.022152 -0.12351 0.046396 0.039877 0.0042479 0.028769 0.079544 0.08775 0.078724 0.00023738 0.0051638 -0.090581 -0.046162 -0.04542 -0.059141 0.035976 0.081915 0.098566 -0.014793 -0.034734 0.00018574 0.0013068 0.0085625 0.10079 0.051823 0.039849 -0.085748 -0.014012 0.037927 0.13451 0.025 0.068382 -0.12954 -0.072575 0.087811 0.049424 0.040203 0.1086 6.5492e-05 0.074719 0.054749 -0.0092316 -0.0088215 -0.028122 -0.081513 
11:14:28] 0.21462 0.1485 0.21161 -0.17503 0.16924 0.11547 -0.12046 -0.059041 -0.050454 -0.0802 -0.18138 -0.17425 -0.060443 0.033378 -0.16208 -0.14976 0.13789 0.18503 -0.10883 -0.06049 -0.060045 0.061641 0.064655 0.082946 -0.26362 -0.086417 -0.13559 0.11677 0.012685 -0.10453 -0.042384 -0.094827 0.071911 -0.084502 -0.11983 -0.0070338 -0.1455 0.049724 -0.020547 -0.11625 -0.22348 0.25041 -0.0083619 0.072084 0.24197 -0.025276 0.23459 0.11273 -0.13261 0.0623 -0.10249 -0.018391 0.043074 0.15188 -0.0613 0.04668 -0.25273 0.093366 0.08498 0.006801 0.051887 0.16205 0.18537 0.16363 0.001878 0.0059974 -0.19431 -0.088192 -0.10031 -0.11399 0.074864 0.16026 0.2059 -0.03371 -0.069477 -0.0008742 -0.0011072 0.015644 0.2079 0.099307 0.082155 -0.17051 -0.019679 0.075832 0.27464 0.051801 0.13755 -0.26673 -0.14553 0.18301 0.094023 0.07846 0.22549 0.0037291 0.15229 0.11027 -0.015285 -0.011929 -0.064845 -0.16216 
11:47:25] 0.24407 0.16963 0.24216 -0.1985 0.19291 0.13172 -0.13891 -0.067767 -0.057765 -0.091494 -0.20632 -0.19858 -0.069522 0.038774 -0.18641 -0.17155 0.15714 0.21189 -0.12309 -0.069822 -0.06803 0.070461 0.073622 0.09432 -0.30017 -0.098862 -0.15368 0.13356 0.014239 -0.12044 -0.04731 -0.10891 0.082489 -0.096879 -0.1363 -0.0081627 -0.16529 0.057029 -0.022921 -0.13368 -0.25347 0.28636 -0.0081514 0.083127 0.27559 -0.028483 0.26756 0.12755 -0.15068 0.071194 -0.11793 -0.019981 0.050057 0.17315 -0.068941 0.053594 -0.28771 0.1077 0.098253 0.0084807 0.059344 0.18468 0.21127 0.18626 0.0019224 0.005626 -0.22141 -0.10126 -0.11431 -0.13009 0.086176 0.18413 0.23565 -0.03809 -0.078295 -0.0011183 -0.00013486 0.017116 0.23766 0.11249 0.093537 -0.19511 -0.02265 0.086604 0.31322 0.060022 0.1568 -0.30322 -0.16637 0.20881 0.10915 0.090682 0.2569 0.0047335 0.17324 0.12606 -0.01776 -0.014952 -0.072523 -0.18429 
8 0.11734 0.078597 0.1159 -0.093341 0.09438 0.066877 -0.071976 -0.030359 -0.027188 -0.049047 -0.10473 -0.098732 -0.033107 0.020349 -0.086763 -0.078572 0.079678 0.10722 -0.063384 -0.037084 -0.034273 0.03156 0.035334 0.040965 -0.14642 -0.051158 -0.073884 0.063771 0.0032264 -0.062098 -0.020382 -0.053164 0.042286 -0.042537 -0.065074 -0.0012486 -0.083169 0.026021 -0.0089347 -0.065437 -0.12501 0.1352 -0.0041376 0.044373 0.13411 -0.010106 0.1342 0.060023 -0.07171 0.033737 -0.060531 -0.010732 0.018785 0.087364 -0.034071 0.023227 -0.13568 0.055013 0.044635 0.006035 0.031877 0.086898 0.10101 0.088428 -0.0026735 0.0021631 -0.11138 -0.051327 -0.055068 -0.0608 0.042695 0.087885 0.11175 -0.018041 -0.037671 -0.0039633 0.0003238 0.012303 0.11764 0.054243 0.045009 -0.098709 -0.011038 0.046362 0.14914 0.026381 0.077418 -0.14895 -0.079778 0.10425 0.054789 0.048691 0.12307 0.00035976 0.082126 0.066019 -0.011263 -0.010249 -0.033771 -0.092722 
20 0.11232 0.078739 0.11213 -0.091499 0.086018 0.060815 -0.061268 -0.030855 -0.028441 -0.042707 -0.092485 -0.087902 -0.029735 0.018187 -0.085605 -0.079765 0.072253 0.095169 -0.05397 -0.031036 -0.031808 0.032803 0.033044 0.042197 -0.13689 -0.046743 -0.071136 0.058844 0.0057295 -0.055648 -0.022709 -0.04886 0.036136 -0.044065 -0.061083 -0.0055176 -0.076504 0.023544 -0.0084418 -0.059328 -0.11839 0.12982 -0.0020801 0.037326 0.12585 -0.014154 0.12176 0.058084 -0.070567 0.030464 -0.055594 -0.0069364 0.022571 0.079984 -0.033243 0.024111 -0.13185 0.047409 0.045194 0.0039047 0.029125 0.085502 0.097153 0.082477 -0.00037896 0.005177 -0.099959 -0.046056 -0.05095 -0.057422 0.040994 0.085721 0.10912 -0.016957 -0.033818 -0.0014986 0.002409 0.0086897 0.10659 0.050286 0.045535 -0.089746 -0.010043 0.039619 0.14526 0.025726 0.073419 -0.14017 -0.077479 0.095409 0.047894 0.040582 0.11858 0.0031731 0.078423 0.055262 -0.0095382 -0.0057997 -0.033997 -0.081603 
7 0.071604 0.05239 0.071215 -0.05693 0.06194 0.042808 -0.03956 -0.023093 -0.015905 -0.026959 -0.063359 -0.061146 -0.02322 0.0070078 -0.057671 -0.047182 0.047942 0.06385 -0.032772 -0.024188 -0.021615 0.016878 0.02161 0.023825 -0.093385 -0.028014 -0.04849 0.040612 0.0065505 -0.031486 -0.012581 -0.032495 0.0262 -0.029548 -0.036586 -0.0037325 -0.049468 0.012402 -0.0063611 -0.044899 -0.081263 0.086209 -0.0023796 0.028544 0.086816 -0.0080743 0.082797 0.036286 -0.048028 0.018198 -0.040092 -0.010232 0.011522 0.051292 -0.019484 0.013904 -0.08748 0.034316 0.028139 0.0073652 0.017237 0.058264 0.064086 0.056317 -0.0036756 0.003135 -0.070061 -0.027478 -0.034178 -0.035751 0.021195 0.058439 0.074498 -0.014179 -0.028676 -0.0010811 -0.0035835 0.0076846 0.073693 0.032096 0.024765 -0.055391 -0.0036853 0.028393 0.095987 0.016889 0.052352 -0.090803 -0.047274 0.058477 0.027779 0.025789 0.077523 0.00309 0.054191 0.037728 -0.0017265 -0.0056709 -0.025225 -0.054426 
11:44:06] 0.25855 0.18001 0.25379 -0.20998 0.20422 0.13867 -0.14671 -0.071232 -0.06055 -0.096944 -0.21826 -0.21018 -0.072401 0.040088 -0.19696 -0.18113 0.16587 0.22392 -0.12995 -0.072895 -0.071473 0.074063 0.078103 0.10017 -0.31646 -0.10414 -0.16236 0.14069 0.015304 -0.1269 -0.05086 -0.11509 0.086663 -0.1017 -0.14456 -0.0081705 -0.17418 0.058935 -0.025121 -0.14158 -0.2682 0.30247 -0.0094442 0.087186 0.29105 -0.030175 0.2829 0.13488 -0.15856 0.074995 -0.12396 -0.02213 0.051984 0.18231 -0.072067 0.056317 -0.30351 0.11363 0.10262 0.0084688 0.062578 0.19555 0.22349 0.19704 0.0022749 0.0053333 -0.23357 -0.10658 -0.12055 -0.13751 0.089781 0.19362 0.24842 -0.040065 -0.082618 -0.0012863 -0.00092222 0.017858 0.25002 0.11969 0.10002 -0.2067 -0.023645 0.092754 0.33105 0.063132 0.16619 -0.32092 -0.17541 0.21971 0.11592 0.095375 0.27033 0.0041161 0.18328 0.13325 -0.018601 -0.01633 -0.07783 -0.19448 
15 0.11741 0.078986 0.11643 -0.095632 0.093997 0.067996 -0.069408 -0.035581 -0.029523 -0.045402 -0.10003 -0.10035 -0.030154 0.020809 -0.092434 -0.085559 0.075503 0.1015 -0.058245 -0.031835 -0.032522 0.036329 0.037293 0.046939 -0.14617 -0.047499 -0.072318 0.066072 0.011593 -0.053175 -0.025258 -0.052716 0.043161 -0.044995 -0.065788 -0.0037699 -0.081908 0.026654 -0.015513 -0.060999 -0.12076 0.13656 -0.0018056 0.043594 0.12989 -0.011774 0.13026 0.065377 -0.076053 0.031666 -0.052133 -0.0091529 0.025544 0.084768 -0.033977 0.024648 -0.13829 0.054685 0.046971 0.0024554 0.026561 0.093922 0.10246 0.092962 -0.0014498 0.0048456 -0.10926 -0.045028 -0.05289 -0.063482 0.037986 0.086666 0.11463 -0.015434 -0.039581 -0.00020549 0.0018828 0.0070966 0.10913 0.057803 0.050022 -0.096372 -0.0093467 0.047205 0.15524 0.026889 0.078023 -0.14809 -0.082089 0.097186 0.048176 0.04113 0.12227 0.0068333 0.086829 0.062368 -0.0053234 -0.0072809 -0.033731 -0.084624 
23 0.16382 0.11421 0.16443 -0.13297 0.12942 0.091943 -0.094222 -0.042798 -0.043783 -0.062515 -0.1398 -0.13551 -0.048987 0.025929 -0.12886 -0.11386 0.10558 0.13939 -0.085844 -0.043558 -0.040566 0.050421 0.051459 0.066192 -0.2084 -0.067653 -0.1017 0.093292 0.012632 -0.082149 -0.031472 -0.075906 0.058144 -0.066726 -0.096016 0.0011911 -0.11233 0.032396 -0.011089 -0.095821 -0.17159 0.19791 -0.006417 0.05884 0.18779 -0.022021 0.18188 0.088934 -0.10119 0.047734 -0.078589 -0.01049 0.02901 0.11531 -0.042308 0.035216 -0.19483 0.075157 0.063513 0.0072655 0.04038 0.12889 0.14669 0.12439 -0.00051483 0.0057716 -0.15142 -0.067219 -0.076611 -0.091422 0.058074 0.12332 0.16006 -0.026682 -0.050871 0.0035833 0.0019114 0.012507 0.16334 0.078741 0.063954 -0.13089 -0.009282 0.059681 0.21715 0.041701 0.10742 -0.20671 -0.11068 0.14165 0.07435 0.062795 0.17819 -0.0019615 0.12139 0.085407 -0.013063 -0.0074194 -0.044138 -0.12331 
9 0.10029 0.069769 0.094184 -0.083741 0.077343 0.048486 -0.051667 -0.023455 -0.023148 -0.034097 -0.084972 -0.083109 -0.031627 0.012756 -0.07389 -0.066816 0.059559 0.089798 -0.045153 -0.027616 -0.023549 0.026132 0.033282 0.040885 -0.12285 -0.038714 -0.05764 0.054396 0.0094465 -0.051002 -0.018954 -0.043424 0.028539 -0.041344 -0.051552 -0.0039743 -0.061683 0.024326 -0.0076653 -0.056976 -0.1052 0.10985 -0.003267 0.030945 0.10744 -0.013337 0.10301 0.054953 -0.056825 0.030706 -0.051087 -0.0079896 0.015549 0.064832 -0.025807 0.018571 -0.11499 0.048244 0.041274 0.00083635 0.022683 0.077901 0.088219 0.072374 0.0053054 0.0073208 -0.090106 -0.036059 -0.050619 -0.050589 0.038888 0.072336 0.091043 -0.01092 -0.036166 0.0025502 0.0034009 0.011727 0.096542 0.043825 0.042487 -0.080318 -0.013541 0.033556 0.12771 0.022318 0.060013 -0.11863 -0.067709 0.083159 0.047072 0.034974 0.099461 0.001018 0.069298 0.049285 -0.0034696 -0.001872 -0.028931 -0.078306 
11:45:09] 0.24026 0.16752 0.2363 -0.19699 0.18972 0.13008 -0.13667 -0.066417 -0.057081 -0.089293 -0.20413 -0.19493 -0.069294 0.038372 -0.18363 -0.16877 0.15425 0.20828 -0.11995 -0.067809 -0.066847 0.069717 0.072433 0.09312 -0.29618 -0.096984 -0.15055 0.131 0.014337 -0.11778 -0.046681 -0.10624 0.08108 -0.094668 -0.13558 -0.0071996 -0.16217 0.055533 -0.022945 -0.13195 -0.24917 0.27963 -0.008129 0.081386 0.27112 -0.026787 0.26292 0.126 -0.14743 0.070266 -0.11631 -0.020147 0.047709 0.17044 -0.068343 0.051959 -0.28187 0.10565 0.096078 0.0082122 0.057878 0.18151 0.20806 0.18367 0.0015774 0.0052004 -0.21744 -0.098674 -0.11293 -0.12774 0.083906 0.18076 0.23171 -0.038136 -0.077652 -0.00045836 -0.00019792 0.016401 0.23333 0.11223 0.092459 -0.19206 -0.021493 0.085502 0.30791 0.057869 0.15373 -0.29875 -0.1636 0.20498 0.10604 0.088375 0.25148 0.0042903 0.17099 0.12445 -0.017484 -0.014725 -0.071696 -0.18095 
11:44:00] 0.256 0.17799 0.25252 -0.20847 0.20216 0.13786 -0.14505 -0.069945 -0.059796 -0.095595 -0.2165 -0.20845 -0.072381 0.0391 -0.19492 -0.17981 0.16506 0.22307 -0.1287 -0.072344 -0.070982 0.073669 0.07692 0.099074 -0.31363 -0.10332 -0.16037 0.13968 0.015147 -0.12654 -0.050772 -0.11337 0.086029 -0.1009 -0.14371 -0.0085203 -0.17257 0.058397 -0.024643 -0.13935 -0.26591 0.29799 -0.0091452 0.086492 0.28832 -0.029659 0.27999 0.13378 -0.15722 0.074069 -0.12302 -0.021298 0.052264 0.18104 -0.070689 0.056347 -0.30153 0.11288 0.10171 0.0082781 0.061986 0.1937 0.22081 0.19545 0.0018538 0.0055987 -0.23142 -0.10469 -0.11899 -0.13686 0.089122 0.19168 0.24596 -0.039374 -0.081999 -0.00062744 -0.0011843 0.017795 0.24899 0.1185 0.098594 -0.20514 -0.023339 0.091201 0.32804 0.061601 0.16429 -0.3175 -0.17414 0.21798 0.11424 0.093731 0.26892 0.0046813 0.18132 0.13288 -0.018367 -0.015736 -0.07558 -0.19271 
21 0.08655 0.058161 0.084329 -0.073743 0.066386 0.044793 -0.053139 -0.020026 -0.022122 -0.035442 -0.072969 -0.068685 -0.027265 0.012872 -0.070911 -0.058883 0.054132 0.078225 -0.041999 -0.025259 -0.0222 0.027755 0.023896 0.031462 -0.10497 -0.030875 -0.054041 0.050037 0.007534 -0.042673 -0.017092 -0.039916 0.0296 -0.034226 -0.047609 -0.0026719 -0.057427 0.021006 -0.0089534 -0.046435 -0.090014 0.099841 -0.0048786 0.028479 0.097697 -0.0089724 0.095414 0.046258 -0.051829 0.028542 -0.043706 -0.0039954 0.016569 0.061787 -0.025631 0.022714 -0.10148 0.034392 0.038304 0.001966 0.023142 0.065695 0.077194 0.065167 7.9745e-05 0.0025715 -0.078094 -0.034083 -0.041581 -0.047175 0.029145 0.063072 0.084099 -0.012393 -0.027574 0.0019562 -0.00016615 0.0053164 0.085477 0.040652 0.033988 -0.069147 -0.0083809 0.029589 0.11644 0.020162 0.056509 -0.11204 -0.058386 0.072706 0.038974 0.032802 0.094815 -0.00089694 0.061114 0.047869 -0.0040863 -0.0037195 -0.02875 -0.062127 
3 0.087589 0.063806 0.083008 -0.07087 0.065544 0.050118 -0.052841 -0.026566 -0.02179 -0.028098 -0.0762 -0.072613 -0.028936 0.010917 -0.068345 -0.059476 0.058527 0.073973 -0.046188 -0.027883 -0.027408 0.025362 0.029445 0.037441 -0.10397 -0.036684 -0.056106 0.049893 0.0022138 -0.045361 -0.01815 -0.037247 0.027674 -0.036491 -0.051359 0.001848 -0.057992 0.021964 -0.011705 -0.044273 -0.08837 0.10584 0.00053663 0.034054 0.1 -0.0076209 0.092388 0.049642 -0.057167 0.024985 -0.041262 -0.0054852 0.018218 0.058855 -0.029289 0.019012 -0.10346 0.038871 0.031947 0.0077811 0.021507 0.061504 0.074654 0.064289 -0.00055885 0.0045509 -0.078986 -0.031019 -0.04194 -0.045073 0.02744 0.063713 0.08497 -0.0091769 -0.029523 -0.0014983 -0.00059144 0.0066924 0.082261 0.042379 0.036506 -0.066218 -0.0091699 0.029852 0.10901 0.022922 0.052212 -0.10855 -0.057604 0.074661 0.039496 0.034511 0.096375 0.00353 0.064278 0.045471 -0.0015342 -0.0014761 -0.023364 -0.064266 
17 0.11872 0.086938 0.11637 -0.098863 0.093763 0.065444 -0.072639 -0.031085 -0.028088 -0.042908 -0.10453 -0.096337 -0.03297 0.020231 -0.09275 -0.085325 0.078709 0.10644 -0.060999 -0.033515 -0.031485 0.037337 0.035083 0.046475 -0.1491 -0.050257 -0.077637 0.067368 0.0084559 -0.062988 -0.023272 -0.053825 0.043464 -0.045177 -0.067017 -0.0040334 -0.078184 0.024388 -0.0128 -0.067625 -0.12514 0.14035 -0.0025134 0.039565 0.14053 -0.011771 0.13366 0.064021 -0.073841 0.035194 -0.059175 -0.014553 0.02761 0.085325 -0.030357 0.027149 -0.14241 0.054022 0.046133 0.0057438 0.031693 0.091616 0.10819 0.09334 0.0015629 0.0065496 -0.10853 -0.047451 -0.057651 -0.062418 0.046049 0.090723 0.11399 -0.018691 -0.03593 0.0020478 0.0019519 0.0081967 0.11688 0.053592 0.047738 -0.097449 -0.0089915 0.041909 0.15515 0.028427 0.07972 -0.15056 -0.079461 0.10228 0.051324 0.043052 0.12687 0.0025829 0.085689 0.062077 -0.010609 -0.0064711 -0.034672 -0.090453 
9.x|dist=15|params=fuzzy|raw_sig=4:49+15:0:1460:65535,6:mss,nop,ws,sok,ts:df,ecn:0 0.17605 0.1223 0.17435 -0.14348 0.13898 0.095017 -0.099847 -0.048744 -0.041471 -0.065526 -0.1487 -0.14301 -0.05 0.027935 -0.134 -0.12315 0.11345 0.15211 -0.088487 -0.049186 -0.04913 0.051783 0.052971 0.06817 -0.21611 -0.071403 -0.11076 0.095371 0.010108 -0.086694 -0.034868 -0.077413 0.059059 -0.069454 -0.098704 -0.0054605 -0.11909 0.040664 -0.016555 -0.096342 -0.18373 0.20618 -0.0068246 0.058878 0.19819 -0.019648 0.19209 0.091218 -0.10802 0.050774 -0.084188 -0.014814 0.035725 0.12413 -0.049757 0.038687 -0.20642 0.077179 0.07047 0.0055232 0.042289 0.1332 0.15269 0.13414 0.0019216 0.004406 -0.15962 -0.072971 -0.082696 -0.093921 0.061632 0.13172 0.1685 -0.027884 -0.056966 -0.00085949 -0.00080243 0.013121 0.17062 0.081657 0.067461 -0.14067 -0.015594 0.062517 0.22497 0.042538 0.11187 -0.21828 -0.11923 0.14986 0.077955 0.064556 0.18455 0.0032869 0.1251 0.090542 -0.012402 -0.010538 -0.053206 -0.1322 
VPN|raw_mtu=1460 0.23046 0.1595 0.22685 -0.18632 0.18104 0.1225 -0.12946 -0.062584 -0.053678 -0.085985 -0.19533 -0.18711 -0.064881 0.036091 -0.17526 -0.1613 0.14779 0.20002 -0.11534 -0.064256 -0.0646 0.065102 0.069407 0.089356 -0.28314 -0.092801 -0.14457 0.12555 0.013647 -0.11177 -0.044928 -0.10156 0.076687 -0.090674 -0.12806 -0.0085237 -0.15447 0.052919 -0.021768 -0.1259 -0.24009 0.26942 -0.0086112 0.077238 0.25964 -0.025797 0.25156 0.12047 -0.14206 0.066959 -0.11139 -0.019199 0.046437 0.16264 -0.064325 0.05075 -0.26997 0.10152 0.09208 0.0083053 0.056107 0.17391 0.19949 0.17457 0.0013807 0.005786 -0.20881 -0.094553 -0.10716 -0.12225 0.080633 0.17209 0.22119 -0.036395 -0.074241 -0.0010778 -0.0008448 0.016673 0.22307 0.10697 0.088292 -0.18337 -0.02117 0.081633 0.29407 0.055226 0.14732 -0.28608 -0.15605 0.19642 0.10217 0.084497 0.24135 0.0056321 0.16375 0.11869 -0.015674 -0.013907 -0.068599 -0.17285 
11:18:38] 0.24234 0.16775 0.23859 -0.19657 0.19083 0.12989 -0.13649 -0.067402 -0.056694 -0.090079 -0.20414 -0.19588 -0.068924 0.037076 -0.18293 -0.17006 0.15487 0.20834 -0.12107 -0.06847 -0.067941 0.069478 0.072703 0.093122 -0.29626 -0.096901 -0.15267 0.13125 0.014223 -0.11776 -0.048774 -0.10631 0.081153 -0.094601 -0.13452 -0.0078284 -0.16264 0.055001 -0.022952 -0.13166 -0.25206 0.28176 -0.0088774 0.081226 0.27306 -0.027816 0.26386 0.12545 -0.14861 0.070773 -0.11604 -0.019836 0.048247 0.17182 -0.067576 0.05175 -0.28351 0.10639 0.095914 0.0072297 0.058899 0.18235 0.20947 0.1836 0.0016334 0.0052017 -0.21794 -0.09949 -0.11202 -0.12919 0.084696 0.18162 0.2317 -0.036339 -0.077703 -0.00044395 -0.0011496 0.017479 0.23427 0.11333 0.093142 -0.19276 -0.022049 0.085111 0.31008 0.058876 0.15553 -0.30027 -0.16274 0.20517 0.10775 0.088502 0.25283 0.0037392 0.17227 0.12606 -0.017403 -0.014801 -0.072788 -0.18298 
11:15:03] 0.23632 0.16489 0.23281 -0.19234 0.18585 0.12621 -0.13376 -0.063693 -0.055546 -0.08806 -0.19905 -0.19123 -0.066753 0.0373 -0.17857 -0.16513 0.15118 0.20405 -0.11737 -0.065669 -0.065634 0.067837 0.070137 0.091085 -0.28921 -0.095752 -0.14907 0.12774 0.01306 -0.11564 -0.047093 -0.10362 0.079933 -0.093076 -0.13234 -0.007901 -0.15917 0.054146 -0.022592 -0.1283 -0.24427 0.27466 -0.0095782 0.079331 0.2655 -0.025896 0.25684 0.12235 -0.14459 0.068785 -0.11301 -0.01959 0.047316 0.16817 -0.066438 0.051858 -0.27642 0.10332 0.094172 0.0075606 0.056448 0.1787 0.20354 0.17966 0.0020102 0.0049115 -0.21353 -0.097759 -0.10953 -0.12531 0.081674 0.17638 0.22663 -0.037116 -0.075788 -0.00042946 -0.00066123 0.017073 0.22914 0.10872 0.090332 -0.18695 -0.02127 0.082749 0.3005 0.056719 0.15008 -0.29383 -0.15925 0.1997 0.10361 0.086075 0.24607 0.0047078 0.1672 0.12125 -0.016295 -0.013082 -0.069938 -0.17729 
16 0.09345 0.060702 0.085498 -0.069068 0.069202 0.048815 -0.050378 -0.024854 -0.020524 -0.037893 -0.073636 -0.073599 -0.021914 0.016743 -0.070005 -0.061064 0.06015 0.077663 -0.046305 -0.026201 -0.023626 0.022572 0.025122 0.033086 -0.11182 -0.037315 -0.054454 0.047289 0.0082165 -0.043445 -0.016395 -0.039865 0.033783 -0.034938 -0.052152 -0.0050315 -0.060448 0.0233 -0.011881 -0.049099 -0.091106 0.10059 -0.0026955 0.029545 0.10276 -0.009688 0.098809 0.048664 -0.059208 0.025074 -0.043381 -0.0069058 0.019304 0.064323 -0.025067 0.015592 -0.10819 0.036713 0.031887 0.0045416 0.022134 0.068854 0.07729 0.068352 -0.0032598 0.0018318 -0.079142 -0.038743 -0.039968 -0.050191 0.031734 0.065332 0.088715 -0.014091 -0.027995 -0.0024392 -0.0020199 0.0075968 0.084678 0.043356 0.038519 -0.069969 -0.0080134 0.032463 0.11329 0.017593 0.053428 -0.11141 -0.063977 0.077994 0.038873 0.033898 0.092381 0.0038391 0.061845 0.0481 -0.0036283 -0.0052411 -0.027103 -0.070424 
11 0.42392 0.29321 0.41744 -0.34542 0.33313 0.23093 -0.24131 -0.11524 -0.10264 -0.15812 -0.35955 -0.34726 -0.12255 0.064264 -0.32447 -0.29975 0.27646 0.3693 -0.21153 -0.12233 -0.12106 0.12088 0.12832 0.16539 -0.52293 -0.17466 -0.2675 0.23304 0.023867 -0.20958 -0.081864 -0.18891 0.14525 -0.16802 -0.23828 -0.012949 -0.2846 0.098332 -0.040787 -0.23481 -0.44398 0.49911 -0.016391 0.14204 0.47902 -0.049093 0.46641 0.22442 -0.26341 0.12211 -0.20657 -0.037778 0.08783 0.30269 -0.1173 0.094755 -0.50028 0.18639 0.16975 0.014314 0.10192 0.32374 0.36914 0.32607 0.0020236 0.0080536 -0.38358 -0.17553 -0.20007 -0.22871 0.14992 0.3208 0.40804 -0.068838 -0.13889 0.00026853 0.0011849 0.032056 0.41114 0.19862 0.1647 -0.34236 -0.03984 0.15337 0.54773 0.10213 0.27013 -0.52919 -0.28746 0.36065 0.18663 0.15683 0.44608 0.0076852 0.30298 0.22087 -0.029611 -0.027989 -0.12842 -0.32009 
11:49:45] 0.24934 0.17314 0.24581 -0.20308 0.19696 0.13379 -0.14049 -0.068206 -0.059642 -0.09253 -0.21165 -0.2035 -0.071263 0.039773 -0.19001 -0.17592 0.16119 0.21644 -0.12444 -0.070865 -0.070281 0.072248 0.074308 0.096497 -0.30616 -0.099998 -0.15697 0.13558 0.01566 -0.12258 -0.049149 -0.11074 0.084242 -0.098483 -0.13976 -0.0087357 -0.16876 0.057618 -0.023062 -0.13662 -0.25899 0.29196 -0.010275 0.083986 0.28185 -0.028881 0.27253 0.12994 -0.1536 0.072453 -0.11969 -0.021314 0.049298 0.17671 -0.06935 0.055428 -0.29387 0.11021 0.099263 0.0090459 0.06101 0.18805 0.21545 0.19049 0.0018286 0.0065035 -0.22546 -0.10216 -0.11692 -0.13305 0.086667 0.18729 0.23971 -0.039843 -0.080278 0.00021481 0.00010519 0.016769 0.24238 0.11596 0.095901 -0.20043 -0.022212 0.087994 0.3188 0.058851 0.16013 -0.3108 -0.16954 0.21319 0.11079 0.092376 0.26276 0.0041248 0.17763 0.12967 -0.018854 -0.016357 -0.074417 -0.18823 
11:49:34] 0.24232 0.16833 0.23928 -0.19699 0.19045 0.12992 -0.13604 -0.065741 -0.057804 -0.08924 -0.20538 -0.19724 -0.068413 0.037078 -0.18469 -0.16972 0.15534 0.20986 -0.12117 -0.068865 -0.06865 0.06952 0.072472 0.093705 -0.29649 -0.097392 -0.15232 0.13177 0.014355 -0.11882 -0.048029 -0.10699 0.082041 -0.095567 -0.13546 -0.0080236 -0.16349 0.055157 -0.023084 -0.13264 -0.25167 0.28378 -0.0096957 0.081879 0.27454 -0.027947 0.26443 0.12719 -0.14877 0.071095 -0.11635 -0.020266 0.04862 0.17189 -0.067356 0.052744 -0.28557 0.10705 0.096803 0.0074714 0.059457 0.18271 0.20941 0.18506 0.0016315 0.0061053 -0.21903 -0.099467 -0.11302 -0.12976 0.08413 0.18073 0.23293 -0.038153 -0.078463 -0.00043598 -0.00080307 0.017226 0.23615 0.11293 0.093305 -0.1943 -0.021038 0.086533 0.31044 0.05811 0.1555 -0.30119 -0.16383 0.20694 0.10786 0.088832 0.25465 0.0030185 0.17304 0.12576 -0.018025 -0.016472 -0.071665 -0.18302 
12 0.091121 0.063735 0.090013 -0.072405 0.074801 0.049138 -0.052053 -0.025987 -0.021495 -0.034759 -0.077096 -0.07098 -0.027364 0.019366 -0.071554 -0.066572 0.059959 0.079945 -0.045299 -0.029777 -0.025886 0.026423 0.027337 0.034578 -0.11619 -0.037779 -0.057437 0.050998 0.0022469 -0.046031 -0.018989 -0.042156 0.035694 -0.03651 -0.049999 -0.0022514 -0.058676 0.020904 -0.012344 -0.04289 -0.09637 0.10357 0.001703 0.030828 0.099247 -0.0095653 0.096846 0.04904 -0.057993 0.025623 -0.043019 -0.0076295 0.019515 0.060883 -0.020056 0.02054 -0.10371 0.041119 0.034515 0.0029276 0.023547 0.070856 0.0794 0.067371 0.0026402 0.005438 -0.082534 -0.0397 -0.045098 -0.051079 0.033566 0.068222 0.087195 -0.012962 -0.02775 -0.0023326 -0.0010623 0.0070118 0.089096 0.042665 0.036867 -0.073256 -0.010061 0.030815 0.1159 0.022136 0.058921 -0.11276 -0.06469 0.082382 0.043208 0.029704 0.09388 -0.00077644 0.062064 0.044199 -0.00408 -0.0061074 -0.022741 -0.066577 
11:25:04] 0.19624 0.13713 0.19388 -0.15989 0.15503 0.10625 -0.11131 -0.05333 -0.046227 -0.072363 -0.16644 -0.15981 -0.055701 0.030505 -0.15005 -0.13746 0.12593 0.16971 -0.098832 -0.054956 -0.054286 0.056859 0.059235 0.076183 -0.24154 -0.079416 -0.12412 0.10715 0.012119 -0.096491 -0.038727 -0.086261 0.066344 -0.077813 -0.10965 -0.0064456 -0.13234 0.045689 -0.019058 -0.10707 -0.20539 0.22879 -0.0076604 0.066153 0.22084 -0.022473 0.21412 0.10223 -0.12091 0.057654 -0.095218 -0.01641 0.040012 0.13928 -0.055744 0.042419 -0.23065 0.085984 0.078625 0.0063028 0.046902 0.14931 0.16981 0.14938 0.0016987 0.0041802 -0.17755 -0.081444 -0.092723 -0.10459 0.068509 0.14793 0.18938 -0.030875 -0.063195 -0.00084906 -0.001354 0.014014 0.19044 0.090735 0.075266 -0.15645 -0.017588 0.06939 0.25086 0.047683 0.12581 -0.24461 -0.13296 0.1678 0.085939 0.071608 0.20495 0.0048635 0.14062 0.10158 -0.013328 -0.011732 -0.058866 -0.14725 
11:15:02] 0.23554 0.16469 0.23365 -0.19238 0.18636 0.12603 -0.13414 -0.064252 -0.055598 -0.088117 -0.19912 -0.19193 -0.06691 0.03711 -0.17892 -0.16609 0.15018 0.20512 -0.11828 -0.065756 -0.065599 0.067543 0.070729 0.091155 -0.28997 -0.095819 -0.1488 0.1278 0.013137 -0.1159 -0.046863 -0.10343 0.079346 -0.093074 -0.13204 -0.0072216 -0.15969 0.053864 -0.022872 -0.12844 -0.24505 0.2748 -0.009095 0.079489 0.26591 -0.026187 0.25739 0.12253 -0.14502 0.067879 -0.11311 -0.019756 0.047945 0.16829 -0.066479 0.051696 -0.2764 0.10407 0.093738 0.007977 0.055916 0.1785 0.20346 0.18026 0.0019281 0.0055433 -0.21321 -0.09852 -0.10985 -0.12589 0.082996 0.17629 0.22705 -0.037955 -0.074865 -0.00024082 -0.00072851 0.017275 0.22896 0.10983 0.089629 -0.18671 -0.02124 0.083735 0.30156 0.056084 0.15118 -0.29366 -0.15882 0.20016 0.10402 0.087008 0.24665 0.00464 0.16664 0.12157 -0.015794 -0.013607 -0.070721 -0.17747 
10:50:25] 0.15198 0.10478 0.15008 -0.12316 0.11964 0.081629 -0.087624 -0.042103 -0.036198 -0.056387 -0.12849 -0.12311 -0.043198 0.024786 -0.11643 -0.10751 0.097626 0.13099 -0.076906 -0.043682 -0.042693 0.043872 0.045796 0.059295 -0.18746 -0.061944 -0.0959 0.083162 0.0094679 -0.074745 -0.028958 -0.067481 0.051248 -0.060497 -0.084198 -0.0048094 -0.10169 0.035983 -0.014221 -0.082937 -0.15723 0.17819 -0.0056383 0.051246 0.1722 -0.018653 0.1661 0.080307 -0.094342 0.043318 -0.073698 -0.012014 0.030833 0.10746 -0.042455 0.033975 -0.17883 0.066364 0.061038 0.0050916 0.037506 0.11485 0.13124 0.11548 0.0015659 0.0038128 -0.13743 -0.062431 -0.070543 -0.081406 0.053959 0.11492 0.14646 -0.023345 -0.049384 -0.001508 0.00054073 0.010553 0.14759 0.070455 0.057211 -0.12129 -0.014512 0.053964 0.19447 0.037264 0.096846 -0.18927 -0.10384 0.12929 0.067705 0.055554 0.15985 0.0031744 0.10841 0.077113 -0.010256 -0.009927 -0.045271 -0.11397 
9.x|dist=17|params=fuzzy|raw_sig=4:47+17:0:1460:65535,6:mss,nop,ws,sok,ts:df,ecn:0 0.17966 0.12498 0.17825 -0.14679 0.14211 0.097148 -0.10209 -0.049839 -0.042304 -0.066936 -0.15205 -0.14618 -0.051059 0.02863 -0.1372 -0.12569 0.11616 0.15535 -0.090613 -0.050299 -0.050166 0.053101 0.054156 0.069758 -0.22098 -0.073048 -0.11324 0.097454 0.010209 -0.088569 -0.035641 -0.079192 0.060142 -0.070841 -0.10092 -0.0057085 -0.12174 0.041593 -0.016954 -0.098357 -0.18796 0.21063 -0.0068815 0.060212 0.20265 -0.020311 0.19631 0.093402 -0.11045 0.051891 -0.085979 -0.015234 0.036678 0.12717 -0.050742 0.039687 -0.21095 0.0789 0.072333 0.0055106 0.043127 0.136 0.15619 0.13715 0.0018722 0.0042655 -0.16315 -0.074615 -0.084558 -0.095844 0.063043 0.13472 0.17234 -0.028538 -0.058174 -0.0009017 -0.00080246 0.013413 0.17429 0.083375 0.06885 -0.14373 -0.016062 0.063703 0.23013 0.043541 0.11423 -0.22311 -0.12171 0.15324 0.079651 0.066009 0.18864 0.0033276 0.12785 0.092198 -0.012652 -0.010922 -0.054515 -0.13516 
11:19:04] 0.2295 0.1601 0.22688 -0.18788 0.18065 0.12336 -0.13083 -0.061508 -0.054392 -0.086082 -0.1948 -0.18582 -0.06524 0.036357 -0.1748 -0.16078 0.148 0.19782 -0.11599 -0.063866 -0.064422 0.06569 0.068435 0.088482 -0.28135 -0.093005 -0.14496 0.12355 0.014804 -0.11182 -0.045217 -0.10104 0.076704 -0.090274 -0.1275 -0.0070917 -0.1554 0.053949 -0.0219 -0.12552 -0.23934 0.26814 -0.0088169 0.07723 0.25937 -0.027039 0.25207 0.11882 -0.14136 0.066618 -0.1106 -0.018633 0.045818 0.16299 -0.064612 0.049463 -0.27037 0.10174 0.091386 0.0069782 0.055349 0.17355 0.19926 0.17543 0.001437 0.0059298 -0.20753 -0.095249 -0.10672 -0.12159 0.081174 0.17287 0.22031 -0.03511 -0.07319 -0.00058751 -0.0010862 0.017505 0.22272 0.10662 0.088016 -0.18268 -0.020615 0.081894 0.29418 0.05538 0.14672 -0.28595 -0.15475 0.19598 0.10128 0.084266 0.24083 0.0045291 0.16333 0.11919 -0.01535 -0.01447 -0.069498 -0.17379 
11:49:46] 0.24887 0.17278 0.24462 -0.20162 0.19596 0.13303 -0.13991 -0.067615 -0.059337 -0.091488 -0.21106 -0.20277 -0.070494 0.038872 -0.18874 -0.17458 0.15974 0.2162 -0.12443 -0.070476 -0.07003 0.071732 0.074155 0.09583 -0.30382 -0.10029 -0.15595 0.13498 0.015105 -0.12266 -0.048497 -0.10953 0.083659 -0.09807 -0.13855 -0.00811 -0.16807 0.057134 -0.023375 -0.13686 -0.25827 0.29014 -0.0092977 0.084213 0.28031 -0.028071 0.27153 0.12988 -0.15258 0.07239 -0.11965 -0.021516 0.04927 0.1766 -0.068768 0.054983 -0.29254 0.10939 0.099287 0.007979 0.061077 0.18677 0.21487 0.18905 0.0024337 0.0065106 -0.22387 -0.1013 -0.1159 -0.13254 0.086562 0.18629 0.23866 -0.039542 -0.080499 -0.00080795 -0.00042657 0.017355 0.24123 0.11514 0.09631 -0.19913 -0.022638 0.087661 0.3182 0.059804 0.15872 -0.30871 -0.16838 0.21222 0.11023 0.091595 0.26043 0.0037631 0.17697 0.12866 -0.017934 -0.015913 -0.074287 -0.18696 
11:18:34] 0.23371 0.16202 0.23079 -0.18963 0.18414 0.1258 -0.13174 -0.064694 -0.054599 -0.086959 -0.19772 -0.18917 -0.066093 0.036046 -0.17738 -0.16406 0.14993 0.201 -0.1173 -0.066026 -0.065542 0.067338 0.070582 0.090487 -0.28673 -0.094453 -0.1472 0.12705 0.012841 -0.11379 -0.047384 -0.10339 0.078016 -0.091112 -0.12869 -0.0078638 -0.15763 0.05343 -0.022485 -0.12739 -0.24331 0.27214 -0.0085227 0.077451 0.26339 -0.027209 0.25528 0.12204 -0.14341 0.068681 -0.11162 -0.018792 0.046752 0.16594 -0.065326 0.05088 -0.27364 0.10302 0.092903 0.0070518 0.056182 0.17611 0.2012 0.17753 0.0016224 0.005197 -0.2105 -0.096629 -0.108 -0.12447 0.081666 0.17465 0.22414 -0.035175 -0.074457 -0.00040867 -0.0014627 0.016407 0.22673 0.10838 0.090119 -0.18531 -0.021688 0.083205 0.29874 0.056491 0.15005 -0.28968 -0.15782 0.19851 0.10437 0.085192 0.24466 0.0041989 0.16599 0.12108 -0.016537 -0.014874 -0.070053 -0.17671 
55 0.092229 0.067162 0.09631 -0.07593 0.079549 0.050492 -0.053367 -0.02684 -0.0209 -0.040037 -0.082816 -0.077484 -0.024266 0.014412 -0.072327 -0.06435 0.063807 0.083431 -0.047363 -0.031149 -0.023857 0.029027 0.029474 0.037814 -0.11676 -0.036376 -0.057141 0.052458 0.0082333 -0.046055 -0.017267 -0.045102 0.034257 -0.03617 -0.050797 0.00098157 -0.065678 0.023001 -0.010509 -0.054115 -0.097837 0.10815 -0.0013778 0.029649 0.1067 -0.010643 0.10256 0.049082 -0.054079 0.026982 -0.041607 -0.0072439 0.020161 0.064679 -0.025649 0.018555 -0.11432 0.041902 0.0403 0.0051869 0.024031 0.074678 0.081828 0.071744 -0.0005223 -0.0012564 -0.085402 -0.039276 -0.047788 -0.053433 0.03244 0.074752 0.087449 -0.013133 -0.033039 0.0017125 0.00075648 0.0069668 0.096621 0.042661 0.037187 -0.077205 -0.01092 0.035535 0.12309 0.022261 0.059923 -0.1156 -0.061785 0.0821 0.039745 0.038618 0.099252 0.0051051 0.069901 0.048302 -0.0045489 -0.0056506 -0.029157 -0.075733 
10:49:54] 0.076361 0.052751 0.073989 -0.062361 0.058449 0.039635 -0.043073 -0.019179 -0.018253 -0.027502 -0.064091 -0.061341 -0.021383 0.012189 -0.05794 -0.05366 0.04859 0.065525 -0.037131 -0.021405 -0.021419 0.022496 0.022701 0.028218 -0.093245 -0.030178 -0.04813 0.039903 0.0043518 -0.036033 -0.015163 -0.033334 0.025512 -0.031115 -0.041752 -0.0027256 -0.051294 0.01722 -0.0062361 -0.041124 -0.078905 0.088422 -0.0040501 0.026332 0.086727 -0.0087818 0.083628 0.040503 -0.046154 0.021754 -0.037324 -0.0063024 0.014629 0.053295 -0.020767 0.016938 -0.089664 0.033738 0.030142 0.0032128 0.018277 0.056824 0.065054 0.057573 0.00023657 0.0020845 -0.066866 -0.030522 -0.035887 -0.040333 0.025868 0.056916 0.073626 -0.012395 -0.024489 -0.00034045 0.00052988 0.0061522 0.074363 0.034919 0.029704 -0.060192 -0.006234 0.027832 0.095741 0.017865 0.048375 -0.095042 -0.050517 0.064787 0.033542 0.028207 0.078846 0.00064371 0.053773 0.03903 -0.005125 -0.0047039 -0.023596 -0.056808 
11:23:14] 0.23352 0.16178 0.23088 -0.18936 0.18436 0.12559 -0.13149 -0.063869 -0.055031 -0.088047 -0.1978 -0.18932 -0.066173 0.036332 -0.1787 -0.16454 0.14978 0.20174 -0.11763 -0.064715 -0.066441 0.066725 0.071314 0.091543 -0.28797 -0.095394 -0.14704 0.1281 0.014096 -0.11593 -0.04579 -0.10435 0.078917 -0.092502 -0.13108 -0.006876 -0.15751 0.053618 -0.02372 -0.12835 -0.24301 0.2722 -0.0077973 0.077609 0.26401 -0.027049 0.25545 0.12177 -0.14376 0.068755 -0.11205 -0.019735 0.047817 0.16627 -0.064734 0.052083 -0.27456 0.10269 0.09475 0.0083335 0.055303 0.17787 0.20293 0.179 0.00099552 0.0057372 -0.21159 -0.096873 -0.10939 -0.12436 0.080721 0.1751 0.22546 -0.036945 -0.075801 -0.0011209 -0.00089987 0.017076 0.2275 0.10958 0.089632 -0.18729 -0.021749 0.082775 0.29943 0.056408 0.15107 -0.29052 -0.15895 0.1994 0.10397 0.085806 0.24547 0.0054191 0.16639 0.12033 -0.01687 -0.014623 -0.069873 -0.17615 
11:23:15] 0.23072 0.15886 0.22765 -0.18683 0.18038 0.12348 -0.12979 -0.062165 -0.053841 -0.085718 -0.19428 -0.1863 -0.065671 0.036103 -0.17622 -0.1627 0.14764 0.19914 -0.11483 -0.064303 -0.063228 0.063743 0.069221 0.089092 -0.28352 -0.093654 -0.14449 0.1259 0.013683 -0.11406 -0.045752 -0.10134 0.077407 -0.091454 -0.1296 -0.0072639 -0.15485 0.052692 -0.023525 -0.12582 -0.23908 0.26793 -0.009317 0.078012 0.26052 -0.026985 0.25203 0.12011 -0.14207 0.067943 -0.11014 -0.019211 0.046779 0.16294 -0.0652 0.051564 -0.2714 0.1009 0.092868 0.0077699 0.055362 0.17556 0.19985 0.17565 0.0024555 0.0056551 -0.20774 -0.094893 -0.10758 -0.12274 0.08066 0.1726 0.22137 -0.035599 -0.074366 -0.001131 -0.00016683 0.016121 0.22371 0.10808 0.087643 -0.18369 -0.021481 0.080761 0.29453 0.055854 0.14883 -0.28754 -0.1563 0.19564 0.10255 0.085073 0.24164 0.0045209 0.16397 0.11897 -0.015755 -0.013761 -0.06888 -0.17391 
11:35:41] 0.22347 0.15516 0.22015 -0.18213 0.17685 0.12044 -0.12646 -0.061423 -0.053315 -0.083892 -0.18858 -0.18129 -0.06288 0.035822 -0.17106 -0.15686 0.14335 0.19354 -0.11132 -0.062616 -0.062685 0.065212 0.067724 0.08724 -0.27489 -0.089713 -0.1412 0.12099 0.013225 -0.11022 -0.043713 -0.098387 0.075276 -0.08787 -0.12541 -0.007287 -0.15112 0.051778 -0.021555 -0.12261 -0.23221 0.26165 -0.0082027 0.075295 0.25207 -0.026523 0.2443 0.11759 -0.13759 0.065206 -0.10729 -0.018788 0.044538 0.15904 -0.063514 0.049097 -0.26225 0.097741 0.089183 0.0070616 0.053049 0.16898 0.19354 0.17074 0.0017701 0.0051786 -0.2023 -0.092468 -0.1039 -0.11944 0.07777 0.16747 0.21488 -0.034671 -0.071582 -0.0020019 -0.00085635 0.016787 0.21688 0.10376 0.086069 -0.17819 -0.020255 0.078805 0.28661 0.053936 0.14246 -0.27801 -0.15099 0.1909 0.099414 0.081943 0.23377 0.0039105 0.15819 0.11512 -0.015222 -0.013761 -0.067456 -0.168 
10:59:31] 0.13373 0.091938 0.13155 -0.109 0.10358 0.070438 -0.075821 -0.037214 -0.032624 -0.050586 -0.11332 -0.10881 -0.038473 0.020275 -0.10206 -0.092228 0.084806 0.11433 -0.067567 -0.037141 -0.037307 0.0406 0.039604 0.051518 -0.16439 -0.054123 -0.083775 0.07259 0.0078879 -0.063963 -0.027189 -0.059041 0.045557 -0.052255 -0.074591 -0.004772 -0.090254 0.030465 -0.013436 -0.073445 -0.13835 0.15641 -0.0052534 0.045019 0.15061 -0.0142 0.14694 0.07122 -0.082409 0.036916 -0.064624 -0.011061 0.025649 0.094981 -0.036258 0.029472 -0.15691 0.058107 0.053655 0.0040988 0.03279 0.10072 0.11562 0.10072 0.00099575 0.0043287 -0.12046 -0.053276 -0.060244 -0.072278 0.046699 0.099793 0.12802 -0.021418 -0.043173 -0.0018373 0.00025323 0.0099351 0.13033 0.06265 0.051588 -0.10535 -0.0099845 0.047466 0.16958 0.032474 0.085326 -0.16566 -0.090139 0.11286 0.058619 0.050066 0.13919 0.0018596 0.095199 0.068292 -0.0092965 -0.0091284 -0.039665 -0.10023 
10 0.19906 0.1346 0.19424 -0.16277 0.15374 0.10535 -0.11226 -0.052733 -0.046611 -0.073944 -0.16318 -0.15707 -0.057211 0.031785 -0.14823 -0.13732 0.1262 0.17034 -0.098344 -0.055144 -0.05431 0.057649 0.060752 0.073987 -0.24107 -0.082734 -0.12177 0.10934 0.0098059 -0.095573 -0.037198 -0.091501 0.06387 -0.077182 -0.10837 -0.0053163 -0.13247 0.044 -0.018915 -0.10652 -0.20387 0.22863 -0.007489 0.063816 0.22323 -0.026871 0.21582 0.10746 -0.12193 0.056082 -0.096478 -0.019543 0.037973 0.13939 -0.051936 0.038395 -0.23327 0.087406 0.077231 0.0066345 0.050779 0.14903 0.17317 0.14894 0.0019045 0.0046133 -0.17816 -0.078863 -0.092437 -0.10433 0.071279 0.15164 0.19 -0.032033 -0.063296 -0.0045613 -0.0051959 0.016616 0.1922 0.089415 0.077628 -0.15611 -0.016875 0.073083 0.25059 0.044982 0.12649 -0.24395 -0.1319 0.16563 0.087174 0.072705 0.20206 0.00010107 0.14321 0.10117 -0.015129 -0.011136 -0.059318 -0.15113 
mod=ip 0.13405 0.091295 0.1312 -0.1094 0.10351 0.07117 -0.074581 -0.037021 -0.031569 -0.049998 -0.11379 -0.10941 -0.039041 0.019107 -0.10242 -0.092963 0.086233 0.11446 -0.067158 -0.037209 -0.036142 0.039103 0.040387 0.053087 -0.16331 -0.053857 -0.08356 0.072519 0.0077371 -0.064595 -0.02696 -0.058909 0.043492 -0.052533 -0.072922 -0.0038761 -0.092192 0.031491 -0.013971 -0.07238 -0.13987 0.15584 -0.004374 0.042683 0.15109 -0.013102 0.14725 0.072504 -0.082491 0.039125 -0.06444 -0.010492 0.028609 0.095065 -0.037987 0.027796 -0.15673 0.059216 0.052633 0.0029393 0.032636 0.098658 0.11644 0.099854 0.0014518 0.0037206 -0.12118 -0.054396 -0.062697 -0.070803 0.048164 0.10046 0.12865 -0.019697 -0.043253 -0.00023236 -0.00096834 0.0098015 0.12848 0.061106 0.050672 -0.10539 -0.01108 0.048185 0.16978 0.033241 0.087504 -0.16665 -0.089324 0.11323 0.058771 0.049271 0.14017 0.0032302 0.094127 0.069331 -0.0090687 -0.0058804 -0.040612 -0.10109 
11:49:35] 0.25086 0.17458 0.24667 -0.20457 0.19707 0.13413 -0.14072 -0.067864 -0.059812 -0.092839 -0.21296 -0.20433 -0.071337 0.038964 -0.19089 -0.1753 0.16106 0.21737 -0.12602 -0.072397 -0.070137 0.072692 0.074463 0.095898 -0.30778 -0.1006 -0.15751 0.13607 0.01576 -0.12386 -0.048286 -0.11115 0.085164 -0.099437 -0.14002 -0.0084917 -0.16978 0.057153 -0.024173 -0.13799 -0.2599 0.29337 -0.0095961 0.08479 0.28364 -0.029076 0.27457 0.13205 -0.15356 0.073301 -0.12128 -0.021852 0.049775 0.17707 -0.070176 0.05529 -0.29635 0.11099 0.10019 0.0078519 0.06248 0.19002 0.21616 0.19172 0.0018733 0.0066439 -0.22633 -0.10257 -0.11711 -0.13472 0.086891 0.18698 0.24183 -0.039826 -0.080117 -0.00064916 -0.00039633 0.016676 0.24344 0.11647 0.095567 -0.20053 -0.022434 0.089065 0.32068 0.059781 0.16132 -0.31258 -0.16948 0.21382 0.11159 0.092269 0.26398 0.0033509 0.179 0.1306 -0.018611 -0.016623 -0.07486 -0.18859 
ttl|raw_hits=0,1,1,1 0.18076 0.12484 0.17745 -0.14589 0.14185 0.096413 -0.10158 -0.04921 -0.042759 -0.066995 -0.15284 -0.14616 -0.050724 0.028506 -0.13721 -0.12615 0.11582 0.15662 -0.090347 -0.051306 -0.050095 0.052053 0.053666 0.070077 -0.22119 -0.072489 -0.1135 0.097219 0.011009 -0.088206 -0.03603 -0.079721 0.059864 -0.071053 -0.10087 -0.0062682 -0.12152 0.04154 -0.016724 -0.098938 -0.18786 0.21036 -0.0063498 0.061105 0.20317 -0.020159 0.19694 0.094356 -0.11124 0.052102 -0.087164 -0.015598 0.036831 0.12748 -0.050504 0.038922 -0.21073 0.079443 0.071609 0.0054033 0.043777 0.13606 0.15585 0.13774 0.0012693 0.0053143 -0.16247 -0.074551 -0.083514 -0.095386 0.063476 0.13534 0.17296 -0.027655 -0.058602 -0.00074514 -0.00068441 0.013121 0.17411 0.082897 0.069008 -0.14417 -0.016661 0.063875 0.23119 0.043684 0.11594 -0.22323 -0.12241 0.15296 0.080387 0.06608 0.18824 0.0040709 0.12815 0.093001 -0.012099 -0.010678 -0.053892 -0.13469 
38 0.1034 0.067666 0.10196 -0.085635 0.080765 0.052938 -0.056392 -0.029421 -0.023548 -0.03887 -0.08802 -0.083294 -0.03052 0.017954 -0.07935 -0.072148 0.064817 0.087638 -0.055914 -0.03188 -0.029581 0.028748 0.031427 0.043316 -0.12898 -0.040816 -0.068008 0.053619 0.0039603 -0.051963 -0.019514 -0.047196 0.034412 -0.040557 -0.056277 -0.0068116 -0.066569 0.021874 -0.011084 -0.056599 -0.1042 0.12112 -0.0045905 0.03432 0.11437 -0.012698 0.10952 0.054653 -0.06499 0.028807 -0.052227 -0.01093 0.023307 0.072863 -0.028755 0.022131 -0.12094 0.046553 0.040352 0.0043999 0.027857 0.081046 0.090575 0.080134 -0.0023215 0.0060347 -0.088607 -0.041801 -0.046933 -0.055771 0.031979 0.07568 0.095299 -0.014429 -0.033339 -0.0009887 -0.00055851 0.0060694 0.097492 0.046783 0.041378 -0.083225 -0.0082996 0.039487 0.13488 0.026087 0.069388 -0.12832 -0.066567 0.084455 0.047472 0.034685 0.11153 0.00088677 0.073146 0.053083 -0.009176 -0.0051208 -0.030378 -0.077981 
59 0.096618 0.067486 0.096581 -0.07576 0.074614 0.052655 -0.055432 -0.026071 -0.02315 -0.035405 -0.08274 -0.075352 -0.026531 0.01594 -0.071439 -0.066403 0.064225 0.082567 -0.04847 -0.028344 -0.026091 0.028233 0.027378 0.035435 -0.11539 -0.038806 -0.061774 0.054311 0.006367 -0.049166 -0.017209 -0.042974 0.03003 -0.039124 -0.052523 -0.0031825 -0.063442 0.023347 -0.011039 -0.054781 -0.10167 0.1125 -0.0054335 0.032394 0.10702 -0.011964 0.10601 0.048181 -0.058763 0.026917 -0.046523 -0.0088397 0.020642 0.067394 -0.025337 0.022493 -0.11483 0.042618 0.040047 0.0036802 0.024941 0.070495 0.083398 0.072619 -0.00028704 0.0023007 -0.088772 -0.040328 -0.043242 -0.04894 0.031991 0.071282 0.089907 -0.012722 -0.029456 0.00035599 0.0018042 0.0046855 0.091726 0.042076 0.038614 -0.074659 -0.0096977 0.033896 0.12281 0.023359 0.059261 -0.12035 -0.066036 0.083237 0.042836 0.033299 0.099461 0.0035428 0.066728 0.048343 -0.0087437 -0.00498 -0.03021 -0.073901 
11:14:02] 0.22584 0.15582 0.22284 -0.18303 0.17876 0.12049 -0.12708 -0.061848 -0.053263 -0.08363 -0.19044 -0.18272 -0.064111 0.035848 -0.17068 -0.15734 0.14378 0.19566 -0.11371 -0.064296 -0.062994 0.064789 0.068568 0.087506 -0.27688 -0.09163 -0.14238 0.12269 0.012996 -0.11111 -0.044019 -0.099335 0.075323 -0.089564 -0.12608 -0.0069 -0.15275 0.051848 -0.022585 -0.12229 -0.23408 0.26269 -0.0081796 0.075583 0.25483 -0.026677 0.24701 0.11808 -0.13917 0.06465 -0.10799 -0.018976 0.045343 0.1593 -0.064289 0.049399 -0.26499 0.098517 0.090161 0.0074234 0.054526 0.17085 0.19553 0.17178 0.0013869 0.006124 -0.20363 -0.093175 -0.10532 -0.1199 0.078409 0.16787 0.21676 -0.034802 -0.072786 -0.0005319 -0.0016061 0.016476 0.21902 0.1046 0.085963 -0.17955 -0.020523 0.079687 0.28865 0.053884 0.1445 -0.28113 -0.15174 0.1925 0.098578 0.082755 0.23693 0.0040094 0.16063 0.11591 -0.016101 -0.012238 -0.067786 -0.16993 
