264 100
[2023/03/23 0.11576 -0.10242 0.12385 0.075935 -0.089748 -0.01538 0.007477 0.032097 0.026057 0.023594 0.13016 0.058776 0.1618 0.16677 -0.14167 0.11678 0.1612 0.087089 0.093889 -0.068475 -0.0064041 0.043386 -0.13641 -0.11187 -0.03935 0.090526 0.098694 0.029434 0.087547 0.096479 0.023104 -0.16335 -0.16854 -0.085202 -0.17487 -0.11227 -0.050526 0.082781 -0.028402 0.038813 0.21639 0.12814 -0.07188 -0.0028752 -0.13057 -0.13004 0.27539 0.067623 0.20885 -0.04897 0.015435 0.12445 -0.055596 -0.18294 -0.058607 -0.064404 0.089358 0.10249 0.06002 -0.22591 -0.092402 0.098718 0.047678 -0.23034 -0.05143 -0.17255 -0.061709 -0.18784 -0.12238 -0.044006 0.076222 0.040722 0.14506 0.088924 0.011551 -0.053817 -0.10217 -0.16561 -0.068479 -0.060073 -0.11832 0.16306 -0.068435 -0.13361 0.00591 -0.36584 -0.0017915 -0.010736 -0.12617 -0.084754 -0.10309 -0.023407 0.09311 0.25586 0.050433 -0.13174 -0.086161 -0.11801 -0.015655 -0.069622 
</s> 0 0 0 0 0 0 0 0 0 0 0 0 0 0 0 0 0 0 0 0 0 0 0 0 0 0 0 0 0 0 0 0 0 0 0 0 0 0 0 0 0 0 0 0 0 0 0 0 0 0 0 0 0 0 0 0 0 0 0 0 0 0 0 0 0 0 0 0 0 0 0 0 0 0 0 0 0 0 0 0 0 0 0 0 0 0 0 0 0 0 0 0 0 0 0 0 0 0 0 0 
or 0.10983 -0.097372 0.11697 0.071397 -0.084436 -0.014651 0.0074787 0.030261 0.024286 0.022656 0.12367 0.055619 0.15281 0.15806 -0.13433 0.10984 0.15248 0.082779 0.088411 -0.064142 -0.0055783 0.040383 -0.12843 -0.10586 -0.037534 0.085791 0.093288 0.027882 0.083014 0.091114 0.021772 -0.15452 -0.15931 -0.080806 -0.16578 -0.10614 -0.047682 0.078157 -0.026649 0.036864 0.20415 0.12135 -0.067658 -0.0032497 -0.12309 -0.12304 0.26045 0.063889 0.19783 -0.0469 0.014869 0.11839 -0.053225 -0.17293 -0.055422 -0.061214 0.084644 0.097373 0.056768 -0.2141 -0.087989 0.092852 0.0452 -0.2179 -0.048115 -0.16378 -0.058002 -0.17779 -0.11536 -0.04128 0.072708 0.039053 0.13798 0.084269 0.010848 -0.051037 -0.096451 -0.15714 -0.064413 -0.057117 -0.11275 0.15341 -0.064453 -0.12654 0.00522 -0.34606 -0.0014208 -0.010505 -0.11996 -0.080243 -0.098217 -0.022285 0.088217 0.24208 0.04758 -0.1249 -0.081671 -0.11154 -0.015184 -0.065306 
modem|raw_mtu=1500 0.10373 -0.091598 0.11041 0.067055 -0.079199 -0.013707 0.0076993 0.028197 0.02326 0.02141 0.11652 0.051691 0.14394 0.14963 -0.1268 0.10419 0.14382 0.078709 0.083433 -0.06089 -0.0049787 0.037499 -0.1217 -0.10032 -0.034774 0.080983 0.088258 0.026502 0.078064 0.08613 0.020874 -0.14567 -0.15034 -0.075851 -0.15639 -0.10028 -0.044867 0.073694 -0.02533 0.034658 0.19351 0.11468 -0.06388 -0.0033925 -0.11647 -0.11616 0.2463 0.060262 0.18719 -0.044078 0.013744 0.11186 -0.050329 -0.16314 -0.052576 -0.058196 0.079606 0.092501 0.053901 -0.20263 -0.083733 0.087581 0.043355 -0.20568 -0.04569 -0.15421 -0.054972 -0.16756 -0.10876 -0.038652 0.069066 0.036533 0.13011 0.079889 0.010662 -0.048532 -0.091439 -0.14833 -0.060819 -0.054011 -0.10654 0.14477 -0.061262 -0.12009 0.004606 -0.32655 -0.0012896 -0.009779 -0.11356 -0.075779 -0.092638 -0.02137 0.083285 0.22897 0.044666 -0.11791 -0.076799 -0.10556 -0.014731 -0.060987 
OS 0.064631 -0.061607 0.072812 0.040589 -0.05012 -0.0084903 0.0057628 0.020307 0.015725 0.015461 0.078036 0.035841 0.096103 0.09963 -0.083003 0.068268 0.093986 0.051477 0.055089 -0.040291 -0.0029602 0.025291 -0.080137 -0.064355 -0.025231 0.052449 0.057552 0.017929 0.05122 0.054076 0.014926 -0.09616 -0.098128 -0.050786 -0.10414 -0.065962 -0.029648 0.046456 -0.01541 0.023818 0.1281 0.077133 -0.041984 -0.0036413 -0.074558 -0.076908 0.16111 0.038415 0.12238 -0.02841 0.0074601 0.071714 -0.034339 -0.10567 -0.036227 -0.038149 0.054092 0.058823 0.034152 -0.13306 -0.055919 0.056398 0.025015 -0.13217 -0.03187 -0.10237 -0.036971 -0.10828 -0.072047 -0.027562 0.042538 0.023079 0.084375 0.05203 0.0078317 -0.029975 -0.056632 -0.097768 -0.041553 -0.034373 -0.06885 0.092597 -0.039528 -0.07946 0.003096 -0.2139 0.00013303 -0.0064619 -0.071537 -0.049646 -0.06276 -0.011553 0.054719 0.15096 0.032183 -0.079976 -0.052598 -0.068005 -0.011806 -0.042324 
X|dist=0|params=generic 0.062762 -0.055591 0.067552 0.041162 -0.048283 -0.008724 0.0041676 0.017144 0.013967 0.012491 0.070487 0.031383 0.087114 0.090408 -0.076889 0.062428 0.086731 0.047204 0.050545 -0.037043 -0.0033331 0.023776 -0.0733 -0.060688 -0.021378 0.048572 0.053683 0.015577 0.047616 0.051593 0.012641 -0.08851 -0.090961 -0.046518 -0.09529 -0.061216 -0.026643 0.04407 -0.014902 0.021741 0.11654 0.069335 -0.038736 -0.0019765 -0.070024 -0.070386 0.14849 0.036158 0.11323 -0.02616 0.0082377 0.067915 -0.030488 -0.099194 -0.030746 -0.03486 0.048631 0.055917 0.0324 -0.12221 -0.049842 0.052766 0.026042 -0.12407 -0.027401 -0.092952 -0.033666 -0.10138 -0.065519 -0.023674 0.041927 0.022615 0.07826 0.048247 0.0064635 -0.028188 -0.055032 -0.089394 -0.037049 -0.032506 -0.064599 0.087407 -0.03659 -0.071744 0.0027567 -0.19772 -0.00061005 -0.0058961 -0.068163 -0.045682 -0.056387 -0.012373 0.050276 0.13772 0.027148 -0.071889 -0.046711 -0.064269 -0.0087209 -0.037567 
fuzzy|raw_sig=4:64+0:0:1460:65535,6:mss,nop,ws,nop,nop,ts,sok,eol+1:df,ecn:0 0.097689 -0.086557 0.10404 0.063499 -0.075333 -0.013212 0.0071664 0.026868 0.0221 0.020175 0.10998 0.049465 0.13538 0.14063 -0.11922 0.097755 0.13543 0.073566 0.078905 -0.057361 -0.0044413 0.035885 -0.11412 -0.094157 -0.033189 0.076203 0.082995 0.024834 0.073506 0.080969 0.019624 -0.13726 -0.14149 -0.071817 -0.14722 -0.09448 -0.041932 0.06931 -0.023964 0.032798 0.18149 0.10776 -0.059995 -0.0030591 -0.10929 -0.10926 0.23162 0.056388 0.17589 -0.041325 0.0127 0.10518 -0.047539 -0.15393 -0.04894 -0.054324 0.075297 0.08702 0.050058 -0.19032 -0.078523 0.082619 0.04038 -0.19368 -0.04301 -0.14589 -0.051741 -0.15772 -0.10246 -0.037037 0.064184 0.034634 0.12245 0.074872 0.0094294 -0.045034 -0.085534 -0.13975 -0.057534 -0.050534 -0.10002 0.13625 -0.057267 -0.11254 0.00474 -0.30724 -0.0013383 -0.009508 -0.10651 -0.071255 -0.087192 -0.019744 0.078291 0.21489 0.042109 -0.11116 -0.072692 -0.099275 -0.014045 -0.057879 
SIT|raw_mtu=1480 0.087247 -0.076851 0.092665 0.056666 -0.066929 -0.011597 0.0070866 0.024238 0.019333 0.017871 0.098222 0.043558 0.12103 0.12574 -0.10623 0.087299 0.12107 0.066149 0.069934 -0.051001 -0.0039044 0.03165 -0.10217 -0.084357 -0.0297 0.068031 0.073819 0.022172 0.065249 0.072797 0.01722 -0.12274 -0.12648 -0.0637 -0.13177 -0.083957 -0.037849 0.061804 -0.020888 0.029134 0.16276 0.096277 -0.054124 -0.0026403 -0.097795 -0.097583 0.20721 0.050248 0.15713 -0.03737 0.011719 0.094297 -0.042416 -0.13696 -0.043774 -0.049332 0.066654 0.077921 0.045048 -0.16973 -0.070788 0.074058 0.036579 -0.17282 -0.038045 -0.12976 -0.046116 -0.14107 -0.091836 -0.032822 0.057718 0.030756 0.10908 0.066909 0.0088994 -0.040253 -0.076701 -0.12453 -0.051443 -0.044766 -0.089286 0.12138 -0.051197 -0.10084 0.0039106 -0.27467 -0.0010582 -0.0077902 -0.095085 -0.063273 -0.077892 -0.017193 0.069726 0.1923 0.037952 -0.098688 -0.06446 -0.088948 -0.012369 -0.051538 
days 0.22692 -0.20038 0.23818 0.14629 -0.17383 -0.02988 0.015332 0.060399 0.048638 0.04615 0.25332 0.11416 0.31292 0.32399 -0.27676 0.2266 0.31233 0.16976 0.18114 -0.13055 -0.012424 0.083731 -0.26273 -0.21572 -0.077218 0.17619 0.19098 0.055966 0.16984 0.18589 0.044956 -0.317 -0.32673 -0.16398 -0.34014 -0.21579 -0.097814 0.15904 -0.055041 0.074224 0.41741 0.24803 -0.13794 -0.0062418 -0.25213 -0.2524 0.53406 0.13133 0.40533 -0.096121 0.031313 0.24511 -0.10855 -0.35524 -0.11284 -0.12684 0.17344 0.19874 0.11589 -0.43917 -0.17985 0.19084 0.092268 -0.44666 -0.097211 -0.33636 -0.11776 -0.36414 -0.23743 -0.083348 0.14798 0.081648 0.28335 0.17232 0.020994 -0.10556 -0.19852 -0.32133 -0.13191 -0.11686 -0.23075 0.31348 -0.13257 -0.25755 0.012194 -0.70891 -0.0040592 -0.021866 -0.24621 -0.1649 -0.20069 -0.046534 0.17994 0.49703 0.097107 -0.25536 -0.1686 -0.22806 -0.03093 -0.1328 
hrs 0.19612 -0.17038 0.20542 0.1269 -0.15246 -0.027158 0.013191 0.052592 0.041224 0.039109 0.21972 0.096606 0.26906 0.2803 -0.23608 0.19388 0.26883 0.14619 0.15555 -0.11599 -0.01046 0.072858 -0.22584 -0.18741 -0.066907 0.15366 0.16544 0.047934 0.14631 0.16193 0.038776 -0.27453 -0.2819 -0.14231 -0.29307 -0.18827 -0.082822 0.13624 -0.047389 0.064736 0.35918 0.21364 -0.12052 -0.0065504 -0.21743 -0.21769 0.46123 0.11121 0.34832 -0.085458 0.026214 0.21155 -0.095653 -0.30647 -0.097548 -0.11072 0.14987 0.17444 0.10175 -0.37709 -0.15514 0.16621 0.081312 -0.38585 -0.08496 -0.28848 -0.10392 -0.31288 -0.20398 -0.073363 0.13088 0.068742 0.24466 0.1501 0.017851 -0.089967 -0.1719 -0.27549 -0.11459 -0.1005 -0.19904 0.27201 -0.11256 -0.22397 0.0081134 -0.61335 -0.002875 -0.018457 -0.21019 -0.1426 -0.1748 -0.040316 0.15585 0.42679 0.082898 -0.22038 -0.1447 -0.19827 -0.028683 -0.11597 
min 0.17939 -0.15842 0.19196 0.11746 -0.13925 -0.024737 0.013011 0.049926 0.039473 0.038351 0.20266 0.090107 0.24668 0.25704 -0.2179 0.17863 0.24607 0.13284 0.14422 -0.10656 -0.0066291 0.066552 -0.20853 -0.17134 -0.059615 0.13865 0.15197 0.046677 0.13393 0.1469 0.034578 -0.24989 -0.25602 -0.1313 -0.26786 -0.17321 -0.074792 0.12549 -0.043119 0.060329 0.33186 0.19563 -0.1089 -0.0047015 -0.19853 -0.20031 0.42235 0.10257 0.32009 -0.0766 0.02469 0.19222 -0.086866 -0.2814 -0.08979 -0.099656 0.13722 0.15953 0.092845 -0.34674 -0.14098 0.15077 0.072996 -0.35404 -0.077532 -0.2678 -0.093728 -0.29022 -0.18865 -0.068607 0.1182 0.062334 0.22313 0.13643 0.018691 -0.082394 -0.15432 -0.25599 -0.10313 -0.092527 -0.18364 0.25023 -0.10325 -0.20567 0.010756 -0.56133 -0.0016726 -0.017986 -0.19567 -0.13126 -0.15971 -0.035821 0.14339 0.39132 0.076608 -0.20311 -0.13285 -0.18186 -0.024639 -0.10619 
(modulo 0.1783 -0.15859 0.18919 0.11615 -0.13774 -0.024209 0.012991 0.048978 0.039777 0.036753 0.20143 0.090884 0.24804 0.25671 -0.21694 0.17737 0.24639 0.1341 0.14373 -0.10377 -0.0094288 0.065368 -0.20864 -0.17108 -0.059976 0.13954 0.15229 0.044876 0.13379 0.14759 0.034986 -0.2498 -0.25757 -0.13117 -0.26772 -0.1715 -0.076893 0.1273 -0.044587 0.058683 0.32992 0.19671 -0.10983 -0.00538 -0.1988 -0.19919 0.42157 0.10331 0.31891 -0.07607 0.022992 0.19259 -0.087005 -0.28072 -0.089815 -0.098899 0.13784 0.15894 0.092578 -0.34717 -0.1431 0.15008 0.073843 -0.3527 -0.078498 -0.26675 -0.093532 -0.28854 -0.18755 -0.066679 0.11798 0.063094 0.2232 0.13717 0.017331 -0.084039 -0.1553 -0.25477 -0.10394 -0.092756 -0.18369 0.24896 -0.10457 -0.20467 0.0093375 -0.56134 -0.0031213 -0.016636 -0.19564 -0.12984 -0.15934 -0.035531 0.14229 0.3927 0.076445 -0.20279 -0.13267 -0.18052 -0.025558 -0.10584 
Hz 0.15941 -0.14263 0.17045 0.10328 -0.12271 -0.021943 0.012205 0.045166 0.036257 0.033451 0.18009 0.081674 0.21999 0.23014 -0.19563 0.16079 0.22274 0.12128 0.12821 -0.093527 -0.0069544 0.05769 -0.18736 -0.15344 -0.053352 0.12379 0.13689 0.041638 0.12138 0.13279 0.032132 -0.22291 -0.23058 -0.11735 -0.24038 -0.15496 -0.068147 0.11403 -0.04005 0.052726 0.29679 0.17612 -0.098269 -0.0046254 -0.17934 -0.17893 0.37815 0.092691 0.28729 -0.068129 0.022528 0.17329 -0.07881 -0.25054 -0.078892 -0.089851 0.12236 0.14304 0.083663 -0.31191 -0.12855 0.13577 0.06532 -0.31765 -0.070968 -0.23875 -0.082963 -0.25942 -0.16811 -0.058977 0.10652 0.057482 0.20143 0.1227 0.014808 -0.074698 -0.13961 -0.22866 -0.093593 -0.081917 -0.16458 0.22335 -0.09254 -0.18245 0.0078547 -0.50219 -0.0019597 -0.015769 -0.17501 -0.11759 -0.14174 -0.033236 0.12703 0.3505 0.068006 -0.18128 -0.11766 -0.1622 -0.023697 -0.093246 
49 0.18166 -0.15824 0.19349 0.11743 -0.14127 -0.022921 0.015635 0.049512 0.03743 0.039597 0.20156 0.091097 0.25007 0.26198 -0.22053 0.18135 0.25303 0.13678 0.14707 -0.10496 -0.010117 0.064226 -0.20927 -0.17425 -0.058647 0.14044 0.15582 0.045495 0.13551 0.14954 0.0343 -0.25157 -0.26109 -0.13481 -0.27247 -0.17539 -0.079587 0.12598 -0.045654 0.05996 0.33236 0.1975 -0.11119 -0.0072153 -0.20377 -0.20079 0.42858 0.10572 0.32382 -0.07655 0.026629 0.19779 -0.087983 -0.28617 -0.08998 -0.098051 0.1408 0.16011 0.093404 -0.35342 -0.14711 0.15427 0.075901 -0.35724 -0.079405 -0.27163 -0.092976 -0.29149 -0.18896 -0.067512 0.11758 0.061468 0.22798 0.13913 0.016752 -0.084142 -0.15797 -0.25931 -0.10822 -0.095298 -0.18614 0.25223 -0.10736 -0.2094 0.0088697 -0.57041 -0.00082725 -0.015715 -0.19489 -0.1341 -0.16006 -0.038439 0.14381 0.39839 0.075822 -0.20602 -0.13582 -0.18556 -0.024962 -0.10591 
days)|raw_freq=1000.00 0.15771 -0.13941 0.16709 0.10231 -0.12099 -0.02082 0.011405 0.042849 0.034392 0.032799 0.17666 0.079153 0.2174 0.22577 -0.19177 0.15713 0.21769 0.11808 0.1266 -0.092092 -0.0073615 0.05811 -0.18308 -0.15111 -0.05338 0.12221 0.1334 0.039539 0.11811 0.13023 0.031107 -0.22011 -0.22757 -0.11506 -0.23649 -0.15071 -0.067198 0.11109 -0.038891 0.052024 0.29096 0.173 -0.096528 -0.004276 -0.17527 -0.17578 0.37226 0.09138 0.28198 -0.067388 0.021011 0.17028 -0.076147 -0.24696 -0.078633 -0.087345 0.12101 0.13983 0.080896 -0.3059 -0.12596 0.13319 0.064979 -0.31098 -0.068733 -0.23435 -0.082312 -0.25355 -0.16484 -0.059238 0.10429 0.055444 0.19697 0.12012 0.01537 -0.073431 -0.13802 -0.22384 -0.092621 -0.081783 -0.16105 0.21872 -0.091889 -0.18044 0.0083221 -0.49393 -0.0021393 -0.014411 -0.1716 -0.1144 -0.13956 -0.03242 0.12549 0.34535 0.066859 -0.17884 -0.11706 -0.15926 -0.022334 -0.09258 
11:49:44] 0.13239 -0.11753 0.13965 0.085249 -0.10159 -0.01715 0.0089471 0.037319 0.030419 0.027875 0.14847 0.066284 0.18272 0.18912 -0.16023 0.13299 0.18271 0.098628 0.10566 -0.076741 -0.0064116 0.048536 -0.15357 -0.1272 -0.045166 0.10242 0.1116 0.033668 0.099007 0.10818 0.025363 -0.18572 -0.19087 -0.097317 -0.19936 -0.12635 -0.056807 0.094504 -0.032138 0.044338 0.24477 0.14602 -0.080722 -0.004747 -0.14807 -0.14766 0.31254 0.076514 0.23651 -0.056904 0.018364 0.14296 -0.063458 -0.20787 -0.065551 -0.072634 0.10153 0.11692 0.067287 -0.25648 -0.10581 0.11175 0.054432 -0.26059 -0.058595 -0.19663 -0.069465 -0.21426 -0.13766 -0.049602 0.087164 0.047446 0.16559 0.10148 0.01334 -0.061204 -0.11657 -0.18897 -0.077542 -0.068751 -0.13536 0.18406 -0.077432 -0.1521 0.0066062 -0.41533 -0.0010915 -0.012558 -0.14252 -0.095956 -0.11696 -0.026929 0.10551 0.29031 0.056463 -0.15041 -0.097278 -0.13385 -0.018553 -0.078127 
11:47:26] 0.12301 -0.11047 0.13016 0.079777 -0.09519 -0.015846 0.0086998 0.035002 0.02719 0.02599 0.13935 0.061816 0.17115 0.1775 -0.15019 0.12365 0.17113 0.093553 0.098972 -0.072545 -0.0055714 0.044749 -0.144 -0.11861 -0.042729 0.096175 0.10575 0.031418 0.093227 0.10168 0.023825 -0.17361 -0.17839 -0.091565 -0.187 -0.1188 -0.052518 0.088403 -0.029804 0.041656 0.22858 0.13659 -0.076069 -0.0035996 -0.13873 -0.13861 0.29287 0.071736 0.22159 -0.052729 0.016459 0.13351 -0.059202 -0.19398 -0.061894 -0.068046 0.094706 0.10999 0.062048 -0.24059 -0.09853 0.10422 0.051241 -0.24446 -0.054235 -0.18373 -0.065291 -0.19891 -0.1286 -0.047142 0.081207 0.044148 0.15481 0.094806 0.012326 -0.056687 -0.10888 -0.17674 -0.073493 -0.064422 -0.12637 0.17227 -0.072978 -0.14243 0.0057664 -0.3878 -0.0017517 -0.011478 -0.13467 -0.08899 -0.10897 -0.025032 0.097939 0.27129 0.053357 -0.14098 -0.090607 -0.12498 -0.017179 -0.072798 
11:23:10] 0.11215 -0.099668 0.11889 0.072969 -0.085897 -0.014654 0.0074519 0.031875 0.025226 0.02324 0.12641 0.056127 0.15435 0.16033 -0.13721 0.11129 0.15502 0.083814 0.09015 -0.065942 -0.0050118 0.040666 -0.13041 -0.1082 -0.038629 0.087658 0.094952 0.028101 0.08397 0.092614 0.022349 -0.15691 -0.16202 -0.082232 -0.16883 -0.10837 -0.047421 0.080308 -0.027038 0.037566 0.2075 0.12382 -0.069017 -0.0037767 -0.12538 -0.12519 0.26549 0.064865 0.20094 -0.04739 0.015021 0.12109 -0.053492 -0.17661 -0.056116 -0.061139 0.085974 0.099514 0.056852 -0.2177 -0.090043 0.09512 0.046106 -0.22163 -0.049282 -0.16634 -0.05911 -0.18056 -0.11661 -0.042288 0.074655 0.039631 0.13982 0.08549 0.011084 -0.051258 -0.098623 -0.15985 -0.065924 -0.057546 -0.11449 0.15583 -0.065104 -0.12928 0.0054453 -0.35146 -0.0020144 -0.010507 -0.1213 -0.080836 -0.098817 -0.022291 0.089128 0.24574 0.047379 -0.12681 -0.082427 -0.11357 -0.015531 -0.066666 
10:51:11] 0.060674 -0.053613 0.064504 0.039328 -0.04652 -0.0079857 0.0040705 0.017315 0.013222 0.012937 0.068409 0.03001 0.084573 0.087667 -0.074513 0.060896 0.084128 0.045917 0.048871 -0.035506 -0.0026533 0.02245 -0.070994 -0.058393 -0.020824 0.047376 0.051923 0.016305 0.045345 0.050915 0.011582 -0.085831 -0.087868 -0.045053 -0.092244 -0.058413 -0.026014 0.04365 -0.015347 0.020831 0.11239 0.067423 -0.03796 -0.001744 -0.068433 -0.067861 0.14451 0.035253 0.10916 -0.025973 0.0077063 0.065277 -0.029248 -0.096061 -0.030352 -0.033276 0.04662 0.054315 0.031786 -0.11877 -0.048618 0.051234 0.025691 -0.12019 -0.026922 -0.090584 -0.031711 -0.098048 -0.063362 -0.023639 0.039041 0.021482 0.076387 0.046418 0.0056956 -0.027799 -0.053313 -0.086476 -0.035573 -0.03164 -0.062718 0.084313 -0.035309 -0.069706 0.0030442 -0.19144 -0.0010591 -0.0054935 -0.066699 -0.043382 -0.054029 -0.012485 0.048706 0.13384 0.026343 -0.069512 -0.04536 -0.061725 -0.0082374 -0.036465 
11:18:33] 0.12064 -0.10732 0.12752 0.078452 -0.091985 -0.016022 0.0085235 0.033836 0.025872 0.024952 0.13583 0.060932 0.16707 0.17303 -0.14713 0.12053 0.1674 0.090892 0.096806 -0.070025 -0.0057123 0.044158 -0.141 -0.11605 -0.04166 0.093377 0.10205 0.030626 0.090786 0.0999 0.023145 -0.16872 -0.17489 -0.088439 -0.18236 -0.11571 -0.051339 0.085529 -0.029314 0.04099 0.22341 0.13285 -0.074212 -0.0043882 -0.13511 -0.13425 0.2856 0.069352 0.217 -0.051599 0.016392 0.13023 -0.058828 -0.18976 -0.060609 -0.067125 0.092988 0.10757 0.061749 -0.23498 -0.096791 0.10157 0.049667 -0.2386 -0.052666 -0.17948 -0.063337 -0.19444 -0.12492 -0.045972 0.079911 0.042897 0.15052 0.092478 0.011721 -0.055935 -0.10559 -0.17266 -0.071102 -0.063262 -0.12327 0.16804 -0.070584 -0.13989 0.0059603 -0.37932 -0.0010375 -0.011129 -0.13134 -0.086989 -0.10653 -0.024331 0.096238 0.26494 0.05162 -0.13721 -0.089254 -0.12234 -0.015954 -0.071247 
mod=host 0.066924 -0.059773 0.071144 0.043386 -0.051822 -0.0082528 0.0045595 0.018062 0.01509 0.013739 0.075269 0.034155 0.092106 0.096461 -0.082055 0.06736 0.093726 0.049958 0.053356 -0.03923 -0.0029891 0.024575 -0.079131 -0.064564 -0.022741 0.052601 0.057543 0.017142 0.050313 0.05481 0.01283 -0.09384 -0.097232 -0.049285 -0.10102 -0.064964 -0.028726 0.047516 -0.015913 0.022934 0.12446 0.073477 -0.041295 -0.0017764 -0.074867 -0.075747 0.15808 0.038755 0.11958 -0.028018 0.0086363 0.072263 -0.032485 -0.10565 -0.034205 -0.036822 0.051677 0.05908 0.034752 -0.13132 -0.053947 0.057423 0.027822 -0.13241 -0.0291 -0.10011 -0.034941 -0.10757 -0.070283 -0.024667 0.044626 0.024054 0.083903 0.051054 0.0065493 -0.031529 -0.059482 -0.095393 -0.040027 -0.034697 -0.069124 0.093491 -0.039044 -0.077165 0.0030635 -0.2107 -0.0010579 -0.007005 -0.073538 -0.048581 -0.060344 -0.014314 0.054203 0.14756 0.028534 -0.076055 -0.049951 -0.068187 -0.0090472 -0.039367 
11:45:08] 0.12631 -0.11233 0.13335 0.081378 -0.097416 -0.016653 0.0092843 0.03514 0.02808 0.026666 0.14259 0.063515 0.17425 0.18135 -0.15409 0.12647 0.17482 0.094936 0.10122 -0.07354 -0.0056751 0.045731 -0.14718 -0.12175 -0.043479 0.09809 0.10755 0.032317 0.09461 0.10452 0.024839 -0.17741 -0.18304 -0.093094 -0.1905 -0.12154 -0.0539 0.089745 -0.030874 0.041786 0.23453 0.13996 -0.077748 -0.0049162 -0.14172 -0.14149 0.2987 0.072365 0.22646 -0.053437 0.017304 0.13672 -0.06089 -0.19906 -0.063094 -0.070276 0.097418 0.1125 0.064394 -0.2461 -0.10057 0.10654 0.052211 -0.25004 -0.055936 -0.18793 -0.066487 -0.20353 -0.13153 -0.047679 0.082443 0.045344 0.15863 0.09684 0.01214 -0.058216 -0.11098 -0.18087 -0.074792 -0.06575 -0.12981 0.17542 -0.073768 -0.14591 0.0060111 -0.39679 -0.0012234 -0.012278 -0.13714 -0.091658 -0.11257 -0.025024 0.10051 0.27801 0.053928 -0.144 -0.093475 -0.12809 -0.017491 -0.074379 
11:44:01] 0.13018 -0.11535 0.13679 0.084268 -0.10001 -0.016933 0.0095908 0.036219 0.02944 0.027555 0.14632 0.06444 0.17912 0.18648 -0.15829 0.13034 0.18062 0.097241 0.10402 -0.076689 -0.0059081 0.04746 -0.15137 -0.12591 -0.044443 0.10128 0.11061 0.033033 0.097678 0.10706 0.02475 -0.18215 -0.18685 -0.095172 -0.19602 -0.12501 -0.055341 0.092172 -0.031378 0.043766 0.24032 0.14328 -0.080324 -0.0051247 -0.14617 -0.1451 0.30715 0.074762 0.23283 -0.056074 0.017524 0.14071 -0.062406 -0.20395 -0.065661 -0.071767 0.10056 0.1151 0.065899 -0.25307 -0.10424 0.11031 0.05354 -0.25675 -0.057721 -0.19384 -0.068203 -0.20919 -0.13532 -0.048622 0.085687 0.046962 0.16256 0.099238 0.013197 -0.059624 -0.11372 -0.18601 -0.07699 -0.067303 -0.1331 0.18051 -0.075989 -0.14983 0.0062324 -0.40833 -0.0011712 -0.012753 -0.141 -0.093791 -0.11519 -0.026062 0.10283 0.28554 0.055305 -0.14802 -0.096115 -0.13151 -0.0178 -0.077294 
tunnel 0.033147 -0.028692 0.036243 0.022105 -0.025218 -0.004495 0.0019054 0.009275 0.0078951 0.0072631 0.037714 0.016165 0.045816 0.048237 -0.040966 0.032029 0.045726 0.024314 0.026884 -0.020236 -0.0018316 0.012662 -0.038757 -0.032857 -0.011789 0.026324 0.02961 0.0088509 0.025657 0.027976 0.0064743 -0.047934 -0.048208 -0.024718 -0.051415 -0.032691 -0.014453 0.024154 -0.0094212 0.011088 0.061707 0.036866 -0.020312 -0.0019298 -0.037529 -0.036947 0.07823 0.019389 0.059533 -0.014878 0.0046339 0.036349 -0.016778 -0.051709 -0.016739 -0.017796 0.024574 0.028577 0.017213 -0.064678 -0.027108 0.027838 0.013791 -0.066232 -0.015226 -0.049513 -0.017484 -0.054299 -0.03519 -0.013655 0.022729 0.012034 0.042468 0.025596 0.0033933 -0.015229 -0.029241 -0.048149 -0.019247 -0.01644 -0.034843 0.046008 -0.020974 -0.037868 0.0013015 -0.10487 -0.00053874 -0.0036615 -0.03653 -0.025611 -0.030909 -0.0066281 0.026445 0.073755 0.014176 -0.037472 -0.024657 -0.033949 -0.0037722 -0.021404 
11:18:35] 0.12871 -0.11433 0.136 0.083645 -0.098273 -0.017093 0.0086754 0.035939 0.02797 0.026702 0.1447 0.06481 0.17836 0.18541 -0.15759 0.12847 0.17871 0.096726 0.10376 -0.075205 -0.0052402 0.046754 -0.15002 -0.12401 -0.043632 0.10048 0.10936 0.033084 0.097392 0.10576 0.025291 -0.18029 -0.18653 -0.094395 -0.19457 -0.12359 -0.055156 0.091846 -0.031336 0.043706 0.2375 0.14155 -0.079041 -0.0044428 -0.14351 -0.14332 0.30478 0.074601 0.23123 -0.054807 0.017673 0.13855 -0.061893 -0.20241 -0.064838 -0.071252 0.09938 0.11433 0.065675 -0.25051 -0.10312 0.1088 0.052431 -0.25458 -0.056672 -0.1917 -0.067488 -0.20756 -0.13325 -0.049007 0.084958 0.046106 0.16122 0.098571 0.012502 -0.059364 -0.11292 -0.18395 -0.075878 -0.067269 -0.13184 0.17931 -0.075456 -0.14833 0.0057689 -0.40456 -0.0016543 -0.011917 -0.13977 -0.093316 -0.11412 -0.026037 0.10265 0.28155 0.055966 -0.1466 -0.094994 -0.13046 -0.017803 -0.076124 
11:15:07] 0.11848 -0.10539 0.12547 0.076556 -0.090991 -0.015746 0.0081848 0.03288 0.026612 0.024358 0.13361 0.059728 0.16375 0.16945 -0.14457 0.11833 0.1636 0.089042 0.094846 -0.069382 -0.0052215 0.043958 -0.13778 -0.1137 -0.040585 0.091926 0.10055 0.029692 0.088702 0.09785 0.022819 -0.1661 -0.17139 -0.086903 -0.17873 -0.11382 -0.050214 0.083613 -0.029297 0.039561 0.2191 0.13048 -0.073183 -0.0039989 -0.13211 -0.13226 0.27991 0.068098 0.21251 -0.05065 0.015991 0.1273 -0.056974 -0.18647 -0.05929 -0.065801 0.091093 0.10518 0.060186 -0.23002 -0.094677 0.10007 0.048911 -0.23384 -0.051919 -0.17609 -0.062269 -0.19101 -0.12308 -0.044609 0.077893 0.042116 0.14747 0.090686 0.011446 -0.054675 -0.1035 -0.16921 -0.069585 -0.061076 -0.1212 0.16483 -0.069279 -0.1363 0.005711 -0.3718 -0.0014201 -0.010914 -0.12843 -0.086055 -0.10517 -0.023683 0.094305 0.25966 0.050856 -0.13513 -0.087608 -0.12001 -0.016463 -0.070079 
10:51:29] 0.052509 -0.046717 0.055397 0.033911 -0.039923 -0.0064125 0.0038853 0.01507 0.012015 0.01093 0.058323 0.026133 0.072688 0.074738 -0.064215 0.052096 0.072291 0.03993 0.042011 -0.030063 -0.0018756 0.019475 -0.061343 -0.050032 -0.017564 0.04097 0.044768 0.013542 0.039212 0.043708 0.010592 -0.073958 -0.076112 -0.038834 -0.07912 -0.050636 -0.02308 0.037568 -0.012481 0.017616 0.097119 0.058057 -0.032467 -0.0014113 -0.058818 -0.058426 0.12453 0.030123 0.094353 -0.021917 0.0068212 0.055955 -0.025246 -0.082156 -0.026223 -0.028704 0.040245 0.046534 0.026866 -0.10241 -0.04123 0.043974 0.021925 -0.10309 -0.02289 -0.078272 -0.027019 -0.084641 -0.055085 -0.019736 0.03431 0.018684 0.065808 0.039971 0.0047702 -0.024743 -0.046631 -0.07495 -0.03046 -0.027464 -0.053688 0.072817 -0.030676 -0.060793 0.0027267 -0.16507 -0.00060554 -0.005591 -0.057133 -0.038128 -0.046729 -0.011021 0.042279 0.11488 0.022711 -0.059702 -0.038941 -0.053228 -0.0072127 -0.030396 
11:44:02] 0.12907 -0.11457 0.13541 0.083328 -0.099081 -0.016937 0.0095075 0.035622 0.029371 0.027003 0.14455 0.06407 0.17751 0.18505 -0.15661 0.12853 0.17823 0.096361 0.1026 -0.075969 -0.0051544 0.047361 -0.1499 -0.12409 -0.044155 0.099916 0.10947 0.032907 0.096214 0.10623 0.024678 -0.1805 -0.18498 -0.094897 -0.19386 -0.12377 -0.055152 0.091 -0.031748 0.043277 0.23803 0.14189 -0.07972 -0.0046376 -0.14427 -0.14363 0.30393 0.074173 0.23074 -0.055298 0.017347 0.13901 -0.061564 -0.2014 -0.065294 -0.070928 0.099213 0.11437 0.064745 -0.2504 -0.10272 0.10874 0.053039 -0.25378 -0.057133 -0.19191 -0.06783 -0.20698 -0.13406 -0.048511 0.08457 0.045947 0.16055 0.098424 0.012656 -0.058685 -0.11263 -0.18367 -0.076084 -0.066478 -0.1316 0.17916 -0.075662 -0.14831 0.0061573 -0.40387 -0.0010026 -0.01263 -0.13903 -0.092954 -0.11375 -0.025815 0.10203 0.28193 0.054926 -0.14643 -0.095043 -0.13001 -0.018232 -0.076782 
10:50:26] 0.0557 -0.049012 0.059285 0.036199 -0.042587 -0.0069184 0.0040599 0.01522 0.011927 0.011267 0.062353 0.027748 0.076991 0.079125 -0.067826 0.054988 0.076593 0.041771 0.044602 -0.032987 -0.0025771 0.019441 -0.064205 -0.05355 -0.019403 0.042482 0.047235 0.014197 0.041883 0.045411 0.011072 -0.078236 -0.080159 -0.041076 -0.083655 -0.053319 -0.023451 0.039854 -0.013635 0.019166 0.10245 0.061718 -0.034238 -0.0011166 -0.062384 -0.062179 0.13111 0.031727 0.099615 -0.023968 0.0077757 0.05931 -0.026917 -0.086686 -0.027685 -0.030533 0.042378 0.048876 0.028585 -0.10713 -0.044575 0.046656 0.023034 -0.10967 -0.024692 -0.082765 -0.029186 -0.089202 -0.058251 -0.020685 0.036436 0.019787 0.069759 0.042756 0.0050378 -0.026352 -0.049157 -0.079538 -0.032805 -0.029364 -0.057185 0.076837 -0.032951 -0.06426 0.0025964 -0.1744 -0.0012368 -0.0049821 -0.060569 -0.040102 -0.049592 -0.011132 0.044362 0.12205 0.023702 -0.062757 -0.041172 -0.056131 -0.0079723 -0.033356 
11:43:42] 0.12908 -0.11441 0.13647 0.083499 -0.098871 -0.016157 0.009664 0.036412 0.028778 0.026616 0.1453 0.064942 0.17875 0.18524 -0.15793 0.12863 0.17965 0.097456 0.10389 -0.076094 -0.005744 0.046483 -0.15108 -0.12411 -0.044178 0.10105 0.10909 0.032714 0.096822 0.10675 0.024858 -0.18174 -0.18671 -0.094845 -0.19507 -0.1241 -0.055381 0.091969 -0.031423 0.043782 0.23982 0.14261 -0.07873 -0.0043318 -0.14422 -0.14443 0.30598 0.073972 0.23219 -0.055496 0.016849 0.13941 -0.061967 -0.20322 -0.064136 -0.071939 0.10007 0.11453 0.065259 -0.25221 -0.10405 0.10933 0.053409 -0.2557 -0.0571 -0.1922 -0.068444 -0.20855 -0.13406 -0.049502 0.084963 0.046678 0.16151 0.099024 0.012006 -0.059527 -0.11345 -0.18435 -0.07625 -0.067005 -0.13284 0.17908 -0.075607 -0.14915 0.0059721 -0.40663 -0.0016157 -0.012662 -0.1405 -0.093368 -0.11439 -0.025925 0.10262 0.28405 0.055138 -0.14788 -0.095378 -0.13068 -0.018125 -0.077033 
11:47:27] 0.12594 -0.11293 0.13339 0.08163 -0.097143 -0.016708 0.0086423 0.035378 0.028093 0.026878 0.14221 0.062898 0.17481 0.18172 -0.15401 0.12648 0.17493 0.095697 0.10138 -0.074449 -0.0052742 0.046551 -0.1475 -0.121 -0.043268 0.097882 0.10823 0.031945 0.095494 0.10379 0.024277 -0.17729 -0.18255 -0.093339 -0.19119 -0.12138 -0.053584 0.090216 -0.030185 0.042535 0.23357 0.13925 -0.077464 -0.0040758 -0.14203 -0.14186 0.29905 0.073241 0.22683 -0.054148 0.016887 0.13643 -0.060298 -0.19837 -0.062861 -0.069497 0.097165 0.11226 0.063855 -0.24618 -0.1005 0.10668 0.052013 -0.24988 -0.055142 -0.18756 -0.06677 -0.20369 -0.13119 -0.048531 0.083022 0.045002 0.1583 0.096363 0.012311 -0.058251 -0.11115 -0.18046 -0.074921 -0.065424 -0.1294 0.17638 -0.074808 -0.14558 0.0058593 -0.39627 -0.0018649 -0.012008 -0.13769 -0.09089 -0.11155 -0.025422 0.10049 0.27758 0.054499 -0.14408 -0.093116 -0.12808 -0.017473 -0.07424 
11:43:57] 0.11893 -0.10501 0.12498 0.077424 -0.091308 -0.015256 0.0084943 0.032676 0.027565 0.024784 0.13404 0.059351 0.16377 0.17012 -0.14464 0.11896 0.16492 0.088431 0.094445 -0.069862 -0.006156 0.043068 -0.13797 -0.11401 -0.040818 0.092064 0.10022 0.030019 0.089154 0.096857 0.022955 -0.16586 -0.17106 -0.086798 -0.1793 -0.1142 -0.050364 0.084647 -0.028901 0.039509 0.22034 0.13068 -0.072982 -0.0037633 -0.13243 -0.13237 0.28061 0.068187 0.2128 -0.050489 0.015836 0.12781 -0.057253 -0.18628 -0.0587 -0.065781 0.091215 0.10514 0.060051 -0.23145 -0.094557 0.10025 0.048676 -0.23409 -0.052182 -0.17536 -0.062295 -0.19133 -0.12305 -0.045324 0.078019 0.042927 0.148 0.091248 0.011536 -0.05397 -0.10444 -0.16965 -0.07041 -0.061598 -0.12134 0.16547 -0.069105 -0.13573 0.0050243 -0.37261 -0.0011032 -0.011254 -0.12799 -0.08626 -0.10523 -0.023095 0.094343 0.26033 0.050921 -0.13564 -0.087125 -0.12039 -0.01667 -0.069878 
10:51:28] 0.052904 -0.046145 0.056209 0.034392 -0.040758 -0.0061746 0.0039465 0.014761 0.011846 0.011372 0.059584 0.026792 0.07283 0.075894 -0.065006 0.052383 0.072752 0.03918 0.041793 -0.030662 -0.0025053 0.019669 -0.061755 -0.051087 -0.018046 0.040882 0.04487 0.013804 0.039955 0.044238 0.010846 -0.074345 -0.07592 -0.038634 -0.079726 -0.051126 -0.022863 0.037849 -0.013076 0.017119 0.097865 0.057989 -0.032559 -0.0017812 -0.059413 -0.059558 0.1253 0.03059 0.093906 -0.022342 0.0071687 0.056236 -0.025725 -0.083597 -0.026485 -0.029022 0.040307 0.046791 0.027034 -0.10311 -0.041999 0.044628 0.02218 -0.10441 -0.02295 -0.078907 -0.027491 -0.084862 -0.055457 -0.020215 0.034798 0.018514 0.066606 0.040062 0.004226 -0.024702 -0.047132 -0.074557 -0.030483 -0.027664 -0.054044 0.073055 -0.031187 -0.061044 0.0026866 -0.16611 -0.00061404 -0.0051237 -0.057952 -0.039068 -0.047484 -0.010753 0.042164 0.11634 0.022838 -0.060591 -0.038856 -0.053606 -0.0073038 -0.030756 
10:59:32] 0.051477 -0.045321 0.05445 0.033528 -0.040004 -0.0061184 0.003839 0.014321 0.010794 0.01116 0.058416 0.026166 0.071353 0.074037 -0.062648 0.051168 0.070657 0.038413 0.041131 -0.029853 -0.0025906 0.018805 -0.059827 -0.049676 -0.017664 0.039684 0.043707 0.012831 0.038817 0.042729 0.010217 -0.072518 -0.075171 -0.037503 -0.077358 -0.048939 -0.0221 0.036546 -0.013065 0.017207 0.096058 0.056606 -0.031321 -0.0018013 -0.05751 -0.057787 0.12254 0.029716 0.092715 -0.021543 0.0061097 0.055544 -0.025242 -0.080345 -0.025974 -0.027945 0.039681 0.045822 0.025706 -0.10016 -0.040856 0.043669 0.021725 -0.10219 -0.022841 -0.076462 -0.027132 -0.08286 -0.053412 -0.019465 0.034039 0.018207 0.064902 0.038673 0.0049632 -0.023832 -0.044993 -0.073346 -0.030602 -0.026372 -0.052334 0.071021 -0.030369 -0.059168 0.0024392 -0.16153 -0.0006036 -0.0046918 -0.056088 -0.037491 -0.045911 -0.0099965 0.040877 0.113 0.022067 -0.059225 -0.037846 -0.051794 -0.0075348 -0.030214 
11:23:11] 0.11482 -0.10207 0.12169 0.07466 -0.0878 -0.014804 0.0075916 0.032116 0.025382 0.023659 0.12931 0.056991 0.15873 0.16465 -0.14031 0.11466 0.15936 0.086454 0.091942 -0.067301 -0.0052122 0.042376 -0.13422 -0.11111 -0.03971 0.08944 0.097396 0.028926 0.086084 0.095426 0.022342 -0.16097 -0.16641 -0.085102 -0.1738 -0.11055 -0.048899 0.082574 -0.028329 0.038828 0.21261 0.12737 -0.070979 -0.0038097 -0.12849 -0.12874 0.27197 0.067231 0.20585 -0.048604 0.015651 0.12373 -0.05479 -0.18092 -0.057345 -0.06296 0.088102 0.10197 0.058362 -0.22337 -0.092123 0.097287 0.047486 -0.22723 -0.050022 -0.17038 -0.06047 -0.18505 -0.1197 -0.043724 0.075826 0.040876 0.1432 0.087611 0.011559 -0.052102 -0.10036 -0.16346 -0.067547 -0.059866 -0.1175 0.15959 -0.067193 -0.13253 0.0054664 -0.36093 -0.0016536 -0.01042 -0.12433 -0.082885 -0.10159 -0.02294 0.09149 0.25236 0.049345 -0.13063 -0.084912 -0.11658 -0.015913 -0.068475 
11:43:59] 0.12466 -0.11095 0.13149 0.081421 -0.09606 -0.016556 0.0094117 0.034615 0.028101 0.025938 0.14081 0.062575 0.17258 0.17884 -0.15234 0.12482 0.17333 0.093648 0.10026 -0.073003 -0.006054 0.045602 -0.14549 -0.12035 -0.042677 0.097146 0.10556 0.031058 0.093703 0.10278 0.023924 -0.17465 -0.18023 -0.091168 -0.18859 -0.12038 -0.053145 0.088738 -0.030696 0.041632 0.23174 0.13768 -0.076761 -0.0040003 -0.13975 -0.13899 0.29582 0.071751 0.2242 -0.052856 0.016791 0.13467 -0.060142 -0.19655 -0.061797 -0.068696 0.096344 0.11124 0.063176 -0.24309 -0.099865 0.10543 0.051918 -0.24653 -0.054683 -0.18524 -0.065629 -0.20134 -0.1297 -0.047076 0.081968 0.044877 0.15589 0.095444 0.012129 -0.05718 -0.10985 -0.1781 -0.073856 -0.064355 -0.12794 0.17359 -0.072712 -0.14361 0.0059996 -0.39206 -0.0012353 -0.011739 -0.13522 -0.090353 -0.11066 -0.024591 0.099116 0.27358 0.053603 -0.14223 -0.091954 -0.1268 -0.017166 -0.073387 
22 0.067659 -0.060356 0.072054 0.044626 -0.051796 -0.0086506 0.0060482 0.019548 0.013775 0.014311 0.077331 0.033884 0.095013 0.09789 -0.083211 0.068213 0.094982 0.05166 0.055908 -0.040306 -0.0024774 0.026045 -0.07959 -0.065917 -0.023963 0.053692 0.058571 0.016217 0.052182 0.057798 0.013959 -0.096441 -0.099722 -0.051807 -0.10431 -0.067417 -0.030289 0.04812 -0.015714 0.023593 0.12748 0.07472 -0.041979 -0.0027857 -0.076238 -0.076878 0.1626 0.040431 0.12424 -0.028482 0.0098759 0.075342 -0.033956 -0.10886 -0.033005 -0.037828 0.052251 0.060659 0.034032 -0.13217 -0.053882 0.05898 0.028818 -0.13516 -0.029726 -0.10162 -0.035936 -0.11004 -0.072771 -0.026653 0.045565 0.02344 0.085423 0.052387 0.0064092 -0.032916 -0.060606 -0.097919 -0.040386 -0.034958 -0.071405 0.096419 -0.039738 -0.078199 0.0041772 -0.21643 -0.00051695 -0.007019 -0.075591 -0.050848 -0.060679 -0.012992 0.055652 0.14981 0.030055 -0.077227 -0.052089 -0.06878 -0.0098242 -0.041899 
11:18:40] 0.12845 -0.11486 0.13627 0.083326 -0.097929 -0.016906 0.0087789 0.036045 0.028404 0.027229 0.14399 0.065288 0.17737 0.18509 -0.15702 0.1289 0.17828 0.096752 0.10296 -0.074337 -0.0057132 0.046359 -0.14954 -0.12356 -0.044028 0.099799 0.10931 0.032479 0.097185 0.10573 0.024649 -0.17956 -0.1851 -0.094217 -0.19368 -0.12393 -0.054331 0.091625 -0.032008 0.042961 0.2376 0.14147 -0.078655 -0.0038748 -0.14344 -0.14359 0.30403 0.074972 0.23056 -0.055495 0.017484 0.13831 -0.06181 -0.20127 -0.063765 -0.070896 0.098402 0.11456 0.065089 -0.24973 -0.1035 0.10906 0.052463 -0.25384 -0.05667 -0.19179 -0.066961 -0.20758 -0.13357 -0.048393 0.084865 0.04555 0.1611 0.098319 0.012655 -0.059203 -0.11218 -0.18349 -0.075641 -0.066475 -0.1317 0.17898 -0.074854 -0.14746 0.0060713 -0.40343 -0.0016489 -0.011793 -0.13981 -0.093314 -0.11409 -0.026135 0.10253 0.28149 0.054723 -0.1457 -0.094249 -0.13043 -0.018229 -0.075311 
11:23:13] 0.10981 -0.097543 0.11642 0.071564 -0.084107 -0.013748 0.0071581 0.030384 0.0244 0.022677 0.12356 0.054461 0.15148 0.15713 -0.13401 0.10972 0.15217 0.082541 0.088567 -0.064335 -0.0050676 0.039684 -0.12781 -0.10609 -0.037848 0.086355 0.09292 0.027322 0.08156 0.090784 0.022064 -0.15398 -0.15945 -0.081334 -0.16579 -0.10588 -0.046584 0.078352 -0.026848 0.037043 0.20367 0.12168 -0.068095 -0.0035603 -0.12328 -0.12304 0.26048 0.063698 0.19696 -0.046333 0.015099 0.11847 -0.052755 -0.17348 -0.054619 -0.060004 0.084366 0.097848 0.056427 -0.21335 -0.088658 0.093161 0.045475 -0.21749 -0.04778 -0.16291 -0.057634 -0.17695 -0.11437 -0.041583 0.073276 0.039105 0.137 0.083893 0.010934 -0.05027 -0.096524 -0.15678 -0.064561 -0.057381 -0.11216 0.15273 -0.064265 -0.12725 0.0049565 -0.34495 -0.0015297 -0.010251 -0.1186 -0.079796 -0.097023 -0.022244 0.087453 0.2415 0.04733 -0.12474 -0.081098 -0.11147 -0.015649 -0.065571 
VPN|raw_mtu=1440 0.092267 -0.081279 0.097773 0.05943 -0.070578 -0.012228 0.0067428 0.025608 0.02051 0.019209 0.10383 0.045961 0.12801 0.13271 -0.11261 0.09241 0.12739 0.07013 0.074251 -0.053827 -0.004123 0.033412 -0.10784 -0.088919 -0.030743 0.072372 0.078378 0.02309 0.068985 0.076519 0.018564 -0.12933 -0.13343 -0.067271 -0.13861 -0.088943 -0.039785 0.065561 -0.022073 0.031191 0.17158 0.10164 -0.056809 -0.0031901 -0.10304 -0.10293 0.21873 0.053661 0.16583 -0.039133 0.011961 0.099232 -0.044729 -0.14504 -0.046175 -0.052214 0.070724 0.08203 0.047566 -0.17922 -0.07408 0.077888 0.038728 -0.1828 -0.040396 -0.13678 -0.048791 -0.14856 -0.096629 -0.034995 0.061029 0.032479 0.11614 0.07106 0.0092526 -0.042607 -0.081285 -0.13102 -0.053725 -0.047646 -0.094591 0.12886 -0.053809 -0.10631 0.0039608 -0.28978 -0.0011248 -0.0089255 -0.10037 -0.067474 -0.082094 -0.019013 0.073781 0.20263 0.039741 -0.10434 -0.068087 -0.09379 -0.013327 -0.054193 
18 0.077807 -0.072517 0.080781 0.049847 -0.060343 -0.0094928 0.008588 0.020599 0.012135 0.016085 0.085093 0.037035 0.10814 0.1086 -0.094951 0.072178 0.10556 0.057469 0.059013 -0.044597 -0.0030193 0.027295 -0.08755 -0.074662 -0.024303 0.061493 0.06408 0.019722 0.061215 0.065793 0.018512 -0.10768 -0.11228 -0.059423 -0.11633 -0.070707 -0.032871 0.056559 -0.019127 0.026275 0.14246 0.084588 -0.050509 -0.0014057 -0.08316 -0.087793 0.18277 0.044947 0.13817 -0.034287 0.0086504 0.08278 -0.036402 -0.1204 -0.039433 -0.039462 0.058667 0.066268 0.037149 -0.15071 -0.059925 0.065133 0.029878 -0.1525 -0.032843 -0.11787 -0.040262 -0.1261 -0.079015 -0.02661 0.050274 0.026114 0.09796 0.05835 0.009578 -0.039059 -0.068126 -0.1098 -0.042493 -0.04039 -0.078281 0.10405 -0.04508 -0.085856 -0.00027009 -0.23813 -0.00020665 -0.0051899 -0.086653 -0.058591 -0.065594 -0.015959 0.061509 0.16811 0.035377 -0.087242 -0.060267 -0.076169 -0.0096595 -0.047426 
11:01:38] 0.096377 -0.085979 0.10223 0.062262 -0.073928 -0.012603 0.0067631 0.027055 0.021683 0.020059 0.1086 0.048221 0.13354 0.13803 -0.11771 0.096895 0.13341 0.07335 0.077583 -0.056767 -0.0047645 0.035675 -0.11284 -0.093064 -0.033021 0.07561 0.081734 0.024379 0.072473 0.079587 0.018752 -0.1358 -0.13938 -0.070958 -0.14589 -0.092633 -0.041484 0.068349 -0.023112 0.032492 0.17941 0.10674 -0.059067 -0.0029636 -0.10825 -0.1078 0.22892 0.055545 0.17342 -0.040649 0.013113 0.10383 -0.046111 -0.1512 -0.047927 -0.052951 0.074499 0.08617 0.0487 -0.18789 -0.077166 0.081851 0.040073 -0.19067 -0.042307 -0.14287 -0.051195 -0.15575 -0.10036 -0.03599 0.063945 0.034767 0.12125 0.073935 0.0097332 -0.044179 -0.084385 -0.13803 -0.056934 -0.05017 -0.099025 0.1346 -0.056832 -0.11107 0.004425 -0.30396 -0.0013276 -0.0086941 -0.10506 -0.070027 -0.085626 -0.019226 0.077275 0.21163 0.041446 -0.10976 -0.071079 -0.097153 -0.013597 -0.057118 
10:51:25] 0.056541 -0.049545 0.059746 0.036881 -0.043654 -0.0075035 0.0041323 0.016792 0.0126 0.012066 0.062603 0.028543 0.077983 0.080661 -0.069066 0.055822 0.078192 0.042465 0.044634 -0.033369 -0.0023022 0.020698 -0.066104 -0.054024 -0.019474 0.043795 0.047774 0.014887 0.042057 0.045944 0.011085 -0.079181 -0.081188 -0.041581 -0.085069 -0.054679 -0.024543 0.04005 -0.013593 0.018711 0.10403 0.061816 -0.035386 -0.0017722 -0.06249 -0.062828 0.13299 0.032878 0.10111 -0.023579 0.0067684 0.060269 -0.027611 -0.08872 -0.027845 -0.031347 0.0428 0.049992 0.028872 -0.10954 -0.04414 0.047288 0.023455 -0.11028 -0.024871 -0.084002 -0.02967 -0.090087 -0.058462 -0.021369 0.03678 0.020378 0.070536 0.043318 0.0051138 -0.025992 -0.050048 -0.080057 -0.033145 -0.029186 -0.057375 0.07801 -0.033055 -0.063982 0.0033881 -0.17716 -0.00063258 -0.0063072 -0.061583 -0.041378 -0.04995 -0.011414 0.044754 0.12367 0.024534 -0.064387 -0.041536 -0.056885 -0.0073868 -0.033271 
19 0.082982 -0.072612 0.084855 0.050436 -0.062038 -0.01247 0.0096571 0.023699 0.018204 0.014656 0.090529 0.043378 0.10935 0.11605 -0.099311 0.078856 0.1085 0.061042 0.064825 -0.044707 -0.0059088 0.028112 -0.0939 -0.077107 -0.027087 0.063942 0.070862 0.02059 0.059844 0.063715 0.0181 -0.11403 -0.11263 -0.061909 -0.12166 -0.074533 -0.031905 0.057138 -0.017007 0.030567 0.15354 0.088969 -0.049857 0.00013821 -0.08602 -0.092228 0.19094 0.045604 0.14589 -0.032814 0.0094845 0.08692 -0.039294 -0.12368 -0.036778 -0.047023 0.061324 0.069386 0.040591 -0.15678 -0.064882 0.069518 0.034592 -0.15881 -0.03442 -0.11874 -0.045814 -0.12872 -0.080111 -0.028471 0.05063 0.027519 0.10061 0.065139 0.0041411 -0.034993 -0.070083 -0.11565 -0.042994 -0.038622 -0.082994 0.11227 -0.046314 -0.094049 0.0081052 -0.25123 3.1959e-05 -0.0080627 -0.086718 -0.062001 -0.072817 -0.014696 0.06345 0.17827 0.035659 -0.090999 -0.061776 -0.078788 -0.010217 -0.04843 
11:49:43] 0.1298 -0.11559 0.13722 0.08319 -0.099995 -0.016648 0.0088649 0.036218 0.029038 0.027526 0.14594 0.065134 0.17952 0.18593 -0.1575 0.13051 0.17972 0.096746 0.10394 -0.07523 -0.0060856 0.046898 -0.15118 -0.12453 -0.044252 0.10058 0.10993 0.032863 0.097081 0.10637 0.025428 -0.18189 -0.18736 -0.095509 -0.19531 -0.12425 -0.055274 0.092408 -0.031948 0.043676 0.24026 0.14302 -0.079331 -0.0037231 -0.14582 -0.14495 0.30758 0.074972 0.23295 -0.055865 0.017686 0.13949 -0.062441 -0.20453 -0.064357 -0.071384 0.099429 0.11517 0.066869 -0.25222 -0.10398 0.10977 0.053196 -0.25567 -0.057497 -0.19284 -0.067974 -0.20967 -0.13479 -0.048645 0.085619 0.046217 0.16185 0.09899 0.012669 -0.060717 -0.11429 -0.18593 -0.07597 -0.067374 -0.13321 0.18011 -0.07588 -0.14915 0.0062831 -0.40709 -0.0014461 -0.012528 -0.14024 -0.094005 -0.11419 -0.026756 0.10294 0.28505 0.055511 -0.14784 -0.095824 -0.13124 -0.018136 -0.076155 
11:25:03] 0.099038 -0.088031 0.10431 0.065022 -0.076418 -0.013004 0.0067851 0.027528 0.022561 0.020618 0.11077 0.049778 0.13708 0.14197 -0.12082 0.098869 0.13735 0.075194 0.079236 -0.057986 -0.0047116 0.036506 -0.11592 -0.095745 -0.03422 0.077183 0.084363 0.025276 0.074248 0.081889 0.018799 -0.13839 -0.14373 -0.073426 -0.14967 -0.094953 -0.042053 0.070334 -0.023799 0.03343 0.18358 0.10959 -0.061547 -0.0031403 -0.11064 -0.11095 0.23498 0.05756 0.17732 -0.042299 0.013668 0.10753 -0.04766 -0.15689 -0.049982 -0.055282 0.07629 0.088313 0.050636 -0.19271 -0.07876 0.084019 0.041305 -0.1961 -0.043398 -0.14703 -0.051849 -0.15957 -0.10354 -0.03717 0.065154 0.035527 0.12377 0.075295 0.0092927 -0.04569 -0.087514 -0.14217 -0.058331 -0.051561 -0.10201 0.13816 -0.0585 -0.11464 0.0049433 -0.31112 -0.0017095 -0.0095939 -0.1076 -0.071422 -0.087765 -0.019554 0.079024 0.21777 0.042615 -0.11204 -0.073484 -0.10089 -0.013887 -0.058409 
11:43:58] 0.12508 -0.11075 0.1314 0.081107 -0.096588 -0.016521 0.0094505 0.034927 0.027969 0.025871 0.14101 0.062657 0.17245 0.17933 -0.15217 0.12493 0.17295 0.093401 0.099772 -0.073419 -0.0061967 0.04526 -0.14544 -0.12024 -0.043067 0.096874 0.10582 0.031629 0.093398 0.10261 0.023935 -0.17471 -0.18016 -0.090953 -0.18892 -0.12022 -0.05288 0.088442 -0.030229 0.042049 0.23148 0.13767 -0.07636 -0.0039401 -0.13936 -0.1389 0.29512 0.071783 0.2235 -0.053187 0.01686 0.13507 -0.06005 -0.19578 -0.061885 -0.069479 0.096168 0.11099 0.062864 -0.24298 -0.099587 0.10567 0.051696 -0.24558 -0.054782 -0.18491 -0.065719 -0.20076 -0.12985 -0.046837 0.082015 0.044605 0.15591 0.095426 0.012176 -0.05726 -0.10951 -0.17819 -0.0735 -0.064309 -0.12811 0.1734 -0.072826 -0.14365 0.0055067 -0.39209 -0.0012599 -0.011749 -0.13469 -0.090088 -0.11067 -0.025063 0.099071 0.27363 0.053635 -0.14142 -0.091976 -0.12642 -0.016784 -0.073705 
14 0.060006 -0.053663 0.0621 0.036243 -0.048804 -0.0076106 0.0049037 0.015486 0.011515 0.011502 0.066835 0.028965 0.084674 0.085562 -0.073631 0.062575 0.084781 0.044786 0.051729 -0.037031 -0.0010646 0.020861 -0.074272 -0.054837 -0.019711 0.04843 0.051267 0.017329 0.047419 0.050296 0.0078047 -0.083217 -0.087579 -0.04555 -0.088997 -0.058083 -0.022564 0.04622 -0.013886 0.02157 0.11067 0.068115 -0.036912 -0.0035978 -0.067454 -0.065738 0.14235 0.033503 0.10839 -0.027472 0.0086116 0.066809 -0.032221 -0.097249 -0.02941 -0.031428 0.045145 0.054473 0.033743 -0.11736 -0.047197 0.049463 0.027106 -0.1205 -0.024778 -0.088574 -0.028121 -0.098293 -0.061401 -0.020533 0.043686 0.022168 0.074383 0.048646 0.0038412 -0.028974 -0.054607 -0.087692 -0.034173 -0.029312 -0.06288 0.082231 -0.03765 -0.071947 0.004399 -0.19096 -0.0010146 -0.0080619 -0.065135 -0.046836 -0.054827 -0.013348 0.048926 0.13184 0.026758 -0.066043 -0.043858 -0.057887 -0.0074903 -0.032453 
10:51:31] 0.057725 -0.050952 0.061078 0.037536 -0.044478 -0.0071824 0.0038765 0.016712 0.012688 0.012218 0.065137 0.029185 0.07937 0.083051 -0.070615 0.057326 0.079436 0.043127 0.046371 -0.033683 -0.0021911 0.021078 -0.067104 -0.055223 -0.019835 0.044594 0.048643 0.015026 0.043398 0.047214 0.011383 -0.08082 -0.083204 -0.042404 -0.086494 -0.055585 -0.024324 0.040964 -0.014389 0.019353 0.10658 0.063588 -0.035698 -0.0014303 -0.064637 -0.064308 0.13617 0.033248 0.10312 -0.024322 0.0076147 0.061591 -0.027841 -0.09046 -0.029199 -0.031457 0.044111 0.051124 0.030093 -0.112 -0.045919 0.048132 0.023653 -0.11362 -0.025416 -0.085723 -0.029921 -0.092367 -0.059914 -0.021994 0.037628 0.020747 0.072495 0.0443 0.0053755 -0.027085 -0.051022 -0.081974 -0.033804 -0.029767 -0.059111 0.079964 -0.033926 -0.066301 0.0029751 -0.18122 -0.00069344 -0.0056084 -0.062865 -0.041772 -0.05131 -0.012172 0.045769 0.12603 0.024966 -0.066026 -0.042205 -0.058549 -0.0078596 -0.033936 
11:35:42] 0.11595 -0.10231 0.12255 0.075034 -0.089042 -0.015495 0.0084543 0.032117 0.026687 0.023563 0.13002 0.058154 0.16032 0.16532 -0.14051 0.11651 0.16074 0.087716 0.093527 -0.067228 -0.0051812 0.041909 -0.13513 -0.1116 -0.040364 0.090388 0.097516 0.029227 0.086223 0.095809 0.023282 -0.16303 -0.16695 -0.085213 -0.17407 -0.11108 -0.049977 0.082615 -0.027638 0.039098 0.21489 0.12754 -0.071041 -0.0035654 -0.1294 -0.12928 0.27394 0.066904 0.20761 -0.050093 0.015429 0.12442 -0.056076 -0.18147 -0.057684 -0.063747 0.089718 0.10219 0.059537 -0.22568 -0.093174 0.096711 0.047497 -0.22886 -0.050748 -0.17125 -0.061259 -0.18667 -0.12022 -0.043759 0.076727 0.041799 0.14407 0.088937 0.010555 -0.052805 -0.10166 -0.16531 -0.068048 -0.060837 -0.11932 0.16166 -0.068063 -0.13344 0.005295 -0.36437 -0.0014634 -0.010799 -0.12567 -0.084087 -0.10202 -0.023482 0.092507 0.2533 0.049534 -0.13218 -0.085142 -0.11739 -0.0159 -0.068718 
11:15:08] 0.12212 -0.10872 0.12919 0.078887 -0.093842 -0.015756 0.0087528 0.034092 0.027434 0.025385 0.13763 0.061569 0.16934 0.17535 -0.14946 0.12263 0.16952 0.092083 0.097991 -0.071422 -0.0056973 0.044829 -0.14209 -0.11782 -0.041813 0.09538 0.1038 0.030976 0.091564 0.10097 0.02414 -0.17175 -0.17679 -0.090612 -0.18482 -0.11734 -0.052272 0.086508 -0.030202 0.040903 0.22664 0.13495 -0.075347 -0.0043779 -0.13692 -0.1367 0.28894 0.070568 0.21952 -0.05203 0.016975 0.13166 -0.059248 -0.19248 -0.061008 -0.067889 0.0939 0.10863 0.062089 -0.23782 -0.097763 0.10318 0.050153 -0.2418 -0.053948 -0.18207 -0.064305 -0.19709 -0.12703 -0.045821 0.080409 0.043611 0.15259 0.093615 0.01162 -0.056237 -0.10706 -0.17444 -0.072504 -0.063297 -0.12545 0.17007 -0.071634 -0.14119 0.0059223 -0.38399 -0.001403 -0.011579 -0.13213 -0.088906 -0.10882 -0.024588 0.097334 0.26854 0.052727 -0.13936 -0.090513 -0.12408 -0.016859 -0.072187 
45 0.079429 -0.073121 0.087244 0.053409 -0.062718 -0.0081809 0.0059138 0.022178 0.019411 0.017778 0.091087 0.039837 0.10902 0.11606 -0.099933 0.080664 0.11299 0.062423 0.061978 -0.047885 -0.0012205 0.031355 -0.092722 -0.076843 -0.024923 0.063954 0.067894 0.021797 0.060466 0.065011 0.014431 -0.11288 -0.11587 -0.059956 -0.11867 -0.075608 -0.032008 0.057724 -0.020588 0.024483 0.14973 0.086176 -0.048528 -0.0045765 -0.089815 -0.088418 0.19138 0.046081 0.14108 -0.032233 0.010807 0.083769 -0.037663 -0.1252 -0.042206 -0.04392 0.063461 0.073648 0.04279 -0.1554 -0.062406 0.069494 0.034311 -0.16044 -0.035961 -0.11701 -0.044626 -0.12984 -0.082488 -0.02774 0.053728 0.029779 0.097903 0.061874 0.0079049 -0.037491 -0.071117 -0.11189 -0.047364 -0.041838 -0.084216 0.11206 -0.048595 -0.090749 0.0029657 -0.25026 -0.0026089 -0.0063426 -0.086227 -0.058726 -0.070041 -0.016822 0.065753 0.17779 0.036348 -0.092956 -0.060117 -0.082206 -0.011867 -0.044928 
11:01:36] 0.094345 -0.0836 0.099541 0.060427 -0.072723 -0.012273 0.0062494 0.026431 0.020857 0.019676 0.10636 0.04734 0.13055 0.13519 -0.11485 0.094141 0.13086 0.07128 0.076022 -0.05531 -0.0043169 0.035311 -0.11032 -0.090338 -0.032581 0.073737 0.080486 0.023792 0.070739 0.078115 0.018186 -0.1326 -0.13677 -0.069532 -0.14304 -0.090222 -0.040462 0.067053 -0.022712 0.031575 0.17499 0.10449 -0.057763 -0.0031703 -0.10517 -0.10527 0.22334 0.054671 0.16984 -0.040239 0.012754 0.10194 -0.045127 -0.14816 -0.047038 -0.052222 0.072801 0.084093 0.047794 -0.18409 -0.075275 0.080076 0.039417 -0.18616 -0.041388 -0.13961 -0.049828 -0.15258 -0.098168 -0.035748 0.062086 0.033641 0.11808 0.072384 0.009009 -0.043465 -0.082983 -0.13478 -0.055782 -0.049661 -0.09677 0.13137 -0.055614 -0.10854 0.0043443 -0.29686 -0.0009379 -0.0086924 -0.10281 -0.068055 -0.083739 -0.01862 0.075218 0.20695 0.04078 -0.10738 -0.069424 -0.095333 -0.013302 -0.055111 
0 0.14158 -0.12525 0.15027 0.091645 -0.10885 -0.018714 0.010099 0.038791 0.031268 0.029308 0.15909 0.071201 0.19572 0.20316 -0.17261 0.14152 0.19602 0.10638 0.11385 -0.082484 -0.0068219 0.05204 -0.16489 -0.1359 -0.047731 0.11042 0.12026 0.035797 0.10652 0.11715 0.0276 -0.19796 -0.20451 -0.104 -0.21271 -0.13624 -0.060635 0.10033 -0.034568 0.047017 0.26199 0.15587 -0.086874 -0.004425 -0.15798 -0.15819 0.33469 0.081947 0.25376 -0.060457 0.019167 0.15248 -0.068706 -0.22247 -0.070933 -0.078705 0.10879 0.12576 0.072793 -0.27514 -0.11335 0.11929 0.058443 -0.27998 -0.061811 -0.21084 -0.074436 -0.2284 -0.14797 -0.052857 0.093634 0.049941 0.17731 0.10832 0.01347 -0.065664 -0.12409 -0.20189 -0.082931 -0.073326 -0.14499 0.19714 -0.0827 -0.16251 0.0067455 -0.44455 -0.0016845 -0.013451 -0.15397 -0.10329 -0.12595 -0.02894 0.11299 0.31098 0.06069 -0.16072 -0.10517 -0.14326 -0.019683 -0.083472 
10:50:27] 0.055605 -0.049456 0.058935 0.03602 -0.042564 -0.0076062 0.0037621 0.015256 0.011928 0.011733 0.062327 0.027588 0.076924 0.079389 -0.067668 0.054999 0.076643 0.041897 0.044405 -0.032302 -0.0022511 0.020168 -0.064432 -0.053293 -0.018859 0.042841 0.047391 0.013941 0.041886 0.045615 0.010749 -0.077738 -0.080262 -0.041284 -0.083559 -0.053032 -0.023672 0.039155 -0.013363 0.01843 0.10281 0.061068 -0.034166 -0.0016847 -0.062097 -0.061845 0.13147 0.031537 0.10013 -0.023944 0.0076877 0.059153 -0.026498 -0.087319 -0.02745 -0.030202 0.042823 0.048907 0.028674 -0.10753 -0.044479 0.046862 0.02281 -0.10932 -0.024566 -0.082412 -0.029379 -0.089398 -0.057968 -0.020974 0.036473 0.020131 0.069818 0.042538 0.0054337 -0.025668 -0.048934 -0.079546 -0.032432 -0.028966 -0.057367 0.077204 -0.032693 -0.064313 0.0029697 -0.17396 -0.0010085 -0.0050896 -0.060222 -0.040371 -0.04942 -0.010831 0.044455 0.12211 0.023794 -0.062826 -0.041178 -0.056145 -0.0078544 -0.032715 
10:49:31] 0.05208 -0.046596 0.054949 0.033806 -0.040133 -0.0075151 0.0037801 0.014748 0.011457 0.010541 0.058286 0.026351 0.071615 0.074359 -0.063515 0.051948 0.071873 0.039241 0.041877 -0.031065 -0.002206 0.019239 -0.060436 -0.050046 -0.018182 0.040413 0.043996 0.013549 0.038783 0.042827 0.010248 -0.072386 -0.074772 -0.03836 -0.077866 -0.050071 -0.022089 0.036784 -0.013424 0.017235 0.096256 0.05709 -0.032121 -0.0013026 -0.058246 -0.058158 0.12345 0.029778 0.093446 -0.022152 0.0067091 0.056184 -0.02486 -0.081688 -0.026632 -0.02836 0.039785 0.046478 0.026763 -0.10119 -0.04182 0.044055 0.021555 -0.1028 -0.022762 -0.077184 -0.026883 -0.083411 -0.053991 -0.019937 0.033857 0.018863 0.065167 0.039374 0.0054987 -0.02365 -0.045594 -0.074279 -0.030551 -0.026792 -0.053185 0.072286 -0.031356 -0.059517 0.0025816 -0.16325 -0.0010818 -0.0047606 -0.056239 -0.03802 -0.04678 -0.01115 0.041895 0.11381 0.02284 -0.059315 -0.038757 -0.052907 -0.0080135 -0.031233 
GRE|raw_mtu=1476 0.087022 -0.077125 0.092825 0.056146 -0.067108 -0.011792 0.0064005 0.02358 0.019212 0.017978 0.09767 0.042991 0.12153 0.12566 -0.1065 0.087186 0.12078 0.066249 0.069823 -0.050337 -0.004255 0.032356 -0.10245 -0.084312 -0.029063 0.068576 0.073778 0.02205 0.06554 0.072314 0.017692 -0.12224 -0.12659 -0.063797 -0.13137 -0.084046 -0.037999 0.061849 -0.020905 0.029595 0.16268 0.096035 -0.054327 -0.0023855 -0.097926 -0.097263 0.20695 0.050702 0.15707 -0.037768 0.011727 0.094114 -0.042443 -0.13736 -0.043596 -0.049319 0.066668 0.077897 0.045227 -0.16988 -0.070556 0.073725 0.036962 -0.17298 -0.038276 -0.12952 -0.04648 -0.14081 -0.091227 -0.032637 0.057791 0.030853 0.10944 0.067093 0.0083032 -0.040246 -0.076862 -0.12425 -0.051208 -0.045067 -0.089703 0.12102 -0.051368 -0.10075 0.0038965 -0.27444 -0.0013774 -0.0079522 -0.094999 -0.064016 -0.078412 -0.017634 0.069835 0.19216 0.037429 -0.099301 -0.06481 -0.088856 -0.012578 -0.051285 
2 0.095697 -0.084779 0.10134 0.061809 -0.073596 -0.012688 0.0070831 0.026345 0.021055 0.01985 0.10744 0.04805 0.13212 0.13721 -0.11647 0.095236 0.13228 0.07183 0.076861 -0.055808 -0.0043732 0.034869 -0.11116 -0.091695 -0.032172 0.074355 0.081315 0.024068 0.071883 0.079029 0.018835 -0.13359 -0.138 -0.07021 -0.14347 -0.091852 -0.041029 0.067844 -0.023517 0.031824 0.17677 0.10525 -0.05872 -0.0029524 -0.10674 -0.10647 0.22615 0.055313 0.17122 -0.040727 0.012695 0.10307 -0.04621 -0.15004 -0.047818 -0.052915 0.073549 0.085015 0.049129 -0.18561 -0.076654 0.080742 0.039583 -0.18901 -0.041832 -0.14245 -0.050104 -0.15409 -0.099894 -0.035867 0.063142 0.033597 0.11962 0.073079 0.0092775 -0.044422 -0.083487 -0.1363 -0.056031 -0.049708 -0.097932 0.13294 -0.055862 -0.10978 0.0045466 -0.29997 -0.001104 -0.008895 -0.10398 -0.069604 -0.084796 -0.019427 0.076069 0.20971 0.040816 -0.1086 -0.070985 -0.096669 -0.013426 -0.056261 
1 0.071015 -0.06288 0.07537 0.04599 -0.054827 -0.0092559 0.0049515 0.019564 0.015741 0.014757 0.079889 0.035698 0.098161 0.10197 -0.086529 0.070971 0.098279 0.053351 0.057128 -0.041355 -0.0036418 0.026047 -0.082505 -0.068167 -0.023973 0.055302 0.060458 0.017825 0.053223 0.058882 0.013911 -0.099305 -0.10258 -0.052165 -0.10662 -0.068285 -0.030525 0.05036 -0.017439 0.023519 0.13142 0.078269 -0.043584 -0.0022265 -0.079129 -0.079325 0.16791 0.041129 0.12725 -0.030325 0.0095677 0.076545 -0.034353 -0.11142 -0.035523 -0.039263 0.05466 0.0629 0.036492 -0.138 -0.05675 0.059973 0.029351 -0.14042 -0.031211 -0.10587 -0.037293 -0.11453 -0.074313 -0.026711 0.0467 0.024909 0.089008 0.054282 0.0066779 -0.032927 -0.062151 -0.10122 -0.041622 -0.036752 -0.072633 0.099045 -0.041495 -0.081484 0.0035352 -0.22293 -0.00094997 -0.0067081 -0.07719 -0.051698 -0.063081 -0.014545 0.056571 0.15584 0.030436 -0.080677 -0.052642 -0.071775 -0.0099554 -0.042099 
5 0.090326 -0.079811 0.095657 0.058588 -0.069466 -0.011987 0.0065062 0.024762 0.019801 0.018773 0.1013 0.045534 0.12462 0.12929 -0.10998 0.089906 0.12474 0.06788 0.072497 -0.052626 -0.0044092 0.033015 -0.10513 -0.086516 -0.030465 0.07035 0.076785 0.022916 0.067726 0.07461 0.017569 -0.1262 -0.13023 -0.066393 -0.13549 -0.086603 -0.038592 0.063886 -0.022183 0.029991 0.16679 0.099105 -0.055303 -0.002876 -0.10065 -0.10068 0.21315 0.052202 0.16162 -0.038378 0.012259 0.097268 -0.04368 -0.14173 -0.044981 -0.049821 0.069444 0.079972 0.04636 -0.17543 -0.072028 0.076106 0.037165 -0.1783 -0.039332 -0.13432 -0.04735 -0.1455 -0.094225 -0.033638 0.05959 0.031846 0.11281 0.06909 0.008604 -0.041938 -0.079049 -0.12862 -0.052717 -0.046725 -0.092439 0.12569 -0.052822 -0.10359 0.0045242 -0.28319 -0.0011585 -0.0084789 -0.098106 -0.06578 -0.080247 -0.018272 0.072011 0.19816 0.038716 -0.10237 -0.067001 -0.091444 -0.012539 -0.053264 
4 0.083422 -0.07398 0.092298 0.056413 -0.061636 -0.015469 0.0019568 0.01929 0.020407 0.015528 0.099006 0.0464 0.12079 0.12396 -0.1001 0.080423 0.11385 0.058412 0.063539 -0.050453 -0.00061215 0.029298 -0.097156 -0.0813 -0.03293 0.06444 0.070924 0.021048 0.063207 0.067463 0.019217 -0.1133 -0.12208 -0.057731 -0.12392 -0.081018 -0.034297 0.064188 -0.016643 0.032393 0.15934 0.096404 -0.050639 -0.0028596 -0.090158 -0.090165 0.19672 0.04472 0.15098 -0.035459 0.010284 0.088934 -0.037474 -0.13155 -0.045102 -0.045596 0.063144 0.078886 0.046187 -0.15993 -0.065932 0.073824 0.037875 -0.1649 -0.034704 -0.12116 -0.046128 -0.14048 -0.086909 -0.034302 0.06067 0.030189 0.10427 0.068046 0.012916 -0.039309 -0.070035 -0.1176 -0.051731 -0.048168 -0.090256 0.11604 -0.050907 -0.096981 -0.00016459 -0.26014 -0.0052347 -0.0043039 -0.095432 -0.061876 -0.077649 -0.018412 0.071596 0.18286 0.033947 -0.099519 -0.067039 -0.083265 -0.0088121 -0.045091 
11:37:39] 0.10183 -0.091209 0.10795 0.066265 -0.077644 -0.013491 0.0071683 0.028142 0.022784 0.021509 0.11507 0.051704 0.14139 0.14613 -0.12463 0.1022 0.14245 0.077749 0.081836 -0.060037 -0.0054443 0.03708 -0.11846 -0.098376 -0.035139 0.079192 0.086705 0.025521 0.076035 0.083815 0.020017 -0.14348 -0.14768 -0.075811 -0.15424 -0.097826 -0.043186 0.072488 -0.025295 0.034165 0.18925 0.11265 -0.062822 -0.0037572 -0.11453 -0.11447 0.24161 0.059668 0.1835 -0.043661 0.014379 0.10978 -0.048867 -0.16026 -0.050381 -0.055462 0.078441 0.090747 0.052211 -0.19885 -0.081753 0.086415 0.042382 -0.20193 -0.045131 -0.15212 -0.053924 -0.16479 -0.10616 -0.038925 0.067109 0.036705 0.12738 0.077356 0.010232 -0.046766 -0.089765 -0.1458 -0.060109 -0.053268 -0.10446 0.14141 -0.060115 -0.11771 0.0042053 -0.32026 -0.00058842 -0.0096287 -0.11074 -0.074206 -0.090049 -0.021376 0.080732 0.22425 0.043157 -0.11628 -0.075228 -0.10405 -0.014214 -0.059736 
11:43:41] 0.12818 -0.11398 0.13522 0.082887 -0.098317 -0.016263 0.0087926 0.036353 0.028544 0.026656 0.14426 0.064964 0.17693 0.18475 -0.15664 0.12817 0.17766 0.096224 0.10317 -0.075102 -0.0055707 0.046661 -0.14894 -0.12301 -0.044399 0.099675 0.10871 0.031858 0.09616 0.1058 0.025115 -0.17953 -0.18536 -0.094336 -0.19359 -0.12328 -0.054549 0.091429 -0.031292 0.042733 0.2377 0.14189 -0.078887 -0.0043317 -0.14337 -0.14363 0.30323 0.073749 0.23015 -0.055265 0.017147 0.13814 -0.061129 -0.20151 -0.063604 -0.071671 0.099293 0.11387 0.064479 -0.25065 -0.10248 0.10805 0.053362 -0.25267 -0.056651 -0.19058 -0.067351 -0.20639 -0.13296 -0.048728 0.084362 0.046201 0.16071 0.097873 0.012488 -0.058794 -0.113 -0.18248 -0.07589 -0.066299 -0.13176 0.17807 -0.074864 -0.14743 0.0057336 -0.40291 -0.0013422 -0.012545 -0.13865 -0.093069 -0.11387 -0.025614 0.10176 0.28138 0.055039 -0.14616 -0.094767 -0.13006 -0.018189 -0.075836 
6 0.08921 -0.07695 0.098956 0.059764 -0.066326 -0.015014 0.0038836 0.021842 0.022084 0.016676 0.099401 0.048601 0.12603 0.13144 -0.11209 0.093922 0.12642 0.067278 0.071541 -0.048986 -0.0079146 0.034397 -0.1083 -0.087811 -0.029625 0.075737 0.074075 0.026066 0.073705 0.077256 0.015115 -0.12641 -0.13493 -0.070981 -0.13845 -0.093341 -0.04144 0.064334 -0.020955 0.029066 0.16928 0.10156 -0.054722 -0.0019921 -0.10155 -0.10649 0.21502 0.054043 0.16404 -0.038345 0.013375 0.095452 -0.047951 -0.14749 -0.05025 -0.053851 0.067371 0.081401 0.049239 -0.17527 -0.074889 0.073588 0.034487 -0.18245 -0.037071 -0.13776 -0.051164 -0.15229 -0.096227 -0.029867 0.061556 0.033885 0.11905 0.073292 0.0052579 -0.045092 -0.081571 -0.13555 -0.050621 -0.046401 -0.092704 0.1316 -0.049031 -0.10089 0.0024595 -0.2924 0.0023021 -0.008637 -0.10409 -0.070714 -0.085887 -0.01941 0.077208 0.20596 0.04185 -0.10369 -0.070947 -0.092923 -0.011591 -0.054224 
13 0.057522 -0.04758 0.06416 0.037678 -0.045188 -0.0076098 0.00477 0.016141 0.01342 0.0096612 0.064456 0.027182 0.076272 0.081851 -0.06684 0.053205 0.076373 0.041027 0.050862 -0.033019 0.00018594 0.020707 -0.065875 -0.055302 -0.01504 0.043293 0.050505 0.014708 0.043201 0.045469 0.011345 -0.077322 -0.080539 -0.040716 -0.086248 -0.058718 -0.02415 0.041306 -0.013873 0.022013 0.10305 0.06165 -0.036384 -0.0035486 -0.065956 -0.061559 0.13356 0.032936 0.10119 -0.019061 0.0061992 0.060903 -0.02545 -0.088979 -0.02746 -0.030489 0.048168 0.052922 0.028686 -0.1061 -0.044514 0.04828 0.02719 -0.11589 -0.025778 -0.083113 -0.027613 -0.085503 -0.057768 -0.016792 0.040309 0.01914 0.068409 0.040242 0.0098261 -0.027163 -0.048833 -0.07966 -0.033469 -0.031321 -0.060406 0.073877 -0.032747 -0.064649 0.0022447 -0.17683 0.0029278 -0.0074553 -0.05939 -0.040646 -0.048689 -0.0093755 0.045749 0.12282 0.023232 -0.064637 -0.044028 -0.058913 -0.0047416 -0.034669 
11:14:28] 0.10944 -0.096824 0.11495 0.070516 -0.083589 -0.014081 0.0077971 0.030471 0.024257 0.022985 0.12311 0.054809 0.15135 0.15611 -0.13296 0.10858 0.15074 0.08234 0.08763 -0.064073 -0.004854 0.040303 -0.12715 -0.10517 -0.037102 0.085106 0.09281 0.027349 0.082113 0.090395 0.021836 -0.15307 -0.15775 -0.080368 -0.16461 -0.10501 -0.046942 0.077531 -0.026519 0.036173 0.20267 0.11998 -0.066837 -0.0039426 -0.12238 -0.12177 0.25835 0.063319 0.19548 -0.046898 0.01442 0.11799 -0.052419 -0.17148 -0.054126 -0.060116 0.083789 0.096857 0.055439 -0.21245 -0.087082 0.092177 0.045046 -0.21562 -0.047984 -0.162 -0.057684 -0.17617 -0.11392 -0.041353 0.072334 0.038002 0.13649 0.083276 0.010495 -0.050161 -0.096194 -0.1558 -0.0642 -0.057111 -0.11115 0.1519 -0.064199 -0.12589 0.0051865 -0.34315 -0.0011858 -0.01052 -0.11857 -0.07934 -0.096394 -0.022372 0.086501 0.23961 0.046425 -0.12414 -0.081129 -0.11045 -0.015099 -0.064088 
11:47:25] 0.12418 -0.1108 0.13082 0.080606 -0.095448 -0.01628 0.0089748 0.035054 0.027381 0.026836 0.13967 0.062537 0.1717 0.17871 -0.15167 0.12452 0.17243 0.094136 0.099119 -0.073664 -0.0057911 0.045357 -0.14571 -0.11938 -0.042948 0.096629 0.10588 0.031207 0.093834 0.1016 0.023801 -0.17451 -0.1793 -0.091651 -0.18783 -0.11908 -0.052636 0.088896 -0.029477 0.041918 0.23 0.13736 -0.076718 -0.0036844 -0.13924 -0.13981 0.29451 0.072296 0.22307 -0.053211 0.016478 0.13449 -0.059605 -0.19496 -0.061454 -0.068573 0.095262 0.11104 0.062284 -0.24201 -0.098829 0.10502 0.051297 -0.24574 -0.054316 -0.18425 -0.065715 -0.20014 -0.12898 -0.047367 0.08146 0.044388 0.15585 0.095137 0.012103 -0.056596 -0.10913 -0.17745 -0.07364 -0.064892 -0.12716 0.17288 -0.073043 -0.1428 0.0056264 -0.38996 -0.0012026 -0.01209 -0.13543 -0.089477 -0.1099 -0.025064 0.098742 0.27328 0.053188 -0.1419 -0.091386 -0.12565 -0.016989 -0.073049 
8 0.069323 -0.060977 0.073174 0.044813 -0.053463 -0.0089274 0.004977 0.01885 0.01479 0.01421 0.077533 0.034453 0.094979 0.098812 -0.083887 0.06873 0.095454 0.051685 0.055357 -0.040436 -0.0034258 0.025534 -0.080035 -0.066208 -0.023289 0.053764 0.058681 0.017297 0.051862 0.057165 0.013423 -0.096347 -0.099414 -0.050623 -0.10348 -0.066101 -0.029346 0.048682 -0.016837 0.022833 0.12724 0.075634 -0.042291 -0.0020632 -0.076801 -0.077012 0.16285 0.039857 0.12341 -0.029613 0.0095788 0.074482 -0.0334 -0.10828 -0.034151 -0.038261 0.052935 0.061249 0.035424 -0.13392 -0.054868 0.05836 0.028465 -0.13622 -0.029967 -0.10263 -0.036148 -0.11111 -0.072158 -0.025794 0.045675 0.024149 0.086289 0.052756 0.0064973 -0.031976 -0.060495 -0.09801 -0.040527 -0.035755 -0.070528 0.096009 -0.040273 -0.079 0.0033332 -0.21635 -0.00085661 -0.0064493 -0.074763 -0.050278 -0.061148 -0.014166 0.054883 0.15108 0.029413 -0.078204 -0.051234 -0.06981 -0.0095718 -0.040764 
20 0.054927 -0.048902 0.060637 0.032925 -0.044011 -0.0078393 0.0017337 0.015295 0.011311 0.011622 0.06354 0.027089 0.078439 0.079415 -0.06495 0.054758 0.076475 0.042853 0.045975 -0.032987 -0.00038402 0.018029 -0.062053 -0.052581 -0.0174 0.040193 0.047759 0.011761 0.042596 0.043805 0.012138 -0.080312 -0.082066 -0.03983 -0.082532 -0.05505 -0.025715 0.042305 -0.011319 0.018337 0.10419 0.063509 -0.034256 -0.00021998 -0.06349 -0.061293 0.13482 0.030411 0.10095 -0.025592 0.008539 0.062874 -0.0259 -0.08764 -0.029175 -0.031978 0.044648 0.051356 0.030017 -0.10554 -0.045006 0.047081 0.024178 -0.10935 -0.025329 -0.084134 -0.027203 -0.087252 -0.058131 -0.020071 0.033575 0.019188 0.069259 0.04029 0.0062142 -0.022662 -0.047354 -0.081624 -0.030943 -0.029464 -0.053993 0.078186 -0.032469 -0.061968 0.0018337 -0.17591 0.00073301 -0.0056292 -0.061306 -0.040754 -0.04866 -0.0091424 0.045083 0.1203 0.021448 -0.063385 -0.038531 -0.054064 -0.0099408 -0.031664 
7 0.085553 -0.075663 0.09085 0.055432 -0.065794 -0.011256 0.0060153 0.023502 0.018849 0.017767 0.09625 0.043177 0.11836 0.12274 -0.10434 0.085409 0.11835 0.064327 0.068889 -0.049916 -0.0042194 0.031457 -0.09953 -0.082101 -0.028974 0.066687 0.07285 0.021641 0.064365 0.070801 0.016781 -0.11969 -0.12367 -0.063015 -0.12863 -0.082301 -0.036687 0.060674 -0.021044 0.028402 0.15833 0.09417 -0.052453 -0.0027711 -0.095433 -0.095598 0.20232 0.049531 0.15336 -0.03644 0.011546 0.092281 -0.041504 -0.13454 -0.042741 -0.0473 0.06589 0.075873 0.043936 -0.16626 -0.068446 0.072196 0.03524 -0.16916 -0.037465 -0.12757 -0.045006 -0.13803 -0.089545 -0.032044 0.05649 0.03005 0.10711 0.065476 0.0082166 -0.039717 -0.074886 -0.12194 -0.050179 -0.044313 -0.087528 0.11924 -0.04998 -0.098123 0.0041863 -0.26875 -0.000964 -0.0080298 -0.093087 -0.062336 -0.07607 -0.017354 0.068325 0.18784 0.03673 -0.097294 -0.063631 -0.086606 -0.011949 -0.050633 
11:44:06] 0.13262 -0.11758 0.13944 0.085598 -0.10167 -0.017542 0.0095389 0.036984 0.030262 0.027896 0.14852 0.066064 0.18294 0.19015 -0.1612 0.13251 0.18338 0.099168 0.10581 -0.077872 -0.0060975 0.048975 -0.15458 -0.12778 -0.045245 0.10295 0.11265 0.033804 0.098762 0.10911 0.025426 -0.18568 -0.19082 -0.097188 -0.19933 -0.1268 -0.056644 0.093638 -0.032627 0.044714 0.24489 0.14623 -0.081715 -0.0045313 -0.14858 -0.14802 0.31303 0.076584 0.23694 -0.056951 0.0181 0.14308 -0.063337 -0.20753 -0.066672 -0.073176 0.10209 0.11712 0.066839 -0.25798 -0.1054 0.11214 0.054901 -0.26161 -0.058457 -0.19696 -0.069472 -0.21309 -0.1378 -0.049682 0.087273 0.047757 0.16543 0.10137 0.013426 -0.060904 -0.11582 -0.18945 -0.077732 -0.068547 -0.13563 0.18434 -0.077616 -0.15265 0.0064555 -0.41584 -0.0011216 -0.012998 -0.14335 -0.095223 -0.11722 -0.026935 0.1048 0.29053 0.056443 -0.15078 -0.097909 -0.13374 -0.018281 -0.07888 
15 0.06558 -0.059127 0.068032 0.042839 -0.052707 -0.008273 0.0071538 0.018303 0.013051 0.014069 0.072958 0.031568 0.089948 0.092756 -0.077347 0.064874 0.089293 0.049962 0.054086 -0.038501 -0.0023554 0.024999 -0.076609 -0.062151 -0.020805 0.05133 0.056231 0.015824 0.049882 0.054133 0.012483 -0.089748 -0.093376 -0.049011 -0.097829 -0.062116 -0.027031 0.044721 -0.01498 0.021968 0.11997 0.070976 -0.039796 -0.0010806 -0.070898 -0.072518 0.15411 0.036299 0.11628 -0.02965 0.0096032 0.068315 -0.033389 -0.10172 -0.032278 -0.034352 0.050888 0.058056 0.03395 -0.12645 -0.052639 0.054113 0.026585 -0.12852 -0.028163 -0.098392 -0.033524 -0.10568 -0.069463 -0.025694 0.04315 0.021744 0.080635 0.050861 0.0064036 -0.03089 -0.057659 -0.090468 -0.037383 -0.034056 -0.067932 0.090282 -0.037399 -0.074875 0.0012845 -0.20407 -0.00041522 -0.0067845 -0.070041 -0.047406 -0.05731 -0.013112 0.05199 0.14118 0.027744 -0.072426 -0.049902 -0.065359 -0.0083566 -0.038338 
23 0.088289 -0.077616 0.093601 0.057149 -0.067208 -0.012481 0.0052426 0.023371 0.020359 0.018838 0.09819 0.045031 0.12164 0.12617 -0.1078 0.088475 0.12032 0.066503 0.070613 -0.05225 -0.0029791 0.031624 -0.10157 -0.083208 -0.030373 0.069229 0.075862 0.022909 0.066107 0.07246 0.018106 -0.12355 -0.1272 -0.063483 -0.1313 -0.084483 -0.038073 0.061972 -0.021329 0.028757 0.16314 0.096986 -0.054476 -0.0030612 -0.09736 -0.098611 0.20873 0.050977 0.15767 -0.036467 0.011189 0.094629 -0.041525 -0.13931 -0.042802 -0.049168 0.068704 0.07677 0.04476 -0.17174 -0.069547 0.074167 0.035385 -0.17422 -0.038545 -0.13139 -0.047265 -0.14074 -0.09215 -0.033415 0.057468 0.029829 0.10975 0.067531 0.0080074 -0.041932 -0.07771 -0.1245 -0.052283 -0.045666 -0.089781 0.12182 -0.051793 -0.10054 0.0036503 -0.2768 -0.00039315 -0.0078916 -0.094936 -0.063244 -0.077151 -0.016967 0.070448 0.19325 0.038838 -0.10095 -0.066302 -0.08986 -0.013122 -0.050628 
9 0.082034 -0.073496 0.092517 0.050158 -0.071619 -0.0042471 -0.0024953 0.019286 0.023484 0.018468 0.097964 0.036585 0.10992 0.12196 -0.10165 0.087164 0.11785 0.057333 0.068734 -0.04139 -0.012909 0.030459 -0.087287 -0.080092 -0.023699 0.063315 0.070674 0.018323 0.058518 0.070673 0.014023 -0.1061 -0.11807 -0.055039 -0.11865 -0.081516 -0.037751 0.063509 -0.018956 0.024928 0.15152 0.095089 -0.051137 -8.8327e-05 -0.084049 -0.097794 0.19284 0.048086 0.14892 -0.031027 0.010582 0.086663 -0.036589 -0.1205 -0.04235 -0.040598 0.061136 0.064448 0.040136 -0.156 -0.064311 0.070361 0.040538 -0.16751 -0.038883 -0.12635 -0.043513 -0.12948 -0.092895 -0.029359 0.054707 0.021438 0.11049 0.059376 0.0022586 -0.040848 -0.07107 -0.10969 -0.049983 -0.044247 -0.082733 0.11529 -0.048961 -0.087028 0.0064877 -0.24776 -0.0046881 -0.012311 -0.08822 -0.055433 -0.07195 -0.02326 0.06377 0.18246 0.034987 -0.095292 -0.060799 -0.077632 -0.0084176 -0.054973 
11:45:09] 0.12153 -0.10787 0.12803 0.078963 -0.09369 -0.016334 0.0086531 0.033931 0.027234 0.025256 0.13711 0.061273 0.16766 0.17438 -0.14814 0.12123 0.16784 0.091398 0.097365 -0.071001 -0.0056367 0.04438 -0.1416 -0.11729 -0.041747 0.094016 0.10337 0.030763 0.091202 0.09998 0.023831 -0.17018 -0.17568 -0.0896 -0.18319 -0.11659 -0.051841 0.085895 -0.029485 0.040752 0.2255 0.13451 -0.07507 -0.0046338 -0.13658 -0.13596 0.28756 0.069549 0.21787 -0.051724 0.016533 0.13176 -0.05823 -0.19146 -0.060754 -0.06742 0.093797 0.10828 0.061654 -0.23676 -0.09699 0.10255 0.050376 -0.24038 -0.05368 -0.18053 -0.063715 -0.19597 -0.12655 -0.0461 0.079509 0.043447 0.15203 0.092939 0.012206 -0.055922 -0.10695 -0.17404 -0.071323 -0.063269 -0.12456 0.16888 -0.071103 -0.14023 0.005173 -0.38107 -0.0014569 -0.011657 -0.13221 -0.088354 -0.10819 -0.024287 0.096815 0.26704 0.052052 -0.13799 -0.089893 -0.12362 -0.016795 -0.071534 
11:44:00] 0.12989 -0.1155 0.13644 0.083872 -0.099827 -0.017077 0.0092749 0.035873 0.029615 0.027143 0.1453 0.06434 0.17874 0.18599 -0.15764 0.12899 0.17957 0.096942 0.10339 -0.076608 -0.0057306 0.047467 -0.15059 -0.12523 -0.044195 0.10045 0.10995 0.032699 0.096859 0.10663 0.024912 -0.18171 -0.18648 -0.095128 -0.19537 -0.12451 -0.05488 0.091733 -0.031713 0.044052 0.23932 0.14285 -0.079687 -0.0044908 -0.1452 -0.14476 0.30621 0.074842 0.23181 -0.055888 0.017287 0.14049 -0.061536 -0.20329 -0.065027 -0.071394 0.099665 0.11469 0.065537 -0.25211 -0.10354 0.10989 0.053338 -0.2559 -0.057412 -0.19326 -0.067684 -0.20855 -0.13493 -0.048759 0.085474 0.046461 0.16151 0.099054 0.013143 -0.059548 -0.11355 -0.18486 -0.076217 -0.067344 -0.13263 0.18027 -0.075744 -0.14926 0.0062741 -0.40643 -0.0014455 -0.012495 -0.14035 -0.09333 -0.1146 -0.026215 0.10247 0.28436 0.055367 -0.14734 -0.095727 -0.13109 -0.018408 -0.077042 
21 0.04813 -0.04229 0.051178 0.03112 -0.03619 -0.0069004 0.0030677 0.013052 0.011254 0.011103 0.054553 0.023643 0.066417 0.069333 -0.059237 0.048297 0.067036 0.035904 0.039022 -0.026907 -0.0017423 0.01744 -0.056094 -0.045968 -0.01668 0.038426 0.040399 0.012197 0.036931 0.039861 0.0081465 -0.066651 -0.070391 -0.034878 -0.070957 -0.046387 -0.021456 0.033891 -0.013096 0.01568 0.087582 0.053628 -0.029449 -0.0010924 -0.053282 -0.052278 0.11434 0.027644 0.08522 -0.020216 0.006213 0.05258 -0.024103 -0.074625 -0.025078 -0.027376 0.035851 0.043742 0.0249 -0.093244 -0.037474 0.039479 0.020779 -0.09584 -0.020018 -0.071301 -0.02417 -0.078114 -0.048851 -0.019084 0.032162 0.016676 0.060003 0.036048 0.0039378 -0.021295 -0.042706 -0.069046 -0.0289 -0.025008 -0.048865 0.067734 -0.02774 -0.054252 0.0026597 -0.1503 -0.00065942 -0.0033066 -0.051145 -0.034045 -0.041945 -0.010438 0.03767 0.10526 0.019712 -0.053417 -0.03417 -0.04734 -0.00771 -0.029159 
3 0.06382 -0.056115 0.067515 0.041316 -0.049076 -0.0085575 0.0045453 0.017295 0.013936 0.013072 0.071412 0.032044 0.087427 0.091179 -0.077519 0.063306 0.08779 0.047707 0.05114 -0.037083 -0.0028673 0.023236 -0.073839 -0.060853 -0.021216 0.049374 0.054001 0.016165 0.047595 0.052573 0.012225 -0.08872 -0.091686 -0.046719 -0.095006 -0.061108 -0.027295 0.04502 -0.01576 0.020935 0.11718 0.069725 -0.038787 -0.0020153 -0.070701 -0.070808 0.15017 0.036866 0.11367 -0.027107 0.0085279 0.06852 -0.031031 -0.099853 -0.031742 -0.035262 0.048779 0.056639 0.032991 -0.12333 -0.050522 0.05346 0.026391 -0.12567 -0.02757 -0.094584 -0.033287 -0.10263 -0.066368 -0.023728 0.042127 0.022251 0.079507 0.048503 0.0059505 -0.029437 -0.055555 -0.090569 -0.036996 -0.032898 -0.065108 0.088629 -0.036954 -0.072866 0.0033146 -0.19923 -0.00079283 -0.0060814 -0.06922 -0.046304 -0.056529 -0.013078 0.050654 0.13934 0.026978 -0.071979 -0.046988 -0.064246 -0.0088033 -0.037268 
17 0.062064 -0.054913 0.065683 0.040136 -0.047693 -0.0081784 0.0043959 0.017 0.013627 0.012684 0.069616 0.03108 0.085486 0.088693 -0.075419 0.061779 0.085642 0.046522 0.049684 -0.036277 -0.0028274 0.022823 -0.07214 -0.059435 -0.021056 0.048263 0.052491 0.015637 0.046531 0.051292 0.01218 -0.086685 -0.089442 -0.045429 -0.09288 -0.059358 -0.026379 0.043982 -0.015078 0.020536 0.1146 0.068144 -0.038038 -0.0018544 -0.068977 -0.069129 0.14641 0.035762 0.11091 -0.026489 0.0082474 0.066584 -0.029953 -0.097181 -0.030946 -0.034359 0.04756 0.055068 0.031881 -0.12023 -0.049359 0.052267 0.025534 -0.12238 -0.026994 -0.091991 -0.032619 -0.09983 -0.064656 -0.023223 0.040971 0.021923 0.077397 0.047315 0.005938 -0.028712 -0.054252 -0.088195 -0.03628 -0.032059 -0.063359 0.086207 -0.0362 -0.070989 0.0029405 -0.19427 -0.00090721 -0.0058413 -0.067428 -0.04512 -0.055029 -0.012578 0.049425 0.13582 0.026559 -0.070327 -0.045878 -0.062572 -0.0086867 -0.036551 
9.x|dist=15|params=fuzzy|raw_sig=4:49+15:0:1460:65535,6:mss,nop,ws,sok,ts:df,ecn:0 0.078339 -0.069328 0.083501 0.050972 -0.060416 -0.010703 0.0055948 0.021479 0.017673 0.016145 0.088208 0.039465 0.10854 0.11269 -0.095512 0.078499 0.10855 0.058991 0.063211 -0.046182 -0.003704 0.028786 -0.091588 -0.075506 -0.026801 0.061053 0.066507 0.019975 0.058938 0.064922 0.015764 -0.11024 -0.11335 -0.057618 -0.11817 -0.075527 -0.033654 0.055432 -0.019215 0.026345 0.14539 0.086346 -0.048023 -0.0025027 -0.087622 -0.08777 0.18572 0.045396 0.14108 -0.033248 0.010321 0.084491 -0.038184 -0.12341 -0.039243 -0.043504 0.060347 0.069754 0.040242 -0.15269 -0.06281 0.06633 0.032348 -0.15521 -0.03457 -0.1169 -0.041557 -0.12639 -0.082236 -0.029593 0.051483 0.027922 0.098282 0.060061 0.0074166 -0.036168 -0.068527 -0.11194 -0.0461 -0.040447 -0.080249 0.10928 -0.045737 -0.090153 0.0039045 -0.24652 -0.00099387 -0.0076783 -0.0854 -0.057124 -0.070173 -0.015824 0.062945 0.17241 0.033695 -0.089009 -0.058073 -0.079777 -0.011194 -0.046543 
VPN|raw_mtu=1460 0.099595 -0.087511 0.10514 0.064347 -0.076227 -0.013361 0.0074607 0.027306 0.022122 0.02112 0.11214 0.04976 0.13837 0.14347 -0.12126 0.099879 0.13766 0.075511 0.080537 -0.058088 -0.0047494 0.035979 -0.11637 -0.096006 -0.033413 0.077782 0.084541 0.025406 0.074866 0.082467 0.020015 -0.13981 -0.1441 -0.072407 -0.14977 -0.095901 -0.042852 0.070582 -0.023878 0.033783 0.18526 0.10997 -0.061391 -0.003348 -0.1115 -0.11112 0.23588 0.057708 0.17894 -0.042209 0.012686 0.10704 -0.048328 -0.15605 -0.049917 -0.055911 0.076139 0.088627 0.051763 -0.19316 -0.079963 0.084593 0.041729 -0.19776 -0.043432 -0.14795 -0.052637 -0.16043 -0.1044 -0.037814 0.065971 0.035152 0.12499 0.076481 0.0097176 -0.045886 -0.087562 -0.14158 -0.058226 -0.050893 -0.10234 0.13858 -0.05859 -0.11474 0.0045202 -0.31303 -0.0012199 -0.0098651 -0.10824 -0.072924 -0.088491 -0.020407 0.079447 0.21873 0.042644 -0.11286 -0.073756 -0.10114 -0.014294 -0.058598 
11:18:38] 0.12529 -0.11188 0.13259 0.081275 -0.095804 -0.016316 0.0090814 0.03539 0.027127 0.025684 0.14068 0.063369 0.17391 0.1807 -0.15303 0.1257 0.17413 0.094838 0.10093 -0.073156 -0.0058572 0.046128 -0.14634 -0.12122 -0.042737 0.097957 0.10694 0.031793 0.094373 0.10363 0.024386 -0.17596 -0.18139 -0.092089 -0.18978 -0.12071 -0.054125 0.089093 -0.030385 0.042489 0.23244 0.13831 -0.076865 -0.0038041 -0.14046 -0.14064 0.2973 0.072475 0.22512 -0.053167 0.016607 0.13572 -0.059853 -0.19675 -0.062964 -0.069138 0.096621 0.11193 0.063525 -0.24436 -0.10071 0.10635 0.051939 -0.24809 -0.054661 -0.18711 -0.065791 -0.20272 -0.12997 -0.047839 0.08266 0.045287 0.15733 0.096119 0.012428 -0.057933 -0.10994 -0.17962 -0.074283 -0.065641 -0.12904 0.17497 -0.073339 -0.14471 0.0057169 -0.3952 -0.0022459 -0.011759 -0.13688 -0.090484 -0.11168 -0.025185 0.10032 0.27508 0.053959 -0.14348 -0.092219 -0.12732 -0.016977 -0.073898 
11:15:03] 0.12033 -0.10649 0.12714 0.078095 -0.092566 -0.015701 0.0089236 0.033191 0.027162 0.024675 0.13506 0.060681 0.16693 0.17215 -0.14659 0.12037 0.1668 0.090622 0.096058 -0.07071 -0.0057933 0.043938 -0.13987 -0.11588 -0.041554 0.093266 0.10227 0.029929 0.090309 0.099345 0.022786 -0.16787 -0.17376 -0.08888 -0.18144 -0.11507 -0.050811 0.085655 -0.029437 0.040571 0.22283 0.13275 -0.074369 -0.0041799 -0.13469 -0.13432 0.28447 0.069209 0.21556 -0.05139 0.016151 0.12977 -0.057676 -0.18978 -0.060371 -0.066806 0.092798 0.10732 0.061402 -0.23366 -0.096902 0.10154 0.049729 -0.23826 -0.052785 -0.17848 -0.06312 -0.19417 -0.12519 -0.045267 0.079309 0.04304 0.15007 0.091483 0.011109 -0.055264 -0.10558 -0.17192 -0.070803 -0.062338 -0.12323 0.16729 -0.071301 -0.13877 0.0056352 -0.3775 -0.0012324 -0.011113 -0.13008 -0.086967 -0.10646 -0.024427 0.095803 0.26344 0.051653 -0.13666 -0.089293 -0.12246 -0.016876 -0.070849 
16 0.049369 -0.042646 0.050513 0.032077 -0.038407 -0.0065291 0.0022717 0.013325 0.011858 0.010747 0.054713 0.023942 0.06659 0.070329 -0.059647 0.047959 0.068553 0.036915 0.040103 -0.028925 -0.0010617 0.018501 -0.057165 -0.046601 -0.016825 0.036968 0.042749 0.012338 0.036979 0.041055 0.009727 -0.06938 -0.071525 -0.036442 -0.072532 -0.045793 -0.020245 0.034754 -0.012957 0.015143 0.089395 0.052948 -0.02998 -0.00063889 -0.054139 -0.054525 0.11565 0.02855 0.088475 -0.021696 0.0053712 0.052601 -0.022858 -0.076725 -0.024436 -0.028008 0.037584 0.044138 0.024706 -0.093922 -0.039569 0.040877 0.021324 -0.097218 -0.02133 -0.07262 -0.02681 -0.07974 -0.052048 -0.019534 0.031843 0.016508 0.060358 0.037819 0.0055607 -0.021712 -0.041592 -0.068671 -0.02875 -0.025025 -0.049849 0.067936 -0.028611 -0.057015 0.0032051 -0.15305 6.6373e-05 -0.0054244 -0.053782 -0.036423 -0.044289 -0.0098629 0.039126 0.10778 0.020003 -0.056128 -0.036092 -0.048518 -0.00646 -0.029096 
11 0.23857 -0.20631 0.24915 0.15432 -0.17722 -0.034755 0.015761 0.064119 0.054713 0.050578 0.26554 0.12207 0.32257 0.3337 -0.28918 0.23342 0.32633 0.17972 0.18613 -0.13794 -0.0080585 0.085731 -0.27357 -0.22147 -0.080364 0.18075 0.19909 0.059698 0.17768 0.19645 0.044562 -0.33004 -0.34082 -0.16973 -0.3507 -0.22889 -0.10191 0.16656 -0.059657 0.079606 0.42919 0.25515 -0.14311 -0.0054209 -0.26277 -0.25865 0.55286 0.13444 0.42232 -0.094986 0.030437 0.25318 -0.11108 -0.36657 -0.11629 -0.12939 0.17848 0.20488 0.12008 -0.45666 -0.18886 0.19887 0.095139 -0.46466 -0.10031 -0.35071 -0.12104 -0.38047 -0.24693 -0.088149 0.1587 0.083736 0.29497 0.1787 0.02424 -0.11119 -0.20425 -0.33365 -0.13778 -0.12426 -0.23844 0.3284 -0.1372 -0.26694 0.012875 -0.7353 -0.0023075 -0.022349 -0.25473 -0.16766 -0.21044 -0.046086 0.18713 0.51547 0.10196 -0.26589 -0.1756 -0.23926 -0.032202 -0.13714 
11:49:45] 0.13709 -0.1213 0.14459 0.088132 -0.10525 -0.017631 0.0096287 0.038235 0.031331 0.029035 0.15408 0.068767 0.18922 0.19623 -0.16585 0.1373 0.1891 0.10216 0.10954 -0.07957 -0.006334 0.049982 -0.15884 -0.13192 -0.046881 0.10574 0.11562 0.034836 0.10264 0.11215 0.026872 -0.19184 -0.19751 -0.101 -0.20675 -0.13139 -0.058345 0.09757 -0.033352 0.045286 0.2532 0.1507 -0.083643 -0.0044223 -0.15379 -0.15259 0.32404 0.079041 0.24512 -0.058688 0.019016 0.14782 -0.065575 -0.21507 -0.067861 -0.075594 0.1053 0.12122 0.069546 -0.26562 -0.10961 0.11567 0.056012 -0.27016 -0.060333 -0.20305 -0.072151 -0.22089 -0.14253 -0.051845 0.089983 0.048831 0.17109 0.10518 0.013396 -0.063457 -0.12081 -0.19527 -0.080095 -0.070749 -0.14013 0.19048 -0.079801 -0.15722 0.006588 -0.42958 -0.0016012 -0.01319 -0.14826 -0.099597 -0.12129 -0.027699 0.10918 0.30029 0.058195 -0.15594 -0.10088 -0.13824 -0.019032 -0.080986 
11:49:34] 0.13168 -0.11644 0.13928 0.085232 -0.10168 -0.017255 0.009651 0.036648 0.030101 0.027086 0.14796 0.066419 0.18203 0.18916 -0.16017 0.13174 0.18185 0.099148 0.10534 -0.076872 -0.0060798 0.048189 -0.15322 -0.12704 -0.04432 0.10159 0.1116 0.033035 0.098865 0.10798 0.025677 -0.18513 -0.1895 -0.097051 -0.19877 -0.12606 -0.055665 0.094156 -0.032288 0.044309 0.2436 0.14497 -0.080522 -0.0046098 -0.14738 -0.14714 0.31139 0.076318 0.23613 -0.056317 0.017638 0.14225 -0.063298 -0.20615 -0.066266 -0.072005 0.10125 0.11707 0.066824 -0.25619 -0.10542 0.11075 0.05493 -0.26007 -0.057947 -0.19616 -0.069232 -0.21229 -0.13715 -0.049939 0.086625 0.047269 0.16445 0.10058 0.012511 -0.061185 -0.11624 -0.18903 -0.077637 -0.068463 -0.13423 0.18272 -0.077226 -0.15112 0.0058568 -0.41338 -0.0010664 -0.012595 -0.14228 -0.095421 -0.11647 -0.026752 0.10459 0.28965 0.055927 -0.15033 -0.097498 -0.13312 -0.018627 -0.078325 
12 0.060011 -0.052988 0.063616 0.040062 -0.047914 -0.0090429 0.0037053 0.017268 0.012456 0.011946 0.067871 0.030928 0.082967 0.087098 -0.074201 0.061683 0.083007 0.047002 0.049297 -0.034589 -0.0030789 0.023473 -0.071506 -0.058295 -0.021545 0.0476 0.051218 0.01517 0.045175 0.050582 0.012939 -0.086274 -0.088901 -0.04505 -0.090509 -0.05766 -0.026632 0.043816 -0.015376 0.01918 0.11194 0.067977 -0.037408 -0.0027608 -0.068792 -0.067806 0.145 0.036036 0.10802 -0.025168 0.0087882 0.064605 -0.030438 -0.096452 -0.029636 -0.033201 0.046668 0.053855 0.030131 -0.11746 -0.047933 0.052515 0.025505 -0.12065 -0.025849 -0.089682 -0.030833 -0.097393 -0.062876 -0.022226 0.039144 0.020275 0.077369 0.045472 0.0050468 -0.028258 -0.054007 -0.087785 -0.035763 -0.031361 -0.061149 0.084566 -0.036612 -0.071016 0.0034736 -0.19074 -0.001025 -0.0063975 -0.065972 -0.044807 -0.05477 -0.012774 0.04869 0.13466 0.025234 -0.069113 -0.044614 -0.061275 -0.0093188 -0.036608 
11:25:04] 0.097699 -0.086919 0.10337 0.063268 -0.074811 -0.01265 0.0064238 0.027291 0.022246 0.020137 0.10926 0.048545 0.13528 0.13963 -0.11863 0.097475 0.13496 0.074134 0.077846 -0.057407 -0.00477 0.036696 -0.11414 -0.094316 -0.033427 0.076071 0.082652 0.02536 0.072577 0.080671 0.018387 -0.13677 -0.14081 -0.072442 -0.14728 -0.093597 -0.042074 0.068905 -0.02363 0.032471 0.18039 0.10794 -0.060422 -0.0032506 -0.10887 -0.10917 0.23085 0.056837 0.17498 -0.041868 0.013323 0.1058 -0.047167 -0.15396 -0.049155 -0.053769 0.07451 0.086382 0.049327 -0.18966 -0.07747 0.081982 0.040411 -0.19317 -0.042871 -0.14486 -0.051303 -0.15711 -0.102 -0.03654 0.064336 0.034928 0.1222 0.074747 0.0097503 -0.044422 -0.086089 -0.13997 -0.057495 -0.05095 -0.10062 0.13617 -0.057447 -0.11248 0.0052793 -0.30683 -0.0017629 -0.0096123 -0.10564 -0.070072 -0.086785 -0.019474 0.077973 0.21449 0.041981 -0.11118 -0.071873 -0.098362 -0.013865 -0.057611 
11:15:02] 0.11686 -0.1037 0.12328 0.075507 -0.089817 -0.015136 0.008433 0.032396 0.026394 0.024103 0.13129 0.058949 0.16168 0.16705 -0.14254 0.11688 0.16137 0.087655 0.093124 -0.068317 -0.0051759 0.043046 -0.13588 -0.11212 -0.039612 0.090658 0.099241 0.029503 0.08739 0.096281 0.022609 -0.16381 -0.16828 -0.085775 -0.17604 -0.11228 -0.049758 0.082978 -0.028928 0.038713 0.21616 0.12884 -0.07206 -0.0040343 -0.13063 -0.13058 0.27571 0.067345 0.2097 -0.050046 0.015684 0.12567 -0.056132 -0.18326 -0.058498 -0.064736 0.08986 0.10403 0.059097 -0.2266 -0.093064 0.098307 0.048032 -0.23046 -0.051178 -0.1738 -0.061423 -0.18801 -0.12103 -0.043839 0.076626 0.041768 0.14537 0.089229 0.01118 -0.053657 -0.10206 -0.16616 -0.069176 -0.060167 -0.11912 0.16239 -0.068482 -0.13439 0.0052386 -0.36672 -0.0016155 -0.010834 -0.12599 -0.084721 -0.10339 -0.023255 0.092879 0.25572 0.050608 -0.13297 -0.086495 -0.11817 -0.01607 -0.068984 
10:50:25] 0.056957 -0.049736 0.060006 0.037083 -0.042663 -0.0074641 0.0044913 0.01602 0.012353 0.012351 0.063324 0.028489 0.078105 0.080705 -0.06852 0.055932 0.078502 0.042992 0.044662 -0.033326 -0.0023722 0.020324 -0.06567 -0.054777 -0.018708 0.043565 0.047573 0.014513 0.042578 0.046515 0.011212 -0.079934 -0.081231 -0.041401 -0.084788 -0.05436 -0.023832 0.04038 -0.013408 0.018814 0.10439 0.062671 -0.035034 -0.0013327 -0.06328 -0.063107 0.13336 0.032975 0.10179 -0.024181 0.0073957 0.060096 -0.027507 -0.088661 -0.02763 -0.030748 0.043127 0.050894 0.028716 -0.10954 -0.044674 0.047744 0.022937 -0.11141 -0.024993 -0.083702 -0.029875 -0.091059 -0.058859 -0.021456 0.037234 0.020098 0.07112 0.043564 0.0058389 -0.026154 -0.049955 -0.081343 -0.033097 -0.029611 -0.05778 0.078005 -0.032891 -0.06461 0.0029213 -0.177 -0.00049127 -0.0055424 -0.061292 -0.040923 -0.050016 -0.011443 0.045646 0.12448 0.024012 -0.064157 -0.041912 -0.057121 -0.0071463 -0.033118 
9.x|dist=17|params=fuzzy|raw_sig=4:47+17:0:1460:65535,6:mss,nop,ws,sok,ts:df,ecn:0 0.080592 -0.071345 0.086025 0.052481 -0.062049 -0.011144 0.0056681 0.022066 0.018135 0.016643 0.09086 0.04064 0.11197 0.11605 -0.098327 0.080895 0.11174 0.060762 0.065169 -0.047495 -0.0037994 0.029652 -0.094412 -0.077781 -0.027629 0.062903 0.068595 0.020624 0.06066 0.066892 0.01626 -0.11356 -0.11678 -0.059328 -0.1217 -0.07793 -0.034668 0.057197 -0.019752 0.027068 0.14981 0.088899 -0.049614 -0.0026353 -0.090217 -0.090308 0.19132 0.046913 0.14529 -0.0343 0.010699 0.086993 -0.039316 -0.12719 -0.040382 -0.044841 0.062176 0.071797 0.04142 -0.15715 -0.064609 0.06834 0.033291 -0.15978 -0.035626 -0.12034 -0.042735 -0.13022 -0.084664 -0.030589 0.053069 0.028788 0.10124 0.061792 0.0076412 -0.037251 -0.070699 -0.1153 -0.047449 -0.041673 -0.0827 0.11259 -0.047093 -0.092828 0.0038953 -0.2539 -0.00098594 -0.0078769 -0.087948 -0.058853 -0.072326 -0.016273 0.06487 0.17745 0.034712 -0.091785 -0.059746 -0.082207 -0.011507 -0.047876 
11:19:04] 0.12142 -0.10786 0.12882 0.077532 -0.092761 -0.016779 0.0080364 0.03322 0.026789 0.02533 0.13654 0.061672 0.16881 0.17354 -0.1473 0.12074 0.16838 0.091379 0.097561 -0.070871 -0.0058888 0.044987 -0.14162 -0.11647 -0.041541 0.094426 0.10322 0.030306 0.09103 0.10044 0.023454 -0.16951 -0.17536 -0.089449 -0.18342 -0.11651 -0.051917 0.086134 -0.029978 0.040433 0.22489 0.13424 -0.074783 -0.0045067 -0.13609 -0.13497 0.28614 0.070174 0.21761 -0.052588 0.017007 0.13085 -0.057368 -0.19083 -0.06029 -0.066816 0.093524 0.10787 0.061673 -0.23619 -0.097435 0.10199 0.050253 -0.24002 -0.053843 -0.17969 -0.0637 -0.1961 -0.12603 -0.045856 0.08017 0.04387 0.15216 0.092819 0.012454 -0.055348 -0.10641 -0.17305 -0.070834 -0.063109 -0.12441 0.16893 -0.070552 -0.14018 0.0058849 -0.3811 -0.00079851 -0.011196 -0.13089 -0.087619 -0.10745 -0.024607 0.097088 0.26635 0.051963 -0.13896 -0.089506 -0.12268 -0.01732 -0.071834 
11:49:46] 0.13358 -0.11822 0.14168 0.086029 -0.10267 -0.016954 0.0090516 0.037298 0.030544 0.028478 0.15026 0.06693 0.18451 0.19078 -0.16157 0.13365 0.18468 0.10054 0.1062 -0.077542 -0.0064428 0.049122 -0.15538 -0.12834 -0.045659 0.10359 0.11195 0.033633 0.10018 0.10934 0.025714 -0.18745 -0.19288 -0.098791 -0.20063 -0.12845 -0.056675 0.094777 -0.031977 0.045116 0.24683 0.14649 -0.081535 -0.004491 -0.14956 -0.14862 0.3161 0.077563 0.23919 -0.057504 0.01836 0.14452 -0.063645 -0.20929 -0.065735 -0.073445 0.10282 0.11873 0.067842 -0.25928 -0.10676 0.11266 0.054881 -0.26281 -0.059326 -0.19811 -0.070168 -0.21562 -0.1388 -0.049897 0.088138 0.047603 0.16673 0.10171 0.013342 -0.062207 -0.11771 -0.19062 -0.07762 -0.069733 -0.13673 0.18548 -0.077834 -0.15314 0.0060914 -0.41926 -0.0011028 -0.012702 -0.14373 -0.09661 -0.11829 -0.026523 0.10645 0.29337 0.057434 -0.15184 -0.098141 -0.13549 -0.018436 -0.078749 
11:18:34] 0.12183 -0.10811 0.13012 0.078891 -0.092988 -0.015682 0.0085852 0.033987 0.027662 0.024941 0.13708 0.061255 0.16902 0.17541 -0.14888 0.12201 0.16933 0.092098 0.097834 -0.071024 -0.0055377 0.044977 -0.14237 -0.11718 -0.041393 0.094743 0.10395 0.030817 0.092006 0.10056 0.024001 -0.17131 -0.17643 -0.089524 -0.18406 -0.11693 -0.051689 0.086803 -0.029488 0.041082 0.22525 0.13451 -0.075005 -0.0044097 -0.13646 -0.13532 0.2888 0.070834 0.21872 -0.052692 0.016431 0.13173 -0.058589 -0.19117 -0.061505 -0.067571 0.093662 0.10893 0.062163 -0.23784 -0.098348 0.10292 0.050446 -0.24146 -0.05319 -0.18143 -0.063812 -0.19662 -0.12668 -0.046278 0.080635 0.044261 0.15212 0.093212 0.011511 -0.056436 -0.10732 -0.17524 -0.07212 -0.063964 -0.12506 0.16939 -0.071272 -0.14043 0.0060403 -0.3833 -0.0013857 -0.01154 -0.13242 -0.088605 -0.10809 -0.025056 0.09724 0.26773 0.052108 -0.13931 -0.090267 -0.12318 -0.01693 -0.072495 
55 0.065858 -0.055301 0.068268 0.041313 -0.04927 -0.0096825 0.0045829 0.015951 0.011795 0.013071 0.074871 0.030967 0.090312 0.093238 -0.082735 0.067682 0.08841 0.049753 0.055239 -0.04017 -0.0044092 0.026356 -0.078215 -0.062321 -0.020778 0.053402 0.055377 0.01659 0.047079 0.052829 0.012368 -0.089458 -0.093438 -0.049116 -0.098386 -0.067339 -0.024141 0.042921 -0.015451 0.020784 0.12289 0.072379 -0.040413 -0.0027528 -0.073404 -0.073662 0.15498 0.03463 0.11724 -0.025767 0.0055081 0.071951 -0.032991 -0.10556 -0.031461 -0.038722 0.049495 0.06052 0.030626 -0.1251 -0.053665 0.053726 0.028174 -0.12768 -0.030662 -0.099756 -0.036438 -0.10261 -0.070395 -0.027097 0.042487 0.022665 0.079534 0.051095 0.0042896 -0.029982 -0.060976 -0.091302 -0.03716 -0.032411 -0.064539 0.092606 -0.03687 -0.075269 0.0035469 -0.20604 -0.00093532 -0.0038093 -0.072221 -0.049145 -0.059129 -0.013842 0.052557 0.14544 0.029128 -0.075122 -0.049825 -0.067916 -0.011145 -0.037814 
10:49:54] 0.043204 -0.039144 0.045733 0.028214 -0.033397 -0.0061009 0.0033823 0.012277 0.0098625 0.0089868 0.04911 0.021387 0.059634 0.062359 -0.053049 0.043727 0.06006 0.033437 0.034999 -0.026088 -0.0026886 0.0164 -0.051075 -0.042578 -0.01545 0.03403 0.036653 0.011171 0.032203 0.036313 0.0081895 -0.060962 -0.062939 -0.032586 -0.065344 -0.042199 -0.018417 0.030213 -0.010951 0.014436 0.08081 0.047468 -0.026546 -0.0012618 -0.048569 -0.048593 0.10382 0.02561 0.078557 -0.019584 0.0055171 0.046985 -0.021107 -0.068869 -0.022051 -0.023934 0.033267 0.038477 0.022744 -0.08475 -0.034964 0.037355 0.017597 -0.086934 -0.019722 -0.064768 -0.02285 -0.070177 -0.045566 -0.016488 0.028684 0.015866 0.054981 0.033727 0.0046042 -0.01928 -0.038145 -0.062851 -0.025884 -0.022736 -0.045537 0.061042 -0.026306 -0.050124 0.0024101 -0.13709 -8.9961e-05 -0.0037006 -0.047389 -0.031529 -0.039352 -0.0089645 0.03503 0.095977 0.018704 -0.049968 -0.03246 -0.044533 -0.0068483 -0.02634 
11:23:14] 0.11703 -0.1044 0.12377 0.076063 -0.089723 -0.015588 0.00762 0.032839 0.025926 0.0243 0.13206 0.058281 0.16182 0.16772 -0.14325 0.11711 0.16175 0.087933 0.093756 -0.068472 -0.0052989 0.042761 -0.1367 -0.11341 -0.040231 0.090912 0.099679 0.029444 0.087675 0.096646 0.02292 -0.16404 -0.16908 -0.086384 -0.17653 -0.11322 -0.050057 0.084048 -0.028135 0.0393 0.21668 0.12976 -0.071901 -0.0038442 -0.13125 -0.13104 0.2774 0.068325 0.21004 -0.049241 0.01597 0.12621 -0.056151 -0.18423 -0.058964 -0.064045 0.089768 0.10369 0.058891 -0.22737 -0.093471 0.099059 0.048329 -0.23213 -0.05112 -0.17414 -0.061624 -0.18861 -0.12235 -0.044153 0.077577 0.042163 0.14634 0.08957 0.011598 -0.053354 -0.10276 -0.1671 -0.068936 -0.060466 -0.11973 0.16292 -0.068534 -0.13515 0.0054414 -0.36784 -0.0016653 -0.011598 -0.12651 -0.084812 -0.10392 -0.023714 0.093614 0.25736 0.05014 -0.13316 -0.086405 -0.11895 -0.01593 -0.069545 
11:23:15] 0.11432 -0.10185 0.12209 0.074256 -0.088312 -0.014714 0.0077517 0.031852 0.025607 0.023421 0.12903 0.056995 0.15834 0.16385 -0.1404 0.11464 0.15848 0.085957 0.092273 -0.067244 -0.0047264 0.041724 -0.13414 -0.11088 -0.039288 0.089529 0.097546 0.029341 0.085759 0.094584 0.022534 -0.16048 -0.16576 -0.084649 -0.17306 -0.11075 -0.048707 0.082239 -0.027951 0.038566 0.21261 0.12706 -0.070901 -0.0038478 -0.12776 -0.1287 0.27163 0.066475 0.20576 -0.048526 0.015893 0.124 -0.055235 -0.18061 -0.057352 -0.062711 0.088001 0.10202 0.058409 -0.22314 -0.091989 0.097465 0.047633 -0.22663 -0.050215 -0.16981 -0.060694 -0.18482 -0.11922 -0.043164 0.075791 0.041253 0.14356 0.087588 0.011129 -0.052451 -0.1006 -0.1642 -0.067475 -0.059042 -0.11723 0.15925 -0.067035 -0.13266 0.0053587 -0.3604 -0.0018255 -0.010518 -0.12444 -0.083489 -0.10128 -0.022785 0.091794 0.25198 0.049215 -0.13062 -0.084749 -0.11611 -0.015602 -0.067964 
11:35:41] 0.10504 -0.09285 0.11169 0.067894 -0.080907 -0.013134 0.0066273 0.029926 0.024503 0.02204 0.11779 0.0529 0.14509 0.15001 -0.12712 0.10585 0.14569 0.079154 0.084549 -0.060677 -0.0048862 0.038451 -0.12182 -0.10186 -0.035915 0.081457 0.088254 0.026783 0.078131 0.086971 0.02096 -0.14704 -0.15088 -0.077692 -0.15748 -0.10094 -0.043975 0.074858 -0.025304 0.034802 0.19438 0.11559 -0.065021 -0.0032702 -0.11727 -0.117 0.24775 0.061127 0.18867 -0.045224 0.014415 0.11263 -0.050933 -0.16506 -0.051923 -0.058077 0.081118 0.093253 0.053623 -0.20425 -0.083582 0.087462 0.04307 -0.20703 -0.045747 -0.15536 -0.055174 -0.169 -0.10947 -0.039836 0.069791 0.038439 0.13026 0.080615 0.0095446 -0.047065 -0.091601 -0.1493 -0.062109 -0.055159 -0.10797 0.14593 -0.061366 -0.12124 0.0046211 -0.32979 -0.0011682 -0.0094451 -0.11346 -0.074872 -0.092825 -0.020514 0.0835 0.22954 0.04442 -0.11935 -0.077098 -0.10655 -0.01466 -0.061469 
10:59:31] 0.052228 -0.046407 0.054899 0.033956 -0.040672 -0.0064982 0.0040856 0.015092 0.011485 0.01135 0.059242 0.026576 0.072478 0.075461 -0.06357 0.051753 0.072266 0.039172 0.041947 -0.031322 -0.001928 0.019621 -0.060337 -0.050625 -0.018597 0.040915 0.044161 0.014202 0.039307 0.043063 0.010001 -0.07341 -0.076212 -0.038313 -0.078748 -0.050035 -0.022304 0.037503 -0.013331 0.017442 0.097024 0.057221 -0.032256 -0.0011504 -0.058675 -0.058659 0.12408 0.030326 0.093923 -0.02139 0.006556 0.056323 -0.02534 -0.081551 -0.02645 -0.028334 0.040025 0.046732 0.02626 -0.10136 -0.041814 0.044209 0.022051 -0.10338 -0.022907 -0.077742 -0.027174 -0.083938 -0.054076 -0.019877 0.034693 0.018821 0.065929 0.039899 0.0050399 -0.023832 -0.045221 -0.074607 -0.03069 -0.027207 -0.053447 0.072088 -0.030507 -0.059882 0.0021352 -0.16452 -0.00085389 -0.0051744 -0.056871 -0.038196 -0.046873 -0.010463 0.041294 0.11471 0.022687 -0.05996 -0.038496 -0.052728 -0.0078169 -0.030793 
10 0.1079 -0.094734 0.11259 0.068104 -0.078986 -0.0095113 0.007267 0.0288 0.0199 0.021375 0.12044 0.056738 0.14108 0.14812 -0.12596 0.10106 0.14774 0.079782 0.084338 -0.064308 -0.004407 0.04091 -0.12258 -0.10118 -0.038998 0.081152 0.090695 0.026849 0.082692 0.091932 0.019223 -0.14706 -0.1488 -0.077445 -0.15535 -0.097626 -0.041076 0.077397 -0.022603 0.033023 0.19455 0.11796 -0.06217 -0.00085029 -0.1174 -0.11894 0.24619 0.059212 0.18982 -0.048172 0.018559 0.11164 -0.052056 -0.16344 -0.052336 -0.059044 0.080308 0.095047 0.056065 -0.20681 -0.082501 0.08677 0.043349 -0.20482 -0.044316 -0.1614 -0.051542 -0.17128 -0.11357 -0.037247 0.071603 0.037669 0.13132 0.082283 0.0097134 -0.049581 -0.095127 -0.1499 -0.063495 -0.055307 -0.10741 0.14827 -0.06596 -0.1178 0.0045881 -0.33143 0.0006836 -0.0062683 -0.11215 -0.076312 -0.097559 -0.021231 0.086128 0.2322 0.044981 -0.12471 -0.079606 -0.10686 -0.01513 -0.063191 
mod=ip 0.04677 -0.042344 0.050113 0.030554 -0.036657 -0.0063326 0.0042136 0.013383 0.0096748 0.010755 0.052554 0.024497 0.064616 0.067521 -0.058332 0.047037 0.065273 0.034382 0.038297 -0.027853 -0.0024549 0.016113 -0.055491 -0.045875 -0.016375 0.037263 0.040308 0.011843 0.035576 0.0391 0.0094291 -0.065841 -0.068392 -0.035578 -0.070774 -0.044941 -0.019173 0.033417 -0.011132 0.016551 0.088268 0.051303 -0.029214 -0.0016384 -0.052967 -0.053052 0.11152 0.026839 0.084925 -0.019164 0.0053729 0.051593 -0.022749 -0.075213 -0.023354 -0.026797 0.036434 0.041301 0.025132 -0.093126 -0.03777 0.04037 0.019152 -0.093898 -0.019887 -0.069688 -0.02497 -0.075405 -0.048983 -0.016731 0.03088 0.016201 0.058738 0.036053 0.0042293 -0.02184 -0.040981 -0.067477 -0.029065 -0.022927 -0.049765 0.066781 -0.027793 -0.054898 0.0034076 -0.14881 -0.001751 -0.0048672 -0.052 -0.033731 -0.042748 -0.0094326 0.037932 0.10403 0.020026 -0.053208 -0.034718 -0.048834 -0.0067544 -0.027525 
11:49:35] 0.14425 -0.12784 0.15201 0.093461 -0.11091 -0.019008 0.010287 0.040357 0.032616 0.030394 0.16221 0.072436 0.19902 0.20708 -0.17576 0.14447 0.19939 0.10825 0.11546 -0.084321 -0.0061419 0.052378 -0.16778 -0.1389 -0.049424 0.11184 0.12206 0.036217 0.10809 0.11803 0.028092 -0.20203 -0.20827 -0.10644 -0.21759 -0.13824 -0.061843 0.10285 -0.034951 0.048625 0.26654 0.15863 -0.088138 -0.0049176 -0.16101 -0.16082 0.34108 0.083743 0.25846 -0.061533 0.020034 0.15522 -0.069346 -0.22655 -0.071834 -0.079221 0.11136 0.12812 0.073154 -0.28026 -0.11587 0.12146 0.059506 -0.28467 -0.063913 -0.21473 -0.07589 -0.23285 -0.14998 -0.054001 0.09527 0.051515 0.18031 0.11 0.014029 -0.066693 -0.12712 -0.2058 -0.084412 -0.074726 -0.14729 0.20043 -0.084625 -0.16528 0.0061655 -0.45236 -0.0019883 -0.013975 -0.15584 -0.10469 -0.12746 -0.029133 0.1151 0.31626 0.061436 -0.16382 -0.10623 -0.14614 -0.019929 -0.085685 
ttl|raw_hits=0,1,1,1 0.070213 -0.061859 0.074133 0.045442 -0.053732 -0.0099754 0.0052613 0.019062 0.015079 0.014593 0.079094 0.034957 0.097346 0.10074 -0.085572 0.070187 0.09774 0.052548 0.056654 -0.040874 -0.0029394 0.025877 -0.0813 -0.066884 -0.023558 0.05475 0.059213 0.017632 0.052255 0.058246 0.013943 -0.098459 -0.10167 -0.051047 -0.10548 -0.067272 -0.030432 0.049382 -0.017316 0.023691 0.12998 0.07688 -0.042651 -0.002194 -0.078543 -0.07836 0.16611 0.040896 0.12576 -0.030047 0.0093838 0.075646 -0.034098 -0.10993 -0.035185 -0.039317 0.053993 0.062693 0.036313 -0.13581 -0.055711 0.059063 0.028616 -0.13867 -0.030507 -0.1046 -0.037071 -0.1129 -0.07332 -0.026527 0.046237 0.024633 0.088316 0.053928 0.0073504 -0.032396 -0.06124 -0.099449 -0.040933 -0.036506 -0.071435 0.097513 -0.041046 -0.080359 0.003389 -0.22006 -0.00027686 -0.0059663 -0.076029 -0.050801 -0.062201 -0.014378 0.056004 0.15424 0.030125 -0.079528 -0.052053 -0.070881 -0.0098391 -0.041509 
38 0.051769 -0.045556 0.054818 0.033528 -0.039918 -0.006774 0.003683 0.014027 0.011222 0.010656 0.057911 0.025832 0.071121 0.073968 -0.062848 0.051625 0.071331 0.038732 0.041465 -0.030118 -0.0024401 0.019109 -0.059926 -0.049491 -0.0173 0.040295 0.043744 0.013051 0.038731 0.042786 0.010026 -0.072086 -0.074475 -0.037926 -0.077326 -0.049544 -0.021954 0.036356 -0.012668 0.017025 0.095337 0.05662 -0.031618 -0.0016061 -0.057359 -0.057688 0.12196 0.02978 0.092309 -0.022138 0.0070397 0.055668 -0.025061 -0.081121 -0.025689 -0.028707 0.039627 0.045887 0.026532 -0.10013 -0.041118 0.043573 0.021264 -0.10197 -0.022368 -0.076819 -0.02717 -0.083201 -0.053939 -0.019248 0.034159 0.018027 0.064569 0.039429 0.0048253 -0.023983 -0.045144 -0.073402 -0.03024 -0.026682 -0.052701 0.071889 -0.029986 -0.059033 0.0024914 -0.16192 -0.00065521 -0.0049142 -0.056092 -0.037689 -0.045792 -0.01058 0.041193 0.11312 0.022006 -0.058591 -0.038414 -0.052272 -0.0071926 -0.030393 
59 0.068473 -0.060996 0.069899 0.041773 -0.050477 -0.010093 0.0064122 0.019023 0.015636 0.012867 0.075196 0.034667 0.090722 0.098456 -0.083587 0.066466 0.093826 0.047383 0.052698 -0.039164 -0.0031033 0.022974 -0.075459 -0.061194 -0.022805 0.049484 0.054166 0.014021 0.048352 0.056296 0.014632 -0.091085 -0.098582 -0.047982 -0.096725 -0.063205 -0.031659 0.04574 -0.017306 0.021561 0.12354 0.074848 -0.039183 -0.0003553 -0.074576 -0.073161 0.15978 0.041184 0.11829 -0.026128 0.0065316 0.070582 -0.033841 -0.10675 -0.033889 -0.037313 0.051019 0.060458 0.03679 -0.12786 -0.054975 0.056862 0.027551 -0.13137 -0.029938 -0.1001 -0.034442 -0.10832 -0.071365 -0.027504 0.043079 0.02397 0.082689 0.051291 0.0069001 -0.031336 -0.055448 -0.094675 -0.039822 -0.034917 -0.066533 0.091834 -0.036487 -0.076565 0.0056274 -0.20938 0.0019188 -0.0035446 -0.074853 -0.045072 -0.059335 -0.015345 0.050226 0.14424 0.026415 -0.074523 -0.048559 -0.066291 -0.009526 -0.03691 
11:14:02] 0.11382 -0.10105 0.11971 0.073443 -0.086902 -0.014944 0.0078904 0.031928 0.02547 0.023478 0.1276 0.056882 0.15667 0.16299 -0.13847 0.11277 0.15664 0.085956 0.090798 -0.065909 -0.0043427 0.041436 -0.13174 -0.10928 -0.039102 0.088056 0.096608 0.028304 0.085461 0.093785 0.022212 -0.15924 -0.1636 -0.084032 -0.17087 -0.10863 -0.048143 0.080886 -0.027728 0.037412 0.21068 0.1254 -0.069675 -0.0037007 -0.12652 -0.12619 0.26869 0.066195 0.2039 -0.048868 0.015534 0.12209 -0.054121 -0.17754 -0.056917 -0.062903 0.087109 0.10083 0.056931 -0.22085 -0.090373 0.095267 0.046446 -0.22348 -0.049257 -0.16868 -0.059113 -0.18254 -0.11802 -0.042565 0.074467 0.040386 0.142 0.087072 0.010867 -0.051852 -0.098608 -0.16205 -0.066777 -0.058815 -0.11579 0.15809 -0.066444 -0.13062 0.005719 -0.35597 -0.00080144 -0.010609 -0.12333 -0.08172 -0.10034 -0.02287 0.090246 0.24874 0.04853 -0.12902 -0.084102 -0.11476 -0.015406 -0.066958 
